{"learner":{"attributes":{"scikit_learn":"{\"_estimator_type\": \"classifier\"}"},"feature_names":[],"feature_types":[],"gradient_booster":{"model":{"gbtree_model_param":{"num_parallel_tree":"1","num_trees":"450"},"iteration_indptr":[0,3,6,9,12,15,18,21,24,27,30,33,36,39,42,45,48,51,54,57,60,63,66,69,72,75,78,81,84,87,90,93,96,99,102,105,108,111,114,117,120,123,126,129,132,135,138,141,144,147,150,153,156,159,162,165,168,171,174,177,180,183,186,189,192,195,198,201,204,207,210,213,216,219,222,225,228,231,234,237,240,243,246,249,252,255,258,261,264,267,270,273,276,279,282,285,288,291,294,297,300,303,306,309,312,315,318,321,324,327,330,333,336,339,342,345,348,351,354,357,360,363,366,369,372,375,378,381,384,387,390,393,396,399,402,405,408,411,414,417,420,423,426,429,432,435,438,441,444,447,450],"tree_info":[0,1,2,0,1,2,0,1,2,0,1,2,0,1,2,0,1,2,0,1,2,0,1,2,0,1,2,0,1,2,0,1,2,0,1,2,0,1,2,0,1,2,0,1,2,0,1,2,0,1,2,0,1,2,0,1,2,0,1,2,0,1,2,0,1,2,0,1,2,0,1,2,0,1,2,0,1,2,0,1,2,0,1,2,0,1,2,0,1,2,0,1,2,0,1,2,0,1,2,0,1,2,0,1,2,0,1,2,0,1,2,0,1,2,0,1,2,0,1,2,0,1,2,0,1,2,0,1,2,0,1,2,0,1,2,0,1,2,0,1,2,0,1,2,0,1,2,0,1,2,0,1,2,0,1,2,0,1,2,0,1,2,0,1,2,0,1,2,0,1,2,0,1,2,0,1,2,0,1,2,0,1,2,0,1,2,0,1,2,0,1,2,0,1,2,0,1,2,0,1,2,0,1,2,0,1,2,0,1,2,0,1,2,0,1,2,0,1,2,0,1,2,0,1,2,0,1,2,0,1,2,0,1,2,0,1,2,0,1,2,0,1,2,0,1,2,0,1,2,0,1,2,0,1,2,0,1,2,0,1,2,0,1,2,0,1,2,0,1,2,0,1,2,0,1,2,0,1,2,0,1,2,0,1,2,0,1,2,0,1,2,0,1,2,0,1,2,0,1,2,0,1,2,0,1,2,0,1,2,0,1,2,0,1,2,0,1,2,0,1,2,0,1,2,0,1,2,0,1,2,0,1,2,0,1,2,0,1,2,0,1,2,0,1,2,0,1,2,0,1,2,0,1,2,0,1,2,0,1,2,0,1,2,0,1,2,0,1,2,0,1,2,0,1,2,0,1,2,0,1,2,0,1,2,0,1,2,0,1,2,0,1,2,0,1,2,0,1,2,0,1,2,0,1,2,0,1,2,0,1,2,0,1,2,0,1,2,0,1,2,0,1,2,0,1,2,0,1,2,0,1,2,0,1,2,0,1,2,0,1,2,0,1,2,0,1,2,0,1,2],"trees":[{"base_weights":[-2.7983245E-1,8.416167E-1,-3.8897023E-1,9.3696123E-1,-2.2209471E-1,4.330724E-1,-4.6110097E-1,9.978349E-1,-2.2004892E-1,7.0885766E-1,-2.2394368E-1,8.3580077E-1,-4.8670155E-1,-2.1926348E-1,1.0538125E0,-2.223108E-1,8.547238E-1,-2.1355934E-1,9.650655E-1,1.0583091E0,-5.0089055E-1,1.3260708E0,6.008891E-1,1.3632799E0,4.9829116E-1,1.1227976E0,-5.786803E-1,1.1390862E0,-1.8679248E-1,4.670302E-1,-5.186414E-1,4.068736E-1,-2.0571432E-1,-2.232064E-1,3.3523387E-1,-1.972603E-1,4.2252254E-1,3.973114E-1,6.101694E-2,-1.918033E-1,3.5288304E-1,2.5714284E-1,-2.1405408E-1,3.5830724E-1,-1.7027028E-1,7.278213E-2,4.3902442E-1,2.834543E-1,-1.583536E-1],"categories":[],"categories_nodes":[],"categories_segments":[],"categories_sizes":[],"default_left":[0,0,0,0,0,0,0,0,0,0,0,0,0,0,0,0,0,0,0,0,0,0,0,0,0,0,0,0,0,0,0,0,0,0,0,0,0,0,0,0,0,0,0,0,0,0,0,0,0],"id":0,"left_children":[1,3,5,7,-1,9,11,13,-1,15,-1,17,19,-1,21,-1,23,-1,25,27,29,31,33,35,37,39,41,43,-1,45,47,-1,-1,-1,-1,-1,-1,-1,-1,-1,-1,-1,-1,-1,-1,-1,-1,-1,-1],"loss_changes":[1.8664727E3,2.0469757E2,8.2413696E2,1.3049573E2,0E0,3.653382E2,4.245625E2,1.1995764E2,0E0,1.9297214E2,0E0,5.0234802E1,2.7518286E2,0E0,1.4636926E2,0E0,1.4918738E2,0E0,5.641089E1,1.6233719E1,2.1355371E2,4.612793E1,3.1337958E2,3.1942932E1,1.1853215E2,2.0363922E1,4.849202E0,1.1001617E1,0E0,4.975883E1,1.6472437E2,0E0,0E0,0E0,0E0,0E0,0E0,0E0,0E0,0E0,0E0,0E0,0E0,0E0,0E0,0E0,0E0,0E0,0E0],"parents":[2147483647,0,0,1,1,2,2,3,3,5,5,6,6,7,7,9,9,11,11,12,12,14,14,16,16,18,18,19,19,20,20,21,21,22,22,23,23,24,24,25,25,26,26,27,27,29,29,30,30],"right_children":[2,4,6,8,-1,10,12,14,-1,16,-1,18,20,-1,22,-1,24,-1,26,28,30,32,34,36,38,40,42,44,-1,46,48,-1,-1,-1,-1,-1,-1,-1,-1,-1,-1,-1,-1,-1,-1,-1,-1,-1,-1],"split_conditions":[-6.983595E-1,3.6709192E-1,-9.474666E-1,3.5854793E-1,-2.2209471E-1,1.3282576E-2,-1.1160862E0,-1.745258E0,-2.2004892E-1,-1.514413E0,-2.2394368E-1,-2.1598036E0,-1.0021256E0,-2.1926348E-1,-1.0542127E0,-2.223108E-1,-2.5571594E-1,-2.1355934E-1,1.3125381E-2,1.11991905E-1,-1.1073619E0,1.11991905E-1,-8.933158E-1,-2.1598036E0,-2.176003E-1,-1.7883382E0,-1.9528017E0,3.6709192E-1,-1.8679248E-1,-1.3026538E0,-9.716074E-1,4.068736E-1,-2.0571432E-1,-2.232064E-1,3.3523387E-1,-1.972603E-1,4.2252254E-1,3.973114E-1,6.101694E-2,-1.918033E-1,3.5288304E-1,2.5714284E-1,-2.1405408E-1,3.5830724E-1,-1.7027028E-1,7.278213E-2,4.3902442E-1,2.834543E-1,-1.583536E-1],"split_indices":[3,42,45,40,0,9,9,25,0,24,0,30,8,0,3,0,0,0,38,44,40,44,3,30,8,27,0,42,0,40,0,0,0,0,0,0,0,0,0,0,0,0,0,0,0,0,0,0,0],"split_type":[0,0,0,0,0,0,0,0,0,0,0,0,0,0,0,0,0,0,0,0,0,0,0,0,0,0,0,0,0,0,0,0,0,0,0,0,0,0,0,0,0,0,0,0,0,0,0,0,0],"sum_hessian":[1.5246222E4,1.3515554E3,1.3894666E4,1.2751111E3,7.644444E1,1.1204443E3,1.2774222E4,1.2306666E3,4.4444443E1,9.084444E2,2.1199998E2,2.4666666E2,1.2527555E4,3.822222E1,1.1924443E3,8.2666664E1,8.257777E2,1.8666666E1,2.2799998E2,1.1333333E2,1.2414222E4,7.435555E2,4.4888885E2,3.3911108E2,4.8666663E2,2.071111E2,2.0888887E1,1.08444435E2,4.8888884E0,2.231111E2,1.219111E4,7.3288885E2,1.0666666E1,1.24444435E2,3.2444443E2,7.1111107E0,3.3199997E2,1.2711111E2,3.5955554E2,5.7777777E0,2.0133333E2,1.3333333E0,1.9555553E1,1.0533333E2,3.111111E0,1.831111E2,3.9999996E1,7.555555E1,1.2115555E4],"tree_param":{"num_deleted":"0","num_feature":"48","num_nodes":"49","size_leaf_vector":"1"}},{"base_weights":[2.2386588E-1,1.9553797E-1,4.4864503E-1,-1.9798683E-1,2.517686E-1,4.4422254E-1,-2.7098224E-1,1.0220399E0,2.2272961E-1,-4.180705E-1,5.72921E-1,-4.0465122E-1,1.273078E0,2.0557874E-1,4.4731614E-1,-4.8988143E-1,7.090909E-1,4.4713378E-1,-2.229525E-1,4.114286E-1,-2.2131151E-1,-1.8987347E-1,1.3716553E0,1.820168E-1,1.1197861E0,4.2352945E-1,-1.5370503E-1,4.4216636E-1,-1.6750792E-1,3.8769233E-1,-2.1381217E-1,-1.894737E-1,4.2060843E-1,7.3706605E-2,-7.4973226E-2,4.48267E-1,-2.2075476E-1],"categories":[],"categories_nodes":[],"categories_segments":[],"categories_sizes":[],"default_left":[0,0,0,0,0,0,0,0,0,0,0,0,0,0,0,0,0,0,0,0,0,0,0,0,0,0,0,0,0,0,0,0,0,0,0,0,0],"id":1,"left_children":[1,3,-1,5,7,-1,9,11,13,15,17,19,21,23,-1,25,27,-1,-1,-1,-1,29,31,33,35,-1,-1,-1,-1,-1,-1,-1,-1,-1,-1,-1,-1],"loss_changes":[5.48947E2,3.3011566E2,0E0,2.2899178E2,2.9171057E2,0E0,2.222498E2,1.7024023E2,2.733177E2,1.2367679E2,3.22182E2,4.3404694E1,5.8410706E1,2.6715924E2,0E0,6.195175E1,8.967934E1,0E0,0E0,0E0,0E0,2.132764E1,2.3877502E1,3.3287082E2,2.1765143E2,0E0,0E0,0E0,0E0,0E0,0E0,0E0,0E0,0E0,0E0,0E0,0E0],"parents":[2147483647,0,0,1,1,3,3,4,4,6,6,7,7,8,8,9,9,10,10,11,11,12,12,13,13,15,15,16,16,21,21,22,22,23,23,24,24],"right_children":[2,4,-1,6,8,-1,10,12,14,16,18,20,22,24,-1,26,28,-1,-1,-1,-1,30,32,34,36,-1,-1,-1,-1,-1,-1,-1,-1,-1,-1,-1,-1],"split_conditions":[1.8757218E0,-4.940674E-1,4.4864503E-1,-1.7883382E0,-1.4906222E0,4.4422254E-1,2.8409287E-1,-1.9361318E0,2.2681007E0,6.429417E-1,8.9315945E-1,-1.9507787E0,-1.9361318E0,1.5556626E0,4.4731614E-1,-1.514413E0,9.712762E-1,4.4713378E-1,-2.229525E-1,4.114286E-1,-2.2131151E-1,-1.9507787E0,-1.1198819E0,5.3067845E-1,3.4203048E0,4.2352945E-1,-1.5370503E-1,4.4216636E-1,-1.6750792E-1,3.8769233E-1,-2.1381217E-1,-1.894737E-1,4.2060843E-1,7.3706605E-2,-7.4973226E-2,4.48267E-1,-2.2075476E-1],"split_indices":[37,2,0,27,39,0,38,45,14,36,38,39,41,30,0,24,36,0,0,0,0,39,12,33,30,0,0,0,0,0,0,0,0,0,0,0,0],"split_type":[0,0,0,0,0,0,0,0,0,0,0,0,0,0,0,0,0,0,0,0,0,0,0,0,0,0,0,0,0,0,0,0,0,0,0,0,0],"sum_hessian":[1.5246222E4,1.491511E4,3.3111108E2,1.8644443E3,1.3050666E4,7.6888885E1,1.7875554E3,4.7288885E2,1.2577777E4,1.5226666E3,2.648889E2,7.0666664E1,4.022222E2,1.241111E4,1.6666666E2,1.4319999E3,9.0666664E1,1.5599998E2,1.08888885E2,1.0666666E1,5.9999996E1,2.5333332E1,3.7688885E2,1.2100443E4,3.1066666E2,1.5999999E1,1.4159999E3,5.6444443E1,3.422222E1,6.222222E0,1.911111E1,5.333333E0,3.7155554E2,1.0546222E4,1.5542222E3,2.5866666E2,5.1999996E1],"tree_param":{"num_deleted":"0","num_feature":"48","num_nodes":"37","size_leaf_vector":"1"}},{"base_weights":[5.5966437E-2,5.8311564E-1,-7.425788E-2,-2.2407155E-1,6.9887656E-1,-5.956219E-1,3.4875628E-2,8.162923E-1,-4.3074974E-1,5.082802E-1,-6.427517E-1,-5.5717107E-2,6.1763984E-1,4.9172828E-1,1.2611744E0,-6.61451E-1,4.3448275E-1,-2.1659754E-1,1.0361663E0,-6.809473E-1,5.1443124E-1,-6.5621376E-1,9.7982185E-3,4.394323E-1,1.351193E0,6.062952E-1,-2.2318713E-1,1.17647015E-1,1.3593271E0,-7.204092E-1,3.8769233E-1,-1.972603E-1,1.2699386E0,-6.908534E-1,4.044944E-1,4.3798223E-1,-2.1724142E-1,4.09901E-1,-6.82121E-1,1.3114835E0,-2.8472941E-2,6.103057E-1,-4.0540546E-1,1.4545455E0,-2.0826449E-1,1.20553605E-1,4.0463498E-1,4.334694E-1,-1.4971647E-1,4.162539E-1,-2.0880002E-1,-2.2267587E-1,3.1034482E-1,-1.7560977E-1,4.2341357E-1,-3.2335345E-2,-2.1226567E-1,3.5999998E-1,-2.0772867E-1,-2.0769234E-1,4.2821446E-1,-2.3417588E-2,1.9046032E-1,-2.2228192E-1,2.2328383E-1,2.2727273E-1,-1.9607846E-1,4.4459763E-1,-1.7027028E-1],"categories":[],"categories_nodes":[],"categories_segments":[],"categories_sizes":[],"default_left":[0,0,0,0,0,0,0,0,0,0,0,0,0,0,0,0,0,0,0,0,0,0,0,0,0,0,0,0,0,0,0,0,0,0,0,0,0,0,0,0,0,0,0,0,0,0,0,0,0,0,0,0,0,0,0,0,0,0,0,0,0,0,0,0,0,0,0,0,0],"id":2,"left_children":[1,3,5,-1,7,9,11,13,15,17,19,21,23,25,27,29,-1,-1,31,33,35,37,39,41,43,45,-1,47,49,51,-1,-1,53,55,-1,-1,-1,-1,57,59,61,63,65,67,-1,-1,-1,-1,-1,-1,-1,-1,-1,-1,-1,-1,-1,-1,-1,-1,-1,-1,-1,-1,-1,-1,-1,-1,-1],"loss_changes":[1.0467291E3,4.6557996E2,6.957539E2,0E0,3.6897632E2,1.1044403E2,5.338952E2,3.6294482E2,1.14677765E2,5.7394012E1,9.008972E1,3.4434714E2,1.7726447E2,2.0677966E2,1.18976685E2,2.7923866E1,0E0,0E0,2.516336E1,4.044989E1,7.76978E1,4.604727E1,3.9322083E2,1.5848238E2,5.7124237E1,2.0201193E2,0E0,7.029513E1,5.7590332E1,9.512108E0,0E0,0E0,1.5084E1,1.897815E1,0E0,0E0,0E0,0E0,1.7336609E1,5.334439E1,2.5227058E2,1.6567209E2,5.389347E1,1.488269E1,0E0,0E0,0E0,0E0,0E0,0E0,0E0,0E0,0E0,0E0,0E0,0E0,0E0,0E0,0E0,0E0,0E0,0E0,0E0,0E0,0E0,0E0,0E0,0E0,0E0],"parents":[2147483647,0,0,1,1,2,2,4,4,5,5,6,6,7,7,8,8,9,9,10,10,11,11,12,12,13,13,14,14,15,15,18,18,19,19,20,20,21,21,22,22,23,23,24,24,25,25,27,27,28,28,29,29,32,32,33,33,38,38,39,39,40,40,41,41,42,42,43,43],"right_children":[2,4,6,-1,8,10,12,14,16,18,20,22,24,26,28,30,-1,-1,32,34,36,38,40,42,44,46,-1,48,50,52,-1,-1,54,56,-1,-1,-1,-1,58,60,62,64,66,68,-1,-1,-1,-1,-1,-1,-1,-1,-1,-1,-1,-1,-1,-1,-1,-1,-1,-1,-1,-1,-1,-1,-1,-1,-1],"split_conditions":[-2.7411595E-1,-6.788192E-1,-5.666474E-1,-2.2407155E-1,1.1667956E0,-2.4227786E-1,2.7410424E-1,-8.292253E-1,1.2471474E0,-6.7231655E-1,1.503495E0,-6.1498153E-1,8.801973E-1,5.649935E-1,-2.3369643E-1,1.2311157E0,4.3448275E-1,-2.1659754E-1,-1.2457943E0,9.0957946E-1,1.6183714E0,-1.3200996E0,-4.3116367E-1,4.5183352E-1,1.1667956E0,5.3067845E-1,-2.2318713E-1,-1.4799044E-1,1.3310405E0,1.2311157E0,3.8769233E-1,-1.972603E-1,-1.2778782E0,-2.4227786E-1,4.044944E-1,4.3798223E-1,-2.1724142E-1,4.09901E-1,-1.3200996E0,-9.036817E-1,9.80126E-2,-6.7231655E-1,-5.2671885E-1,1.1850808E0,-2.0826449E-1,1.20553605E-1,4.0463498E-1,4.334694E-1,-1.4971647E-1,4.162539E-1,-2.0880002E-1,-2.2267587E-1,3.1034482E-1,-1.7560977E-1,4.2341357E-1,-3.2335345E-2,-2.1226567E-1,3.5999998E-1,-2.0772867E-1,-2.0769234E-1,4.2821446E-1,-2.3417588E-2,1.9046032E-1,-2.2228192E-1,2.2328383E-1,2.2727273E-1,-1.9607846E-1,4.4459763E-1,-1.7027028E-1],"split_indices":[13,30,45,0,2,17,3,13,7,33,13,6,26,4,3,9,0,0,17,9,13,21,45,26,2,33,0,37,1,5,0,0,31,21,0,0,0,0,18,7,7,26,15,5,0,0,0,0,0,0,0,0,0,0,0,0,0,0,0,0,0,0,0,0,0,0,0,0,0],"split_type":[0,0,0,0,0,0,0,0,0,0,0,0,0,0,0,0,0,0,0,0,0,0,0,0,0,0,0,0,0,0,0,0,0,0,0,0,0,0,0,0,0,0,0,0,0,0,0,0,0,0,0,0,0,0,0,0,0,0,0,0,0,0,0,0,0,0,0,0,0],"sum_hessian":[1.5246222E4,3.0195554E3,1.2226666E4,2.4133331E2,2.7782222E3,2.1155554E3,1.011111E4,2.5168887E3,2.613333E2,8.622221E1,2.0293333E3,8.751555E3,1.3595554E3,1.4564443E3,1.0604443E3,2.3333331E2,2.7999998E1,2.5777777E1,6.0444443E1,1.9648888E3,6.444444E1,8.5999994E2,7.891555E3,1.0951111E3,2.6444443E2,1.3333333E3,1.2311111E2,8.399999E1,9.764444E2,2.271111E2,6.222222E0,7.1111107E0,5.333333E1,1.9559999E3,8.888888E0,3.6444443E1,2.7999998E1,1.0222221E1,8.497777E2,2.2444443E2,7.667111E3,9.111111E2,1.8399998E2,2.5199998E2,1.2444444E1,1.0466666E3,2.8666666E2,2.6222221E1,5.7777775E1,9.635555E2,1.2888888E1,2.2488887E2,2.222222E0,3.5555553E0,4.9777775E1,5.4666664E1,1.9013333E3,3.9999998E0,8.457777E2,1.1999999E1,2.1244443E2,7.134666E3,5.324444E2,8.177777E1,8.293333E2,3.1999998E1,1.5199998E2,2.4888887E2,3.111111E0],"tree_param":{"num_deleted":"0","num_feature":"48","num_nodes":"69","size_leaf_vector":"1"}},{"base_weights":[-2.33361E-1,6.28006E-1,-3.2919982E-1,6.933948E-1,-2.0390786E-1,4.8923054E-1,-3.874711E-1,7.335412E-1,-1.9946454E-1,-2.1073662E-1,6.455467E-1,7.8977746E-1,-4.1869935E-1,-2.1021931E-1,7.7045715E-1,7.6819277E-1,-2.0855726E-1,-1.997067E-1,8.644678E-1,7.6122797E-1,-4.3818983E-1,9.515696E-1,4.5105612E-1,-2.110028E-1,8.658507E-1,9.142962E-1,-1.9638592E-1,9.2254347E-1,-2.0143393E-1,1.0485289E0,-4.5273042E-1,-2.0355429E-1,2.912497E-1,-2.0935713E-1,2.4599926E-1,-2.0288742E-1,2.7731586E-1,-1.8309638E-1,2.8420317E-1,2.985976E-1,-1.8627754E-1,3.3431032E-1,-1.8133783E-1,2.7399224E-1,-1.3911514E-1],"categories":[],"categories_nodes":[],"categories_segments":[],"categories_sizes":[],"default_left":[0,0,0,0,0,0,0,0,0,0,0,0,0,0,0,0,0,0,0,0,0,0,0,0,0,0,0,0,0,0,0,0,0,0,0,0,0,0,0,0,0,0,0,0,0],"id":3,"left_children":[1,3,5,7,-1,9,11,13,-1,-1,15,17,19,-1,21,23,-1,-1,25,27,29,31,33,-1,35,37,-1,39,-1,41,43,-1,-1,-1,-1,-1,-1,-1,-1,-1,-1,-1,-1,-1,-1],"loss_changes":[1.184894E3,1.2336377E2,6.160968E2,7.5152466E1,0E0,1.6043538E2,4.4357654E2,7.098181E1,0E0,0E0,1.25465546E2,3.448236E1,2.7045605E2,0E0,7.462805E1,1.0070914E2,0E0,0E0,2.308818E1,4.4816063E1,2.5028076E2,2.6629333E1,2.0039297E2,0E0,5.9630463E1,1.5093903E1,0E0,1.9973862E1,0E0,1.2887032E1,1.7218335E2,0E0,0E0,0E0,0E0,0E0,0E0,0E0,0E0,0E0,0E0,0E0,0E0,0E0,0E0],"parents":[2147483647,0,0,1,1,2,2,3,3,5,5,6,6,7,7,10,10,11,11,12,12,14,14,15,15,18,18,19,19,20,20,21,21,22,22,24,24,25,25,27,27,29,29,30,30],"right_children":[2,4,6,8,-1,10,12,14,-1,-1,16,18,20,-1,22,24,-1,-1,26,28,30,32,34,-1,36,38,-1,40,-1,42,44,-1,-1,-1,-1,-1,-1,-1,-1,-1,-1,-1,-1,-1,-1],"split_conditions":[-6.983595E-1,3.6709192E-1,-1.2209798E0,3.5854793E-1,-2.0390786E-1,-1.8470299E0,-1.1160862E0,-2.2232046E0,-1.9946454E-1,-2.1073662E-1,1.39908055E-2,-1.8127233E0,-1.2209798E0,-2.1021931E-1,-1.0542127E0,-5.6720823E-1,-2.0855726E-1,-1.997067E-1,1.11991905E-1,9.80126E-2,-1.1663061E0,-1.6916109E0,-8.933158E-1,-2.110028E-1,-1.514413E0,-1.514413E0,-1.9638592E-1,1.39908055E-2,-2.0143393E-1,3.5854793E-1,-1.0021256E0,-2.0355429E-1,2.912497E-1,-2.0935713E-1,2.4599926E-1,-2.0288742E-1,2.7731586E-1,-1.8309638E-1,2.8420317E-1,2.985976E-1,-1.8627754E-1,3.3431032E-1,-1.8133783E-1,2.7399224E-1,-1.3911514E-1],"split_indices":[3,42,33,40,0,38,9,28,0,0,4,28,31,0,3,3,0,0,44,3,4,24,3,0,24,24,0,4,0,40,8,0,0,0,0,0,0,0,0,0,0,0,0,0,0],"split_type":[0,0,0,0,0,0,0,0,0,0,0,0,0,0,0,0,0,0,0,0,0,0,0,0,0,0,0,0,0,0,0,0,0,0,0,0,0,0,0,0,0,0,0,0,0],"sum_hessian":[1.434973E4,1.4361898E3,1.2913541E4,1.3682434E3,6.7946465E1,8.578262E2,1.2055715E4,1.3294102E3,3.8833263E1,9.9069534E1,7.5875665E2,3.10904E2,1.1744811E4,3.2907127E1,1.2965029E3,6.955565E2,6.32001E1,1.4789685E1,2.961143E2,1.9023419E2,1.1554577E4,8.2609595E2,4.70407E2,4.290162E1,6.526549E2,2.8709525E2,9.019035E0,1.7130208E2,1.8932112E1,1.1122424E2,1.1443353E4,9.248253E0,8.168477E2,1.1412403E2,3.56283E2,2.3481112E1,6.291738E2,5.72046E0,2.813748E2,1.6392726E2,7.3748097E0,1.0727722E2,3.9470224E0,9.064654E1,1.1352706E4],"tree_param":{"num_deleted":"0","num_feature":"48","num_nodes":"45","size_leaf_vector":"1"}},{"base_weights":[1.7263532E-1,1.5244524E-1,1.1689799E0,-3.438925E-1,1.8450706E-1,4.04394E-1,3.205463E-1,3.2587463E-1,-4.8547664E-1,1.2282188E0,1.571779E-1,-5.652663E-1,3.23386E-1,1.2941179E0,1.0960746E0,-3.427856E-1,1.9904345E-1,3.277553E-1,-6.1433494E-1,4.025712E-1,3.244687E-1,3.08212E-1,3.7531468E-1,-2.0981194E-1,-2.0771064E-1,8.982117E-1,1.7650649E-1,3.030255E-1,-1.8995625E-1,-8.615841E-2,1.7223164E-1,-2.258784E-1,3.2991958E-1,-2.2954306E-1,6.0687E-2],"categories":[],"categories_nodes":[],"categories_segments":[],"categories_sizes":[],"default_left":[0,0,0,0,0,0,0,0,0,0,0,0,0,0,0,0,0,0,0,0,0,0,0,0,0,0,0,0,0,0,0,0,0,0,0],"id":4,"left_children":[1,3,5,7,9,-1,-1,-1,11,13,15,17,-1,19,21,23,25,-1,27,-1,-1,-1,-1,-1,29,31,33,-1,-1,-1,-1,-1,-1,-1,-1],"loss_changes":[3.121084E2,2.4221722E2,4.103363E0,1.8755646E2,4.0753177E2,0E0,0E0,0E0,1.0553938E2,1.7564697E0,2.916536E2,6.582588E1,0E0,9.633789E-1,7.594299E-2,5.1717316E1,2.0239743E2,0E0,2.4483093E1,0E0,0E0,0E0,0E0,0E0,4.8781784E1,1.3431567E2,3.0254297E2,0E0,0E0,0E0,0E0,0E0,0E0,0E0,0E0],"parents":[2147483647,0,0,1,1,2,2,3,3,4,4,8,8,9,9,10,10,11,11,13,13,14,14,15,15,16,16,18,18,24,24,25,25,26,26],"right_children":[2,4,6,8,10,-1,-1,-1,12,14,16,18,-1,20,22,24,26,-1,28,-1,-1,-1,-1,-1,30,32,34,-1,-1,-1,-1,-1,-1,-1,-1],"split_conditions":[1.748782E0,-1.1976614E0,1.2785937E-1,-1.8127233E0,-8.6279756E-1,4.04394E-1,3.205463E-1,3.2587463E-1,3.5854793E-1,1.3125381E-2,-4.7269174E-1,-1.2867863E0,3.23386E-1,9.463659E-3,-5.972114E-1,-2.1457423E-1,-3.169456E-1,3.277553E-1,-1.514413E0,4.025712E-1,3.244687E-1,3.08212E-1,3.7531468E-1,-2.0981194E-1,2.8409287E-1,-1.4733461E-2,-1.6364607E-1,3.030255E-1,-1.8995625E-1,-8.615841E-2,1.7223164E-1,-2.258784E-1,3.2991958E-1,-2.2954306E-1,6.0687E-2],"split_indices":[40,6,37,28,6,0,0,0,40,38,2,36,0,36,2,6,2,0,24,0,0,0,0,0,38,28,2,0,0,0,0,0,0,0,0],"split_type":[0,0,0,0,0,0,0,0,0,0,0,0,0,0,0,0,0,0,0,0,0,0,0,0,0,0,0,0,0,0,0,0,0,0,0],"sum_hessian":[1.5523068E4,1.5215885E4,3.071841E2,9.226675E2,1.4293217E4,1.0598551E2,2.0119861E2,8.251468E1,8.4015283E2,3.635908E2,1.3929626E4,7.99965E2,4.018777E1,2.367383E2,1.2685249E2,1.0757461E3,1.285388E4,2.2386097E1,7.775789E2,1.8894685E2,4.779145E1,9.3176125E1,3.367637E1,2.9439316E2,7.8135297E2,4.001795E2,1.24537E4,8.317604E0,7.6926135E2,7.09821E2,7.1531944E1,4.3231266E1,3.5694824E2,3.31145E2,1.2122556E4],"tree_param":{"num_deleted":"0","num_feature":"48","num_nodes":"35","size_leaf_vector":"1"}},{"base_weights":[4.4191893E-2,-2.0912659E-1,1.104723E-1,5.16603E-1,-1.2954378E-3,-2.2223784E-1,5.887815E-1,-7.8752056E-2,4.9464542E-1,6.8665683E-1,-4.124631E-1,-5.5104244E-1,-1.3592388E-2,-2.2404103E-1,6.016738E-1,1.2293836E0,5.9376895E-1,-6.384379E-1,3.3702987E-1,-6.43944E-1,1.351931E-2,1.1095555E0,-3.6075402E-2,6.717674E-1,-2.093842E-1,-1.9522724E-1,3.817746E-1,7.128969E-2,2.6908672E-1,-2.076815E-1,3.0975345E-1,-2.0142815E-1,3.984159E-2,3.404402E-1,-1.24741204E-1,3.6541313E-1,-1.9760533E-1,6.637184E-3,-1.4391592E-1,-1.3476281E-1,2.2098102E-1],"categories":[],"categories_nodes":[],"categories_segments":[],"categories_sizes":[],"default_left":[0,0,0,0,0,0,0,0,0,0,0,0,0,0,0,0,0,0,0,0,0,0,0,0,0,0,0,0,0,0,0,0,0,0,0,0,0,0,0,0,0],"id":5,"left_children":[1,-1,3,5,7,-1,9,11,13,15,17,19,21,-1,23,25,27,29,-1,31,33,35,37,39,-1,-1,-1,-1,-1,-1,-1,-1,-1,-1,-1,-1,-1,-1,-1,-1,-1],"loss_changes":[7.437552E2,0E0,6.307167E2,2.7258325E2,4.1864066E2,0E0,2.782431E2,2.9007025E2,1.9605588E2,1.2954663E2,8.8597534E1,5.9945343E1,2.0923087E2,0E0,1.2398224E2,3.1424744E1,2.3825018E2,2.0627388E1,0E0,2.103769E1,7.867685E1,3.199614E1,2.0973465E2,9.38692E1,0E0,0E0,0E0,0E0,0E0,0E0,0E0,0E0,0E0,0E0,0E0,0E0,0E0,0E0,0E0,0E0,0E0],"parents":[2147483647,0,0,2,2,3,3,4,4,6,6,7,7,8,8,9,9,10,10,11,11,12,12,14,14,15,15,16,16,17,17,19,19,20,20,21,21,22,22,23,23],"right_children":[2,-1,4,6,8,-1,10,12,14,16,18,20,22,-1,24,26,28,30,-1,32,34,36,38,40,-1,-1,-1,-1,-1,-1,-1,-1,-1,-1,-1,-1,-1,-1,-1,-1,-1],"split_conditions":[-8.324449E-1,-2.0912659E-1,-2.7411595E-1,-1.3217227E0,2.7410424E-1,-2.2223784E-1,1.1667956E0,-4.3869674E-1,-0E0,-1.2004161E0,1.2471474E0,4.9816507E-1,-6.373646E-1,-2.2404103E-1,1.5595931E0,-1.6249585E0,-8.292253E-1,1.2311157E0,3.3702987E-1,4.9816507E-1,5.420581E-1,1.20535925E-1,5.891788E-1,-5.873972E-1,-2.093842E-1,-1.9522724E-1,3.817746E-1,7.128969E-2,2.6908672E-1,-2.076815E-1,3.0975345E-1,-2.0142815E-1,3.984159E-2,3.404402E-1,-1.24741204E-1,3.6541313E-1,-1.9760533E-1,6.637184E-3,-1.4391592E-1,-1.3476281E-1,2.2098102E-1],"split_indices":[32,0,12,12,3,0,2,8,12,12,7,33,32,0,37,33,12,9,0,29,33,44,15,40,0,0,0,0,0,0,0,0,0,0,0,0,0,0,0,0,0],"split_type":[0,0,0,0,0,0,0,0,0,0,0,0,0,0,0,0,0,0,0,0,0,0,0,0,0,0,0,0,0,0,0,0,0,0,0,0,0,0,0,0,0],"sum_hessian":[1.5135216E4,1.2414387E3,1.3893777E4,2.9976365E3,1.0896141E4,1.6222961E2,2.835407E3,9.424978E3,1.4711628E3,2.5832034E3,2.5220349E2,1.1417667E3,8.283211E3,1.1629144E2,1.3548713E3,3.757178E2,2.2074856E3,2.2036565E2,3.1837852E1,9.803108E2,1.6145587E2,1.6160919E2,8.121602E3,1.2859957E3,6.887567E1,8.122767E0,3.6759506E2,1.015922E3,1.1915636E3,2.1405504E2,6.310609E0,9.4694147E2,3.3369305E1,4.4248085E1,1.1720778E2,1.525602E2,9.04899E0,7.180571E3,9.4103094E2,6.998944E1,1.2160062E3],"tree_param":{"num_deleted":"0","num_feature":"48","num_nodes":"41","size_leaf_vector":"1"}},{"base_weights":[-2.0110762E-1,4.4487464E-1,-2.9266128E-1,5.6640935E-1,-1.9348173E-1,6.567345E-1,-3.3194172E-1,-1.9522223E-1,6.416761E-1,1.2521528E-1,9.407971E-1,5.587162E-1,-3.5891047E-1,6.8919647E-1,-2.1019822E-1,2.8344092E-1,-3.6500496E-1,2.620976E-1,1.0538477E0,7.354137E-1,-1.9667658E-1,4.8665476E-1,-3.8183412E-1,7.385108E-1,-2.0292166E-1,-5.729971E-1,2.6209098E-1,2.6488528E-1,1.1576433E0,-1.9176017E-1,7.92886E-1,5.8972996E-1,-2.1699367E-1,-6.4435613E-1,-3.2312566E-1,-2.0590271E-1,2.2743683E-1,-1.933438E-1,2.2660495E-1,2.6586893E-1,3.8139933E-1,-1.7888254E-1,2.5460732E-1,2.0878224E-1,-1.9863157E-1,2.1617039E-1,-1.9539389E-1,9.021341E-2,-1.0630412E-1],"categories":[],"categories_nodes":[],"categories_segments":[],"categories_sizes":[],"default_left":[0,0,0,0,0,0,0,0,0,0,0,0,0,0,0,0,0,0,0,0,0,0,0,0,0,0,0,0,0,0,0,0,0,0,0,0,0,0,0,0,0,0,0,0,0,0,0,0,0],"id":6,"left_children":[1,3,5,7,-1,9,11,-1,13,15,17,19,21,23,-1,-1,25,-1,27,29,-1,31,33,35,-1,37,-1,-1,39,-1,41,43,-1,45,47,-1,-1,-1,-1,-1,-1,-1,-1,-1,-1,-1,-1,-1,-1],"loss_changes":[7.870931E2,2.1919547E2,4.348697E2,1.366376E2,0E0,6.984828E1,2.6904968E2,0E0,8.9840576E1,6.565502E1,1.3703308E0,7.11474E1,2.1077527E2,9.164636E1,0E0,0E0,2.6890839E1,0E0,8.8684845E-1,2.325772E1,0E0,3.624595E1,1.628258E2,3.7036743E1,0E0,8.872288E0,0E0,0E0,8.400879E-1,0E0,2.1969376E1,3.5722572E1,0E0,1.8817322E1,1.6852332E2,0E0,0E0,0E0,0E0,0E0,0E0,0E0,0E0,0E0,0E0,0E0,0E0,0E0,0E0],"parents":[2147483647,0,0,1,1,2,2,3,3,5,5,6,6,8,8,9,9,10,10,11,11,12,12,13,13,16,16,18,18,19,19,21,21,22,22,23,23,25,25,28,28,30,30,31,31,33,33,34,34],"right_children":[2,4,6,8,-1,10,12,-1,14,16,18,20,22,24,-1,-1,26,-1,28,30,-1,32,34,36,-1,38,-1,-1,40,-1,42,44,-1,46,48,-1,-1,-1,-1,-1,-1,-1,-1,-1,-1,-1,-1,-1,-1],"split_conditions":[-9.474666E-1,1.3282576E-2,-1.0542127E0,-1.514413E0,-1.9348173E-1,-1.4518515E0,-1.2837435E0,-1.9522223E-1,1.4521606E0,-1.7935272E0,-6.983595E-1,1.11991905E-1,-1.1073619E0,2.416356E-2,-2.1019822E-1,2.8344092E-1,8.292164E-1,2.620976E-1,-1.2420224E0,-2.1598036E0,-1.9667658E-1,1.2276396E0,-0E0,-1.9507787E0,-2.0292166E-1,8.292164E-1,2.6209098E-1,2.6488528E-1,-6.983595E-1,-1.9176017E-1,-1.3200996E0,1.4813399E-4,-2.1699367E-1,-8.121241E-1,-6.313379E-1,-2.0590271E-1,2.2743683E-1,-1.933438E-1,2.2660495E-1,2.6586893E-1,3.8139933E-1,-1.7888254E-1,2.5460732E-1,2.0878224E-1,-1.9863157E-1,2.1617039E-1,-1.9539389E-1,9.021341E-2,-1.0630412E-1],"split_indices":[45,9,2,24,0,2,6,0,13,2,3,44,40,0,0,0,14,0,9,30,0,17,17,38,0,13,0,0,8,0,18,1,0,25,38,0,0,0,0,0,0,0,0,0,0,0,0,0,0],"split_type":[0,0,0,0,0,0,0,0,0,0,0,0,0,0,0,0,0,0,0,0,0,0,0,0,0,0,0,0,0,0,0,0,0,0,0,0,0,0,0,0,0,0,0,0,0,0,0,0,0],"sum_hessian":[1.3305317E4,1.6511702E3,1.1654147E4,1.4859402E3,1.6522995E2,4.623986E2,1.1191749E4,8.609177E1,1.3998484E3,1.6155266E2,3.0084595E2,3.2834256E2,1.0863406E4,1.3524564E3,4.7392006E1,6.0117058E1,1.014356E2,1.9422665E2,1.066193E2,2.8697784E2,4.1364723E1,2.86204E2,1.0577202E4,1.3057622E3,4.6694206E1,8.731166E1,1.4123935E1,4.3879486E1,6.2739815E1,1.111075E1,2.758671E2,2.6420905E2,2.1994946E1,1.9312788E3,8.645924E3,1.7267176E1,1.288495E3,8.334163E1,3.9700327E0,2.1118256E1,4.162156E1,1.0280032E1,2.6558707E2,2.4395497E2,2.0254082E1,9.273371E0,1.9220055E3,4.116709E2,8.234253E3],"tree_param":{"num_deleted":"0","num_feature":"48","num_nodes":"49","size_leaf_vector":"1"}},{"base_weights":[1.3657926E-1,1.1738009E-1,9.2642266E-1,1.608774E-1,-1.8125917E-1,2.9578856E-1,2.6120335E-1,1.0934414E-1,6.696175E-1,-3.1825337E-1,8.2653236E-1,-2.6936495E-1,1.4333585E-1,8.1371164E-1,-2.2218005E-1,-3.8726032E-1,7.2840965E-1,-2.3359954E-1,1.1321194E0,-3.9123958E-1,4.7467062E-1,7.171167E-1,1.13920815E-1,9.4108254E-1,-3.9881858E-1,-4.420053E-1,7.995212E-1,3.555491E-1,-1.9698645E-1,3.6988032E-1,2.794902E-1,2.6798666E-1,-1.3727131E-1,2.841134E-1,-1.3276468E-1,-1.9621308E-1,2.4675307E-1,-2.1114601E-1,3.9527632E-2,-1.9965914E-1,2.9524395E-1,-1.990009E-1,3.3648893E-1,-1.5751316E-1,8.654401E-2,2.863043E-1,-1.7462932E-1],"categories":[],"categories_nodes":[],"categories_segments":[],"categories_sizes":[],"default_left":[0,0,0,0,0,0,0,0,0,0,0,0,0,0,0,0,0,0,0,0,0,0,0,0,0,0,0,0,0,0,0,0,0,0,0,0,0,0,0,0,0,0,0,0,0,0,0],"id":7,"left_children":[1,3,5,7,9,-1,-1,11,13,15,17,19,21,23,-1,25,27,-1,29,31,33,35,37,39,41,43,45,-1,-1,-1,-1,-1,-1,-1,-1,-1,-1,-1,-1,-1,-1,-1,-1,-1,-1,-1,-1],"loss_changes":[2.3511221E2,1.9675626E2,3.6279297E-1,3.4650656E2,2.6614984E2,0E0,0E0,1.5457745E2,2.4764441E2,1.227874E2,1.14066574E2,8.987823E1,1.858573E2,1.7080133E2,0E0,1.0377704E2,6.73651E1,0E0,2.7774506E0,7.2871216E1,6.0933147E1,7.814749E1,1.5297334E2,6.976599E1,4.3215282E1,9.249243E1,1.5646713E1,0E0,0E0,0E0,0E0,0E0,0E0,0E0,0E0,0E0,0E0,0E0,0E0,0E0,0E0,0E0,0E0,0E0,0E0,0E0,0E0],"parents":[2147483647,0,0,1,1,2,2,3,3,4,4,7,7,8,8,9,9,10,10,11,11,12,12,13,13,15,15,16,16,18,18,19,19,20,20,21,21,22,22,23,23,24,24,25,25,26,26],"right_children":[2,4,6,8,10,-1,-1,12,14,16,18,20,22,24,-1,26,28,-1,30,32,34,36,38,40,42,44,46,-1,-1,-1,-1,-1,-1,-1,-1,-1,-1,-1,-1,-1,-1,-1,-1,-1,-1,-1,-1],"split_conditions":[1.8757218E0,5.014164E-1,7.659525E-2,4.774566E-3,1.1667956E0,2.9578856E-1,2.6120335E-1,-6.371942E-1,5.1438725E-1,1.3118165E0,7.0299935E-1,2.8409287E-1,-1.4906222E0,8.7973315E-1,-2.2218005E-1,1.4922616E0,1.1541225E0,-2.3359954E-1,1.1411171E0,-1.745258E0,8.357925E-1,-1.9361318E0,-1.1549642E0,-1.13086425E-1,4.8566037E-1,8.7964064E-1,3.4406257E0,3.555491E-1,-1.9698645E-1,3.6988032E-1,2.794902E-1,2.6798666E-1,-1.3727131E-1,2.841134E-1,-1.3276468E-1,-1.9621308E-1,2.4675307E-1,-2.1114601E-1,3.9527632E-2,-1.9965914E-1,2.9524395E-1,-1.990009E-1,3.3648893E-1,-1.5751316E-1,8.654401E-2,2.863043E-1,-1.7462932E-1],"split_indices":[37,28,40,28,2,0,0,0,8,44,28,38,39,41,0,30,28,0,30,25,38,40,39,26,16,1,28,0,0,0,0,0,0,0,0,0,0,0,0,0,0,0,0,0,0,0,0],"split_type":[0,0,0,0,0,0,0,0,0,0,0,0,0,0,0,0,0,0,0,0,0,0,0,0,0,0,0,0,0,0,0,0,0,0,0,0,0,0,0,0,0,0,0,0,0,0,0],"sum_hessian":[1.5510451E4,1.5143498E4,3.66953E2,1.3218642E4,1.9248564E3,1.6936885E2,1.9758415E2,1.200391E4,1.2147314E3,1.695115E3,2.2974138E2,9.881203E2,1.101579E4,1.1025022E3,1.1222925E2,1.590859E3,1.04256004E2,3.6494396E1,1.9324698E2,8.4945233E2,1.3866797E2,5.360483E2,1.0479742E4,9.9790106E2,1.0460119E2,1.5213102E3,6.954889E1,7.850953E1,2.5746477E1,1.2516004E2,6.808694E1,4.1098602E1,8.0835376E2,9.1508156E1,4.7159813E1,3.789048E1,4.981578E2,2.2290063E2,1.0256842E4,2.5672321E1,9.722287E2,8.9580315E1,1.5020877E1,1.3662784E3,1.5503168E2,6.2818592E1,6.7302976E0],"tree_param":{"num_deleted":"0","num_feature":"48","num_nodes":"47","size_leaf_vector":"1"}},{"base_weights":[3.758327E-2,-5.867009E-1,9.775988E-2,-6.400164E-1,3.7550655E-1,4.5792085E-1,-2.6528807E-3,-6.531258E-1,3.585599E-1,5.3134257E-1,-3.8874003E-1,-5.3618968E-2,6.4837295E-1,-6.598379E-1,3.4700865E-1,3.4755564E-1,8.8181114E-1,-5.9682435E-1,2.8219184E-1,7.3428927E-3,-5.3032374E-1,7.5920653E-1,-4.338E-1,-1.8824866E-1,-6.7303884E-1,1.9911475E-1,9.209981E-1,9.160268E-1,-2.2019868E-1,-1.9812903E-1,2.5949684E-1,-4.6422668E-2,6.743112E-1,-5.822333E-1,3.324213E-1,-2.1239306E-1,8.401689E-1,-2.1195823E-1,3.369063E-1,-1.921246E-1,-2.0662293E-1,9.916369E-2,-1.4894421E-1,2.9139662E-1,-2.1880703E-1,-2.092038E-1,2.8131405E-1,-1.743515E-1,-1.9336871E-3,2.7936652E-1,-1.4822172E-1,1.9212247E-1,-1.807476E-1,3.528424E-1,-2.0134962E-1,-2.0340316E-1,2.6585305E-1,3.1358796E-1,-1.9674936E-1],"categories":[],"categories_nodes":[],"categories_segments":[],"categories_sizes":[],"default_left":[0,0,0,0,0,0,0,0,0,0,0,0,0,0,0,0,0,0,0,0,0,0,0,0,0,0,0,0,0,0,0,0,0,0,0,0,0,0,0,0,0,0,0,0,0,0,0,0,0,0,0,0,0,0,0,0,0,0,0],"id":8,"left_children":[1,3,5,7,-1,9,11,13,-1,15,17,19,21,23,-1,25,27,29,-1,31,33,35,37,-1,39,41,43,45,-1,-1,-1,47,49,51,53,-1,55,-1,57,-1,-1,-1,-1,-1,-1,-1,-1,-1,-1,-1,-1,-1,-1,-1,-1,-1,-1,-1,-1],"loss_changes":[5.5727985E2,1.2863208E2,4.8929016E2,3.1289612E1,0E0,1.835664E2,3.51108E2,1.6066467E1,0E0,1.7455115E2,6.583244E1,2.8519296E2,9.247577E1,1.1376953E-1,0E0,1.5154489E2,5.2266052E1,1.9598038E1,0E0,3.1207843E2,5.0025238E1,8.341925E1,1.5374059E1,0E0,8.728027E-3,1.2973013E2,3.1126709E1,3.2644592E1,0E0,0E0,0E0,1.7216415E2,1.9533249E2,2.6391083E1,5.4799507E1,0E0,4.678781E1,0E0,1.4397905E1,0E0,0E0,0E0,0E0,0E0,0E0,0E0,0E0,0E0,0E0,0E0,0E0,0E0,0E0,0E0,0E0,0E0,0E0,0E0,0E0],"parents":[2147483647,0,0,1,1,2,2,3,3,5,5,6,6,7,7,9,9,10,10,11,11,12,12,13,13,15,15,16,16,17,17,19,19,20,20,21,21,22,22,24,24,25,25,26,26,27,27,31,31,32,32,33,33,34,34,36,36,38,38],"right_children":[2,4,6,8,-1,10,12,14,-1,16,18,20,22,24,-1,26,28,30,-1,32,34,36,38,-1,40,42,44,46,-1,-1,-1,48,50,52,54,-1,56,-1,58,-1,-1,-1,-1,-1,-1,-1,-1,-1,-1,-1,-1,-1,-1,-1,-1,-1,-1,-1,-1],"split_conditions":[-6.788192E-1,1.5119464E0,-2.7411595E-1,1.5119464E0,3.7550655E-1,1.1667956E0,1.7958778E-1,1.5119464E0,3.585599E-1,-7.443983E-1,1.3093753E0,5.891788E-1,1.3118165E0,-6.964923E-1,3.4700865E-1,4.0143776E-1,1.3310405E0,1.2311157E0,2.8219184E-1,8.801973E-1,1.10696346E-1,-5.666474E-1,5.1438725E-1,-1.8824866E-1,-9.474666E-1,1.0567164E0,5.384027E-1,-2.1771817E0,-2.2019868E-1,-1.9812903E-1,2.5949684E-1,-6.1498153E-1,1.5556626E0,-1.8909706E0,4.489726E-1,-2.1239306E-1,-6.7231655E-1,-2.1195823E-1,6.6247165E-1,-1.921246E-1,-2.0662293E-1,9.916369E-2,-1.4894421E-1,2.9139662E-1,-2.1880703E-1,-2.092038E-1,2.8131405E-1,-1.743515E-1,-1.9336871E-3,2.7936652E-1,-1.4822172E-1,1.9212247E-1,-1.807476E-1,3.528424E-1,-2.0134962E-1,-2.0340316E-1,2.6585305E-1,3.1358796E-1,-1.9674936E-1],"split_indices":[30,17,13,14,0,2,8,19,0,13,42,15,37,6,0,32,1,9,0,26,2,38,8,0,45,37,3,5,0,0,0,6,26,42,2,0,27,0,8,0,0,0,0,0,0,0,0,0,0,0,0,0,0,0,0,0,0,0,0],"split_type":[0,0,0,0,0,0,0,0,0,0,0,0,0,0,0,0,0,0,0,0,0,0,0,0,0,0,0,0,0,0,0,0,0,0,0,0,0,0,0,0,0,0,0,0,0,0,0,0,0,0,0,0,0,0,0,0,0,0,0],"sum_hessian":[1.4831645E4,1.3032034E3,1.3528441E4,1.2671075E3,3.609576E1,2.9486497E3,1.0579792E4,1.25876E3,8.347567E0,2.713693E3,2.349567E2,9.812527E3,7.6726404E2,1.254742E3,4.018056E0,1.781474E3,9.322191E2,2.0363353E2,3.1323174E1,8.700834E3,1.1116936E3,6.9625385E2,7.101023E1,3.7776025E2,8.769817E2,1.4162196E3,3.6525433E2,9.133123E2,1.8906803E1,1.9566792E2,7.9655967E0,8.052627E3,6.482069E2,1.0489081E3,6.27855E1,3.6006508E1,6.602473E2,5.2511448E1,1.8498785E1,2.9855344E2,5.784283E2,1.1915957E3,2.2462392E2,3.5484555E2,1.0408779E1,1.1700531E1,9.0161176E2,5.591865E2,7.4934404E3,5.3153345E2,1.1667342E2,1.6597721E1,1.0323104E3,3.4016083E1,2.8769415E1,1.9016014E1,6.412313E2,1.0764576E1,7.73421E0],"tree_param":{"num_deleted":"0","num_feature":"48","num_nodes":"59","size_leaf_vector":"1"}},{"base_weights":[-1.738257E-1,5.515099E-1,-2.3851997E-1,-1.8929997E-1,6.14171E-1,5.5431443E-1,-2.8377655E-1,6.817945E-1,-8.143041E-2,6.8446404E-1,-2.0137374E-1,7.005663E-1,-3.0820832E-1,-1.9831479E-1,7.03609E-1,2.1976237E-1,-1.9003107E-1,-2.0120694E-1,7.228466E-1,7.5055784E-1,-1.833981E-1,-2.2187555E-1,-5.2352065E-1,7.172759E-1,-2.1438363E-1,7.5955427E-1,-1.8431643E-1,-1.6601008E-1,7.8626144E-1,1.3534091E-1,-2.8958583E-1,-5.506146E-1,8.273479E-1,-1.7180313E-1,2.1950905E-1,-1.8756497E-1,2.3369351E-1,2.4390066E-1,-1.7742021E-1,1.7950062E-2,5.5122286E-1,-9.334029E-2,1.9820578E-1,2.1560103E-1,-1.681628E-1,-1.7483895E-1,5.664482E-1],"categories":[],"categories_nodes":[],"categories_segments":[],"categories_sizes":[],"default_left":[0,0,0,0,0,0,0,0,0,0,0,0,0,0,0,0,0,0,0,0,0,0,0,0,0,0,0,0,0,0,0,0,0,0,0,0,0,0,0,0,0,0,0,0,0,0,0],"id":9,"left_children":[1,3,5,-1,7,9,11,13,15,17,-1,19,21,-1,23,-1,-1,-1,25,27,-1,29,31,33,-1,35,-1,-1,37,39,41,43,45,-1,-1,-1,-1,-1,-1,-1,-1,-1,-1,-1,-1,-1,-1],"loss_changes":[5.7535114E2,7.478952E1,4.040031E2,0E0,4.4934875E1,9.745714E1,2.5629297E2,2.5940369E1,3.884821E1,2.9104523E1,0E0,1.7392067E1,1.9303412E2,0E0,1.7108856E1,0E0,0E0,0E0,2.6755249E1,1.2034866E1,0E0,1.794758E2,1.0927545E2,1.6204346E1,0E0,1.4519501E1,0E0,0E0,9.430527E0,1.5190363E2,1.2791687E2,3.714032E1,8.914818E1,0E0,0E0,0E0,0E0,0E0,0E0,0E0,0E0,0E0,0E0,0E0,0E0,0E0,0E0],"parents":[2147483647,0,0,1,1,2,2,4,4,5,5,6,6,7,7,8,8,9,9,11,11,12,12,14,14,18,18,19,19,21,21,22,22,23,23,25,25,28,28,29,29,30,30,31,31,32,32],"right_children":[2,4,6,-1,8,10,12,14,16,18,-1,20,22,-1,24,-1,-1,-1,26,28,-1,30,32,34,-1,36,-1,-1,38,40,42,44,46,-1,-1,-1,-1,-1,-1,-1,-1,-1,-1,-1,-1,-1,-1],"split_conditions":[-1.1160862E0,-1.8127233E0,-1.2209798E0,-1.8929997E-1,1.3125381E-2,9.80126E-2,-1.1663061E0,-2.1598036E0,-2.3269787E0,-1.7883382E0,-2.0137374E-1,3.5854793E-1,1.0464407E-2,-1.9831479E-1,3.6709192E-1,2.1976237E-1,-1.9003107E-1,-2.0120694E-1,1.39908055E-2,-2.1598036E0,-1.833981E-1,-1.5540485E-1,2.2687469E0,-1.514413E0,-2.1438363E-1,-2.1598036E0,-1.8431643E-1,-1.6601008E-1,1.11991905E-1,-1.5643501E-1,1.5607644E0,-1.410903E0,6.526036E-1,-1.7180313E-1,2.1950905E-1,-1.8756497E-1,2.3369351E-1,2.4390066E-1,-1.7742021E-1,1.7950062E-2,5.5122286E-1,-9.334029E-2,1.9820578E-1,2.1560103E-1,-1.681628E-1,-1.7483895E-1,5.664482E-1],"split_indices":[9,28,31,0,38,3,5,30,9,27,0,40,24,0,42,0,0,0,4,30,0,0,38,24,0,30,0,0,44,0,2,4,24,0,0,0,0,0,0,0,0,0,0,0,0,0,0],"split_type":[0,0,0,0,0,0,0,0,0,0,0,0,0,0,0,0,0,0,0,0,0,0,0,0,0,0,0,0,0,0,0,0,0,0,0,0,0,0,0,0,0,0,0,0,0,0,0],"sum_hessian":[1.225726E4,1.003111E3,1.1254149E4,5.002341E1,9.530876E2,6.071124E2,1.0647037E4,8.6865985E2,8.442775E1,5.492281E2,5.7884323E1,2.5719296E2,1.0389844E4,1.3417332E1,8.5524255E2,3.3985996E1,5.044175E1,1.46737995E1,5.3455426E2,2.4816418E2,9.0287695E0,7.4176533E3,2.9721907E3,8.4756903E2,7.673497E0,5.2069305E2,1.3861235E1,6.227613E0,2.4193657E2,1.1818124E3,6.235841E3,2.914331E3,5.7859417E1,8.9425745E0,8.3862646E2,6.771283E0,5.1392175E2,2.3773201E2,4.2045646E0,1.1326029E3,4.9209515E1,6.098229E3,1.3761165E2,2.2064182E1,2.8922668E3,2.5033226E1,3.282619E1],"tree_param":{"num_deleted":"0","num_feature":"48","num_nodes":"47","size_leaf_vector":"1"}},{"base_weights":[1.1025536E-1,9.4576694E-2,2.3710883E-1,-1.9085503E-1,1.0638862E-1,9.3737766E-2,8.352487E-1,1.318161E-1,-1.8577668E-1,-1.7139694E-1,8.951157E-1,1.030095E-1,8.7895864E-1,-5.712964E-1,4.790318E-2,-1.4706954E-1,9.162441E-1,-7.641303E-2,3.8774706E-2,2.9710478E-1,-2.0218788E-1,-1.8864837E-1,2.8293255E-1,3.0963403E-1,-2.3152001E-2,-1.23158894E-1,2.774781E-1],"categories":[],"categories_nodes":[],"categories_segments":[],"categories_sizes":[],"default_left":[0,0,0,0,0,0,0,0,0,0,0,0,0,0,0,0,0,0,0,0,0,0,0,0,0,0,0],"id":10,"left_children":[1,3,-1,-1,5,7,9,11,13,-1,15,17,19,21,23,-1,25,-1,-1,-1,-1,-1,-1,-1,-1,-1,-1],"loss_changes":[1.6230945E2,1.2856308E2,0E0,0E0,1.350099E2,1.5330833E2,2.1548492E1,2.7272147E2,1.5562169E2,0E0,7.4744415E0,1.1460455E2,8.204434E1,5.738878E1,1.325681E2,0E0,3.1072388E0,0E0,0E0,0E0,0E0,0E0,0E0,0E0,0E0,0E0,0E0],"parents":[2147483647,0,0,1,1,4,4,5,5,6,6,7,7,8,8,10,10,11,11,12,12,13,13,14,14,16,16],"right_children":[2,4,-1,-1,6,8,10,12,14,-1,16,18,20,22,24,-1,26,-1,-1,-1,-1,-1,-1,-1,-1,-1,-1],"split_conditions":[1.8757218E0,-1.6516752E0,2.3710883E-1,-1.9085503E-1,1.6183714E0,8.357925E-1,-1.6516752E0,7.320437E-1,1.1055394E0,-1.7139694E-1,-1.0235656E0,-6.371942E-1,8.232989E-1,1.4004112E0,-1.1306406E0,-1.4706954E-1,-1.7935272E0,-7.641303E-2,3.8774706E-2,2.9710478E-1,-2.0218788E-1,-1.8864837E-1,2.8293255E-1,3.0963403E-1,-2.3152001E-2,-1.23158894E-1,2.774781E-1],"split_indices":[37,4,0,0,17,38,8,38,38,0,0,1,26,25,19,0,7,0,0,0,0,0,0,0,0,0,0],"split_type":[0,0,0,0,0,0,0,0,0,0,0,0,0,0,0,0,0,0,0,0,0,0,0,0,0,0,0],"sum_hessian":[1.5227497E4,1.4885478E4,3.4201932E2,2.3593916E2,1.4649538E4,1.4400713E4,2.4882506E2,1.267458E4,1.7261335E3,9.809447E0,2.3901561E2,1.220514E4,4.6944E2,6.508807E2,1.0752529E3,3.2570164E0,2.357586E2,8.334967E2,1.1371644E4,4.3835886E2,3.1081137E1,6.276224E2,2.325828E1,1.2042139E2,9.548315E2,1.2319524E0,2.3452664E2],"tree_param":{"num_deleted":"0","num_feature":"48","num_nodes":"27","size_leaf_vector":"1"}},{"base_weights":[3.1534415E-2,-6.281048E-1,7.773612E-2,-1.7803676E-1,-1.9260205E-1,3.8685426E-1,-2.124583E-3,-2.0697574E-1,4.4366583E-1,-6.9733776E-2,3.369703E-1,5.2760094E-1,-2.364364E-1,-4.7797802E-1,-2.3201067E-2,4.0246236E-1,-5.2244085E-1,2.4580961E-1,6.9616187E-1,-5.3569794E-1,2.5151557E-1,-5.707186E-1,5.9985574E-2,2.2147885E-2,-4.086617E-1,-5.553655E-1,4.7307175E-1,3.0225337E-1,-7.2646976E-1,1.4437965E-1,-2.3845476E-1,-2.152062E-1,2.2169001E-1,-1.7715283E-1,2.4554767E-1,-1.7928451E-1,3.599035E-2,1.6612598E-1,-1.811289E-1,-1.5080425E-1,1.796098E-2,-1.60936E-1,7.760407E-2,8.1249766E-2,-2.1696542E-1,2.1504134E-1,6.524639E-2,-2.35914E-1,-1.8190166E-1],"categories":[],"categories_nodes":[],"categories_segments":[],"categories_sizes":[],"default_left":[0,0,0,0,0,0,0,0,0,0,0,0,0,0,0,0,0,0,0,0,0,0,0,0,0,0,0,0,0,0,0,0,0,0,0,0,0,0,0,0,0,0,0,0,0,0,0,0,0],"id":11,"left_children":[1,3,5,-1,-1,7,9,-1,11,13,15,17,19,21,23,25,27,29,31,33,-1,35,37,39,41,43,45,-1,47,-1,-1,-1,-1,-1,-1,-1,-1,-1,-1,-1,-1,-1,-1,-1,-1,-1,-1,-1,-1],"loss_changes":[4.366688E2,7.080078E-2,3.3054178E2,0E0,0E0,1.684715E2,2.4399202E2,0E0,1.4922034E2,1.6855432E2,9.978883E1,1.1027472E2,9.296313E1,4.5329025E1,1.392658E2,1.1148193E2,3.9973274E1,2.1401027E2,8.852765E1,1.7227768E1,0E0,1.4459061E1,4.4382706E1,1.4116493E2,7.165889E1,1.5917316E1,9.5286194E1,0E0,3.2566833E-1,0E0,0E0,0E0,0E0,0E0,0E0,0E0,0E0,0E0,0E0,0E0,0E0,0E0,0E0,0E0,0E0,0E0,0E0,0E0,0E0],"parents":[2147483647,0,0,1,1,2,2,5,5,6,6,8,8,9,9,10,10,11,11,12,12,13,13,14,14,15,15,16,16,17,17,18,18,19,19,21,21,22,22,23,23,24,24,25,25,26,26,28,28],"right_children":[2,4,6,-1,-1,8,10,-1,12,14,16,18,20,22,24,26,28,30,32,34,-1,36,38,40,42,44,46,-1,48,-1,-1,-1,-1,-1,-1,-1,-1,-1,-1,-1,-1,-1,-1,-1,-1,-1,-1,-1,-1],"split_conditions":[-8.324449E-1,-6.964923E-1,-3.7620348E-1,-1.7803676E-1,-1.9260205E-1,-1.3217227E0,1.7958778E-1,-2.0697574E-1,8.262659E-1,-4.3869674E-1,1.3008313E0,-1.0074112E0,1.3093753E0,4.9816507E-1,5.891788E-1,-5.873972E-1,2.8826883E-1,-1.0739045E0,-3.698053E-1,1.2311157E0,2.5151557E-1,4.9816507E-1,5.420581E-1,-6.276761E-1,1.2276396E0,-1.3636825E0,7.063819E-1,3.0225337E-1,1.3289045E0,1.4437965E-1,-2.3845476E-1,-2.152062E-1,2.2169001E-1,-1.7715283E-1,2.4554767E-1,-1.7928451E-1,3.599035E-2,1.6612598E-1,-1.811289E-1,-1.5080425E-1,1.796098E-2,-1.60936E-1,7.760407E-2,8.1249766E-2,-2.1696542E-1,2.1504134E-1,6.524639E-2,-2.35914E-1,-1.8190166E-1],"split_indices":[32,6,21,0,0,21,9,0,2,8,36,21,42,33,14,40,9,21,3,9,0,29,31,38,19,40,9,0,37,0,0,0,0,0,0,0,0,0,0,0,0,0,0,0,0,0,0,0,0],"split_type":[0,0,0,0,0,0,0,0,0,0,0,0,0,0,0,0,0,0,0,0,0,0,0,0,0,0,0,0,0,0,0,0,0,0,0,0,0,0,0,0,0,0,0,0,0,0,0,0,0],"sum_hessian":[1.432547E4,9.368672E2,1.3388603E4,2.807709E2,6.5609625E2,2.7480059E3,1.0640597E4,1.3716255E2,2.6108433E3,8.872399E3,1.7681967E3,2.3242227E3,2.866207E2,9.0687396E2,7.965526E3,1.6434854E3,1.24711334E2,8.70846E2,1.4533766E3,2.2458994E2,6.2030773E1,7.734726E2,1.3340132E2,7.127882E3,8.376437E2,1.1236536E2,1.53112E3,1.4210789E1,1.1050054E2,7.106046E2,1.6024141E2,4.2255123E1,1.4111215E3,2.1639519E2,8.194751E0,7.446111E2,2.886154E1,7.659066E1,5.6810665E1,4.771362E2,6.6507456E3,7.031846E2,1.3445909E2,1.88701E1,9.349526E1,7.828066E2,7.4831335E2,7.003E1,4.0470543E1],"tree_param":{"num_deleted":"0","num_feature":"48","num_nodes":"49","size_leaf_vector":"1"}},{"base_weights":[-1.5204056E-1,4.2417845E-1,-2.160074E-1,3.0760434E-1,8.878793E-1,-1.2799986E-1,-5.0822973E-1,5.104329E-1,-1.9385351E-1,7.818015E-1,1.0745629E0,3.643518E-1,-1.9102539E-1,-1.8319574E-1,2.0434585E-1,-1.8806544E-1,5.4945517E-1,2.1909854E-1,2.6080173E-1,2.4657282E-1,1.1857611E0,-6.3221976E-2,5.2083987E-1,4.6828318E-1,-2.2285196E-1,-2.27332E-1,1.5649613E0,5.859537E-1,-1.8149567E-1,2.5988778E-1,1.3557702E0,5.140493E-1,-4.844397E-1,5.7283455E-1,-1.7440839E-1,2.4429749E-1,9.4997287E-1,-5.6193066E-1,-1.6649492E-1,4.952214E-1,-3.7470406E-1,1.9650869E0,4.236698E-1,1.8638021E-1,-1.7700031E-1,2.3608655E-1,4.377725E-1,-1.7756425E-1,2.3159547E-1,1.2638603E-1,-1.7735824E-1,-1.8863401E-1,1.8168251E-1,1.1603928E-1,-1.5485616E-1,-1.2208334E-1,2.9623717E-1,1.6046035E-1,-1.75176E-1,1.2257884E-1,-6.100222E-2,4.9230653E-1,-1.5426187E-1,6.5514743E-1,3.730829E-1],"categories":[],"categories_nodes":[],"categories_segments":[],"categories_sizes":[],"default_left":[0,0,0,0,0,0,0,0,0,0,0,0,0,0,0,0,0,0,0,0,0,0,0,0,0,0,0,0,0,0,0,0,0,0,0,0,0,0,0,0,0,0,0,0,0,0,0,0,0,0,0,0,0,0,0,0,0,0,0,0,0,0,0,0,0],"id":12,"left_children":[1,3,5,7,9,11,13,15,-1,17,19,21,23,-1,25,-1,27,-1,-1,-1,29,31,33,35,37,39,41,43,-1,-1,45,47,49,51,-1,53,55,57,59,-1,61,63,-1,-1,-1,-1,-1,-1,-1,-1,-1,-1,-1,-1,-1,-1,-1,-1,-1,-1,-1,-1,-1,-1,-1],"loss_changes":[4.178962E2,6.096881E1,2.62341E2,1.7576834E2,3.6566315E0,2.4344331E2,1.724621E2,3.355887E1,0E0,3.4057617E-2,1.2619095E0,5.9608765E1,1.4601556E2,0E0,1.7509155E2,0E0,3.086496E1,0E0,0E0,0E0,1.7050705E0,5.8473732E1,3.7694336E1,3.4350853E1,1.2668002E2,6.3368835E1,1.6113892E0,2.9536102E1,0E0,0E0,7.841034E-1,2.9410618E1,1.3684513E1,2.4918121E1,0E0,2.4056122E1,5.5590057E0,2.3105103E1,1.20652664E2,0E0,6.018738E1,1.04599E-2,0E0,0E0,0E0,0E0,0E0,0E0,0E0,0E0,0E0,0E0,0E0,0E0,0E0,0E0,0E0,0E0,0E0,0E0,0E0,0E0,0E0,0E0,0E0],"parents":[2147483647,0,0,1,1,2,2,3,3,4,4,5,5,6,6,7,7,9,9,10,10,11,11,12,12,14,14,16,16,20,20,21,21,22,22,23,23,24,24,25,25,26,26,27,27,30,30,31,31,32,32,33,33,35,35,36,36,37,37,38,38,40,40,41,41],"right_children":[2,4,6,8,10,12,14,16,-1,18,20,22,24,-1,26,-1,28,-1,-1,-1,30,32,34,36,38,40,42,44,-1,-1,46,48,50,52,-1,54,56,58,60,-1,62,64,-1,-1,-1,-1,-1,-1,-1,-1,-1,-1,-1,-1,-1,-1,-1,-1,-1,-1,-1,-1,-1,-1,-1],"split_conditions":[-6.983595E-1,-8.6279756E-1,2.416356E-2,-1.1663061E0,-6.983595E-1,-9.474666E-1,1.473781E0,-2.1598036E0,-1.9385351E-1,-5.278693E-1,-6.983595E-1,-1.405182E0,-9.328197E-1,-1.8319574E-1,4.6229672E-1,-1.8806544E-1,3.6709192E-1,2.1909854E-1,2.6080173E-1,2.4657282E-1,-6.983595E-1,-1.9300289E0,1.3282576E-2,-1.2880069E0,-0E0,1.5139569E0,5.041357E-3,1.11991905E-1,-1.8149567E-1,2.5988778E-1,-1.8018687E0,-2.2437165E0,-6.983595E-1,-1.9507787E0,-1.7440839E-1,3.333116E-1,-7.250361E-1,-8.121241E-1,-6.313379E-1,4.952214E-1,-8.292253E-1,1.0464407E-2,4.236698E-1,1.8638021E-1,-1.7700031E-1,2.3608655E-1,4.377725E-1,-1.7756425E-1,2.3159547E-1,1.2638603E-1,-1.7735824E-1,-1.8863401E-1,1.8168251E-1,1.1603928E-1,-1.5485616E-1,-1.2208334E-1,2.9623717E-1,1.6046035E-1,-1.75176E-1,1.2257884E-1,-6.100222E-2,4.9230653E-1,-1.5426187E-1,6.5514743E-1,3.730829E-1],"split_indices":[4,4,0,4,3,45,0,30,0,2,2,42,41,0,42,0,42,0,0,0,8,42,9,41,17,0,2,44,0,0,45,42,1,38,0,18,13,25,38,0,18,24,0,0,0,0,0,0,0,0,0,0,0,0,0,0,0,0,0,0,0,0,0,0,0],"split_type":[0,0,0,0,0,0,0,0,0,0,0,0,0,0,0,0,0,0,0,0,0,0,0,0,0,0,0,0,0,0,0,0,0,0,0,0,0,0,0,0,0,0,0,0,0,0,0,0,0,0,0,0,0,0,0,0,0,0,0,0,0,0,0,0,0],"sum_hessian":[1.1334241E4,1.1319452E3,1.0202296E4,9.0587274E2,2.260725E2,7.84199E3,2.3603057E3,7.4739813E2,1.5847461E2,1.4746652E2,7.860597E1,8.893853E2,6.952605E3,2.0638057E3,2.9649982E2,2.4293404E1,7.2310474E2,9.874587E1,4.8720646E1,2.658762E1,5.2018353E1,2.3845325E2,6.5093207E2,3.1953397E2,6.6330713E3,2.2571948E2,7.0780334E1,7.0142114E2,2.1683569E1,2.0184572E1,3.1833778E1,1.0049976E2,1.3795348E2,6.2206726E2,2.8864805E1,2.191407E2,1.0039325E2,9.440591E2,5.689012E3,1.5681209E1,2.1003828E2,1.6275248E1,5.450509E1,6.8142975E2,1.9991444E1,6.223998E0,2.5609781E1,1.8761763E1,8.1738E1,1.4234944E1,1.2371854E2,1.6033468E1,6.060338E2,1.8497192E2,3.416878E1,2.4338105E0,9.795944E1,1.8096634E1,9.259624E2,3.4193805E2,5.347074E3,1.2898529E1,1.9713976E2,1.0933533E1,5.3417144E0],"tree_param":{"num_deleted":"0","num_feature":"48","num_nodes":"65","size_leaf_vector":"1"}},{"base_weights":[9.035344E-2,7.737016E-2,7.951676E-1,6.442313E-2,6.724195E-1,2.8349552E-1,2.0559846E-1,9.203373E-2,-3.6739555E-1,8.517279E-1,-1.8761383E-1,1.10914014E-1,-3.9943948E-1,-4.6170303E-1,9.810227E-1,2.6886246E-1,2.368316E-1,6.3374944E-2,3.900642E-1,-6.217643E-1,7.464914E-2,-5.315939E-1,4.822771E-1,3.276835E-1,2.4384548E-1,2.3657026E-2,-2.2364137E-1,1.4750464E-1,-1.0543188E-1,-2.0129652E-1,2.694937E-1,1.3298537E-1,-8.159381E-2,-1.6862974E-1,3.068244E-1,3.371641E-1,-2.0829229E-1],"categories":[],"categories_nodes":[],"categories_segments":[],"categories_sizes":[],"default_left":[0,0,0,0,0,0,0,0,0,0,0,0,0,0,0,0,0,0,0,0,0,0,0,0,0,0,0,0,0,0,0,0,0,0,0,0,0],"id":13,"left_children":[1,3,5,7,9,-1,-1,11,13,15,-1,17,19,21,23,-1,-1,25,27,29,31,33,35,-1,-1,-1,-1,-1,-1,-1,-1,-1,-1,-1,-1,-1,-1],"loss_changes":[1.3679916E2,1.1310503E2,3.8022614E0,1.7142477E2,7.328639E1,0E0,0E0,1.2542406E2,1.1033815E2,5.4748535E-2,0E0,1.7266347E2,5.275637E1,5.3584747E1,1.7520142E-1,0E0,0E0,1.3931392E2,1.4284152E2,2.6083847E1,2.0634516E1,3.6281586E1,4.3239326E1,0E0,0E0,0E0,0E0,0E0,0E0,0E0,0E0,0E0,0E0,0E0,0E0,0E0,0E0],"parents":[2147483647,0,0,1,1,2,2,3,3,4,4,7,7,8,8,9,9,11,11,12,12,13,13,14,14,17,17,18,18,19,19,20,20,21,21,22,22],"right_children":[2,4,6,8,10,-1,-1,12,14,16,-1,18,20,22,24,-1,-1,26,28,30,32,34,36,-1,-1,-1,-1,-1,-1,-1,-1,-1,-1,-1,-1,-1,-1],"split_conditions":[1.748782E0,1.5556626E0,1.2785937E-1,9.7773737E-1,3.4203048E0,2.8349552E-1,2.0559846E-1,5.3067845E-1,1.1667956E0,4.774566E-3,-1.8761383E-1,2.0310616E-1,8.631277E-1,1.8352777E0,1.2471474E0,2.6886246E-1,2.368316E-1,1.5677461E-1,8.211456E-1,1.3289045E0,1.3638338E0,8.958655E-1,3.615385E0,3.276835E-1,2.4384548E-1,2.3657026E-2,-2.2364137E-1,1.4750464E-1,-1.0543188E-1,-2.0129652E-1,2.694937E-1,1.3298537E-1,-8.159381E-2,-1.6862974E-1,3.068244E-1,3.371641E-1,-2.0829229E-1],"split_indices":[40,30,37,25,30,0,0,32,1,28,0,25,32,25,2,0,0,25,42,39,32,8,25,0,0,0,0,0,0,0,0,0,0,0,0,0,0],"split_type":[0,0,0,0,0,0,0,0,0,0,0,0,0,0,0,0,0,0,0,0,0,0,0,0,0,0,0,0,0,0,0,0,0,0,0,0,0],"sum_hessian":[1.4955146E4,1.4685732E4,2.6941394E2,1.4374091E4,3.116419E2,1.107505E2,1.5866344E2,1.3510981E4,8.631089E2,2.741132E2,3.752872E1,1.30118955E4,4.9908664E2,8.0730414E2,5.5804726E1,1.521069E2,1.2200627E2,1.1119482E4,1.8924126E3,3.395449E2,1.5954175E2,7.5205963E2,5.524451E1,3.0281698E1,2.5523026E1,1.0911531E4,2.0795088E2,1.6646244E3,2.2778822E2,3.294355E2,1.0109415E1,7.718139E1,8.236036E1,7.3821E2,1.3849595E1,3.5778786E1,1.9465727E1],"tree_param":{"num_deleted":"0","num_feature":"48","num_nodes":"37","size_leaf_vector":"1"}},{"base_weights":[2.6862085E-2,-6.1993605E-1,6.524694E-2,-1.7606732E-1,-1.9289862E-1,3.3012423E-1,-6.2353765E-3,-2.060521E-1,3.7226853E-1,-5.509352E-2,3.9038518E-1,4.296092E-1,-3.5563326E-1,-1.2365808E-2,-5.056114E-1,-2.2200578E-1,4.6341845E-1,2.9019344E-1,6.9330305E-1,-5.425274E-1,2.2066458E-1,-4.8427287E-2,5.049213E-1,-5.718028E-1,8.8243043E-1,5.243898E-1,-1.9889562E-1,2.5058725E-1,3.7397724E-2,2.1767528E-1,-2.1778552E-1,-1.8077627E-1,2.0670511E-1,-2.1933065E-1,-7.524086E-3,2.1148917E-1,-1.3261318E-1,-1.7869507E-1,2.7560514E-1,3.122229E-1,-1.5541469E-1,-2.0687713E-1,1.7507613E-1],"categories":[],"categories_nodes":[],"categories_segments":[],"categories_sizes":[],"default_left":[0,0,0,0,0,0,0,0,0,0,0,0,0,0,0,0,0,0,0,0,0,0,0,0,0,0,0,0,0,0,0,0,0,0,0,0,0,0,0,0,0,0,0],"id":14,"left_children":[1,3,5,-1,-1,7,9,-1,11,13,15,17,19,21,23,-1,25,27,29,31,-1,33,35,37,39,41,-1,-1,-1,-1,-1,-1,-1,-1,-1,-1,-1,-1,-1,-1,-1,-1,-1],"loss_changes":[3.439323E2,2.1398926E-1,2.4758955E2,0E0,0E0,1.1936008E2,1.9958441E2,0E0,1.11553894E2,1.7650774E2,9.359958E1,9.0772125E1,4.025775E1,1.5627971E2,7.3482925E1,0E0,7.326102E1,1.4611447E2,3.9704193E1,1.2800377E1,0E0,1.2480272E2,1.0373773E2,2.7516846E1,8.642185E0,7.2820526E1,0E0,0E0,0E0,0E0,0E0,0E0,0E0,0E0,0E0,0E0,0E0,0E0,0E0,0E0,0E0,0E0,0E0],"parents":[2147483647,0,0,1,1,2,2,5,5,6,6,8,8,9,9,10,10,11,11,12,12,13,13,14,14,16,16,17,17,18,18,19,19,21,21,22,22,23,23,24,24,25,25],"right_children":[2,4,6,-1,-1,8,10,-1,12,14,16,18,20,22,24,-1,26,28,30,32,-1,34,36,38,40,42,-1,-1,-1,-1,-1,-1,-1,-1,-1,-1,-1,-1,-1,-1,-1,-1,-1],"split_conditions":[-1.199846E0,-2.1457423E-1,-2.7411595E-1,-1.7606732E-1,-1.9289862E-1,-1.3217227E0,2.6856717E-1,-2.060521E-1,1.1667956E0,6.086305E-1,-2.0167537E-1,-7.443983E-1,1.3093753E0,9.135235E-1,1.10696346E-1,-2.2200578E-1,1.270317E0,-1.2004161E0,1.3310405E0,1.2311157E0,2.2066458E-1,0E0,1.8043901E0,2.6856717E-1,4.489726E-1,-5.666474E-1,-1.9889562E-1,2.5058725E-1,3.7397724E-2,2.1767528E-1,-2.1778552E-1,-1.8077627E-1,2.0670511E-1,-2.1933065E-1,-7.524086E-3,2.1148917E-1,-1.3261318E-1,-1.7869507E-1,2.7560514E-1,3.122229E-1,-1.5541469E-1,-2.0687713E-1,1.7507613E-1],"split_indices":[33,6,13,0,0,13,7,0,2,20,13,13,42,25,2,0,36,13,1,9,0,13,25,6,2,38,0,0,0,0,0,0,0,0,0,0,0,0,0,0,0,0,0],"split_type":[0,0,0,0,0,0,0,0,0,0,0,0,0,0,0,0,0,0,0,0,0,0,0,0,0,0,0,0,0,0,0,0,0,0,0,0,0,0,0,0,0,0,0],"sum_hessian":[1.3850384E4,7.7506805E2,1.3075315E4,3.294308E2,4.4563727E2,2.777965E3,1.0297351E4,1.0993272E2,2.6680325E3,9.168749E3,1.1286013E3,2.4735847E3,1.9444759E2,8.375438E3,7.933102E2,6.7937416E1,1.060664E3,1.6194675E3,8.5411725E2,1.6644264E2,2.8004955E1,7.8304624E3,5.4497626E2,7.577629E2,3.5547302E1,1.0067062E3,5.3957745E1,3.7629584E2,1.2431718E3,8.356001E2,1.851714E1,1.5918994E2,7.2526937E0,2.5793826E2,7.572524E3,4.501413E2,9.4834946E1,7.464207E2,1.1342169E1,3.216786E1,3.3794427E0,4.6312374E1,9.603938E2],"tree_param":{"num_deleted":"0","num_feature":"48","num_nodes":"43","size_leaf_vector":"1"}},{"base_weights":[-1.311201E-1,3.7010378E-1,-1.9117999E-1,4.0556183E-1,-1.7412488E-1,-1.1076474E-1,-4.8038945E-1,5.998938E-1,2.698728E-1,-5.0292704E-2,-5.094222E-1,-1.7689046E-1,1.8976572E-1,-9.629098E-2,7.089122E-1,-7.13943E-1,3.877797E-1,-6.637596E-2,6.407827E-1,-5.568556E-1,6.2563163E-1,-1.9147086E-1,3.494403E-1,1.9729468E-1,-7.3096424E-1,2.02268E-1,2.362517E-1,-1.8200302E-1,-2.3550397E-1,4.1980916E-1,-1.7038827E-1,4.3371072E-1,-1.1226439E-1,-5.668514E-1,5.126622E-1,1.1080664E0,-1.7231582E-1,3.779693E-1,-3.3586517E-1,-1.7196715E-1,-2.5148028E-1,1.6392222E-1,4.0595636E-2,-1.9262765E-1,1.6605939E-1,-1.9254726E-1,-2.2473758E-2,-1.7408565E-1,-7.86277E-2,4.1061494E-1,-1.3965654E-1,3.908495E-1,-1.4040965E-1,4.284942E-1,-1.416024E-1],"categories":[],"categories_nodes":[],"categories_segments":[],"categories_sizes":[],"default_left":[0,0,0,0,0,0,0,0,0,0,0,0,0,0,0,0,0,0,0,0,0,0,0,0,0,0,0,0,0,0,0,0,0,0,0,0,0,0,0,0,0,0,0,0,0,0,0,0,0,0,0,0,0,0,0],"id":15,"left_children":[1,3,5,7,-1,9,11,13,15,17,19,-1,21,23,25,27,29,31,-1,33,35,37,-1,-1,39,-1,-1,-1,-1,41,-1,43,45,47,49,51,-1,-1,53,-1,-1,-1,-1,-1,-1,-1,-1,-1,-1,-1,-1,-1,-1,-1,-1],"loss_changes":[3.1587567E2,3.8080734E1,2.1783475E2,2.8397934E1,0E0,1.7672678E2,1.4931378E2,3.3804413E1,7.446904E1,2.2402533E2,5.2333893E1,0E0,1.0668683E2,2.9699348E1,5.170288E-1,4.8252106E-2,1.7742104E1,1.4512051E2,0E0,1.0204681E1,2.3332188E1,4.3753895E1,0E0,0E0,8.865929E-2,0E0,0E0,0E0,0E0,1.9872704E1,0E0,6.887223E1,1.1450162E2,3.6114502E0,8.267372E0,9.297928E0,0E0,0E0,4.6030148E1,0E0,0E0,0E0,0E0,0E0,0E0,0E0,0E0,0E0,0E0,0E0,0E0,0E0,0E0,0E0,0E0],"parents":[2147483647,0,0,1,1,2,2,3,3,5,5,6,6,7,7,8,8,9,9,10,10,12,12,13,13,14,14,15,15,16,16,17,17,19,19,20,20,21,21,24,24,29,29,31,31,32,32,33,33,34,34,35,35,38,38],"right_children":[2,4,6,8,-1,10,12,14,16,18,20,-1,22,24,26,28,30,32,-1,34,36,38,-1,-1,40,-1,-1,-1,-1,42,-1,44,46,48,50,52,-1,-1,54,-1,-1,-1,-1,-1,-1,-1,-1,-1,-1,-1,-1,-1,-1,-1,-1],"split_conditions":[-6.983595E-1,3.6709192E-1,2.416356E-2,-3.8294747E-1,-1.7412488E-1,3.731948E-1,1.473781E0,-1.4518515E0,-2.3257309E-1,3.6709192E-1,1.5607644E0,-1.7689046E-1,4.6229672E-1,-2.8715944E0,-5.003127E-1,-8.933158E-1,1.11991905E-1,-1.2209798E0,6.407827E-1,2.2687469E0,1.5570113E-1,1.5139569E0,3.494403E-1,1.9729468E-1,-1.745258E0,2.02268E-1,2.362517E-1,-1.8200302E-1,-2.3550397E-1,-1.0542127E0,-1.7038827E-1,-1.8470299E0,-3.698053E-1,9.0957946E-1,2.5531406E0,1.2434131E0,-1.7231582E-1,3.779693E-1,-8.292253E-1,-1.7196715E-1,-2.5148028E-1,1.6392222E-1,4.0595636E-2,-1.9262765E-1,1.6605939E-1,-1.9254726E-1,-2.2473758E-2,-1.7408565E-1,-7.86277E-2,4.1061494E-1,-1.3965654E-1,3.908495E-1,-1.4040965E-1,4.284942E-1,-1.416024E-1],"split_indices":[3,42,0,26,0,45,0,3,26,45,2,0,42,3,2,3,44,29,0,38,3,0,0,0,25,0,0,0,0,3,0,38,3,1,38,4,0,0,12,0,0,0,0,0,0,0,0,0,0,0,0,0,0,0,0],"split_type":[0,0,0,0,0,0,0,0,0,0,0,0,0,0,0,0,0,0,0,0,0,0,0,0,0,0,0,0,0,0,0,0,0,0,0,0,0,0,0,0,0,0,0,0,0,0,0,0,0,0,0,0,0,0,0],"sum_hessian":[1.0489653E4,1.1218878E3,9.367766E3,1.0820948E3,3.9792976E1,7.330804E3,2.0369613E3,4.434996E2,6.385952E2,6.36624E3,9.6456396E2,1.7515521E3,2.8540924E2,6.006227E1,3.8343732E2,6.780176E1,5.7079346E2,6.320711E3,4.5529324E1,9.263611E2,3.8202866E1,2.0576085E2,7.964839E1,2.7435246E1,3.2627026E1,2.726761E2,1.10761246E2,3.0820557E1,3.6981205E1,5.5282745E2,1.7966003E1,5.305363E2,5.790175E3,9.182491E2,8.112014E0,2.730304E1,1.0899828E1,1.791945E1,1.878414E2,1.5776698E1,1.6850327E1,3.819424E2,1.7088506E2,5.2731403E1,4.778049E2,3.8042847E2,5.409746E3,8.7861475E2,3.963434E1,4.113157E0,3.9988568E0,2.4454477E1,2.8485618E0,1.2777352E1,1.7506406E2],"tree_param":{"num_deleted":"0","num_feature":"48","num_nodes":"55","size_leaf_vector":"1"}},{"base_weights":[7.451795E-2,6.346065E-2,7.2478896E-1,6.87712E-1,5.215307E-2,2.4807987E-1,1.923457E-1,8.2821476E-1,-1.80675E-1,-3.502744E-1,7.173937E-2,8.728961E-1,-1.7536116E-1,3.9969662E-1,-5.872788E-1,5.75808E-1,4.6119723E-2,-1.3984904E-1,8.8994604E-1,-1.9409487E-1,7.6280046E-1,2.2859308E-1,-6.227856E-1,-2.1109937E-1,7.110881E-1,-7.521816E-1,5.5702567E-2,2.2461304E-1,2.9915315E-1,-1.7156732E-1,2.620413E-1,2.3371756E-1,-1.9058545E-1,-8.362212E-4,2.579144E-1,-1.9520244E-1,-2.417006E-1,2.1069764E-1,1.2432359E-2],"categories":[],"categories_nodes":[],"categories_segments":[],"categories_sizes":[],"default_left":[0,0,0,0,0,0,0,0,0,0,0,0,0,0,0,0,0,0,0,0,0,0,0,0,0,0,0,0,0,0,0,0,0,0,0,0,0,0,0],"id":16,"left_children":[1,3,5,7,9,-1,-1,11,-1,13,15,17,-1,19,21,23,25,-1,27,-1,29,-1,31,-1,33,35,37,-1,-1,-1,-1,-1,-1,-1,-1,-1,-1,-1,-1],"loss_changes":[1.0485416E2,1.01232124E2,1.552887E0,4.67453E1,1.1110108E2,0E0,0E0,1.5061584E1,0E0,1.1651858E2,1.7352585E2,5.5256653E0,0E0,6.0424995E1,2.4309662E1,1.1299385E2,9.788617E1,0E0,2.606247E0,0E0,1.7860893E1,0E0,8.99852E0,0E0,6.2418823E1,2.9982758E-1,1.165273E2,0E0,0E0,0E0,0E0,0E0,0E0,0E0,0E0,0E0,0E0,0E0,0E0],"parents":[2147483647,0,0,1,1,2,2,3,3,4,4,7,7,9,9,10,10,11,11,13,13,14,14,15,15,16,16,18,18,20,20,22,22,24,24,25,25,26,26],"right_children":[2,4,6,8,10,-1,-1,12,-1,14,16,18,-1,20,22,24,26,-1,28,-1,30,-1,32,-1,34,36,38,-1,-1,-1,-1,-1,-1,-1,-1,-1,-1,-1,-1],"split_conditions":[1.748782E0,-1.5016074E0,1.2785937E-1,5.2331156E-1,-1.1073619E0,2.4807987E-1,1.923457E-1,5.2331156E-1,-1.80675E-1,-1.7982069E0,-7.875714E-1,-1.8785405E0,-1.7536116E-1,-2.1167767E0,-2.2232046E0,-1.2296114E0,-6.6185224E-1,-1.3984904E-1,-1.4906222E0,-1.9409487E-1,-1.9361318E0,2.2859308E-1,-2.1598036E0,-2.1109937E-1,-1.0634211E0,-1.9152457E-1,-5.76412E-1,2.2461304E-1,2.9915315E-1,-1.7156732E-1,2.620413E-1,2.3371756E-1,-1.9058545E-1,-8.362212E-4,2.579144E-1,-1.9520244E-1,-2.417006E-1,2.1069764E-1,1.2432359E-2],"split_indices":[40,36,37,15,40,0,0,16,0,40,40,9,0,40,28,12,40,0,39,0,43,0,30,0,40,6,40,0,0,0,0,0,0,0,0,0,0,0,0],"split_type":[0,0,0,0,0,0,0,0,0,0,0,0,0,0,0,0,0,0,0,0,0,0,0,0,0,0,0,0,0,0,0,0,0,0,0,0,0,0,0],"sum_hessian":[1.4588236E4,1.4345403E4,2.4283371E2,2.5416267E2,1.409124E4,1.0532057E2,1.3751314E2,2.2952118E2,2.4641504E1,6.532122E2,1.3438028E4,2.2285503E2,6.666143E0,1.5669229E2,4.965199E2,6.4892377E2,1.27891045E4,2.4707131E0,2.2038432E2,4.015631E1,1.1653598E2,1.2206715E1,4.843132E2,6.164902E1,5.872748E2,1.5078078E2,1.2638323E4,9.855628E1,1.2182803E2,8.603987E0,1.0793199E2,3.738085E0,4.805751E2,1.01368355E2,4.859064E2,5.657632E1,9.420446E1,2.716842E2,1.236664E4],"tree_param":{"num_deleted":"0","num_feature":"48","num_nodes":"39","size_leaf_vector":"1"}},{"base_weights":[2.1674367E-2,-1.7828739E-1,5.6500934E-2,-1.3024723E-2,2.807277E-1,-5.5209592E-2,4.3545136E-1,4.3723992E-1,-5.6755103E-2,-1.8195531E-1,-3.0246867E-2,7.340407E-1,6.259285E-2,-2.8253585E-1,5.286544E-1,7.451311E-1,-2.1706432E-1,1.4613827E0,-4.0161163E-2,-2.5786853E-1,7.855459E-1,-1.8981951E-1,2.3716062E-1,2.4325077E-1,-5.7517356E-1,5.715567E-1,-1.7807771E-1,-1.7269939E-1,2.45959E-1,-3.2087174E-1,9.92556E-1,3.8369766E-1,5.1508206E-1,-1.9309105E-1,-5.3911144E-3,2.4419297E-1,-1.9973455E-1,-2.1660149E-1,9.2835635E-2,2.2084911E-1,-2.0044006E-1,1.8779686E-1,-3.2095164E-2,-1.1365658E-1,2.3400383E-1,3.480829E-1,2.6679307E-1],"categories":[],"categories_nodes":[],"categories_segments":[],"categories_sizes":[],"default_left":[0,0,0,0,0,0,0,0,0,0,0,0,0,0,0,0,0,0,0,0,0,0,0,0,0,0,0,0,0,0,0,0,0,0,0,0,0,0,0,0,0,0,0,0,0,0,0],"id":17,"left_children":[1,-1,3,5,7,9,11,13,15,-1,17,19,21,23,25,27,29,31,33,-1,35,-1,37,-1,39,41,-1,-1,-1,43,45,-1,-1,-1,-1,-1,-1,-1,-1,-1,-1,-1,-1,-1,-1,-1,-1],"loss_changes":[2.8545013E2,0E0,1.9633525E2,1.8191151E2,1.5746938E2,1.2092856E2,9.199042E1,1.341459E2,1.21677185E2,0E0,1.2441088E2,3.8347E1,4.4905342E1,7.410458E1,8.7357056E1,1.6039528E1,9.9336395E1,3.9318085E-1,1.1186432E2,0E0,1.890866E1,0E0,2.0709846E1,0E0,2.2694988E1,6.4381714E1,0E0,0E0,0E0,4.670185E1,5.1620483E-2,0E0,0E0,0E0,0E0,0E0,0E0,0E0,0E0,0E0,0E0,0E0,0E0,0E0,0E0,0E0,0E0],"parents":[2147483647,0,0,2,2,3,3,4,4,5,5,6,6,7,7,8,8,10,10,11,11,12,12,13,13,14,14,15,15,16,16,17,17,18,18,20,20,22,22,24,24,25,25,29,29,30,30],"right_children":[2,-1,4,6,8,10,12,14,16,-1,18,20,22,24,26,28,30,32,34,-1,36,-1,38,-1,40,42,-1,-1,-1,44,46,-1,-1,-1,-1,-1,-1,-1,-1,-1,-1,-1,-1,-1,-1,-1,-1],"split_conditions":[-8.324449E-1,-1.7828739E-1,9.80126E-2,8.932026E-1,6.977544E-1,-8.8262796E-1,1.1744434E0,-2.2976892E-1,-7.8417696E-2,-1.8195531E-1,-7.790333E-1,-1.1807588E0,-1.2289067E-1,-1.150082E0,1.8757218E0,8.262659E-1,2.2357717E0,-4.3116367E-1,-1.028338E0,-2.5786853E-1,8.817653E-1,-1.8981951E-1,-8.7979954E-1,2.4325077E-1,-9.230551E-1,8.338657E-1,-1.7807771E-1,-1.7269939E-1,2.45959E-1,1.2483466E0,2.416356E-2,3.8369766E-1,5.1508206E-1,-1.9309105E-1,-5.3911144E-3,2.4419297E-1,-1.9973455E-1,-2.1660149E-1,9.2835635E-2,2.2084911E-1,-2.0044006E-1,1.8779686E-1,-3.2095164E-2,-1.1365658E-1,2.3400383E-1,3.480829E-1,2.6679307E-1],"split_indices":[32,0,1,25,1,3,25,37,40,0,3,17,3,38,37,1,1,45,28,0,0,0,16,0,36,27,0,0,0,39,8,0,0,0,0,0,0,0,0,0,0,0,0,0,0,0,0],"split_type":[0,0,0,0,0,0,0,0,0,0,0,0,0,0,0,0,0,0,0,0,0,0,0,0,0,0,0,0,0,0,0,0,0,0,0,0,0,0,0,0,0,0,0,0,0,0,0],"sum_hessian":[1.3303912E4,7.110874E2,1.2592824E4,9.61306E3,2.979765E3,8.787372E3,8.25687E2,2.0354855E3,9.442794E2,3.7963962E2,8.407732E3,4.5797046E2,3.6771658E2,2.2914693E2,1.8063385E3,1.5671648E2,7.875629E2,5.454738E1,8.353186E3,1.3847009E1,4.4412344E2,7.326574E1,2.9445084E2,4.800748E1,1.8113943E2,1.7402996E3,6.603903E1,8.0334015E0,1.4868307E2,7.2599414E2,6.1568768E1,3.5334187E1,1.9213194E1,2.9527277E2,8.0579126E3,4.360212E2,8.102241E0,2.0007214E1,2.7444363E2,1.1532824E1,1.6960661E2,1.6111312E3,1.291683E2,6.9029236E2,3.5701794E1,1.9558485E1,4.201028E1],"tree_param":{"num_deleted":"0","num_feature":"48","num_nodes":"47","size_leaf_vector":"1"}},{"base_weights":[-1.15956604E-1,1.7216979E-1,-2.0446432E-1,2.3636529E-1,-1.75664E-1,-1.4896183E-1,-1.7238896E-1,1.858948E-1,1.3226804E0,-1.7056419E-1,6.999823E-1,4.27164E-1,5.0046675E-2,1.8017492E-1,4.661364E-1,-1.0023861E-1,-5.2849334E-1,8.5756975E-1,-1.7587316E-1,-1.8568395E-1,5.241351E-1,5.139077E-1,-1.3843442E-1,-5.4768015E-2,-5.174441E-1,-5.412467E-1,5.049235E-1,9.267949E-1,-1.65525E-1,1.88888E-1,-4.6365846E-2,-2.3043275E-1,1.6589868E-1,9.06527E-3,-1.5818778E-1,-3.0473352E-3,-1.3799089E-1,-1.6815528E-1,3.0431762E-1,2.7816284E-1,-1.6755223E-1,2.9908562E-1,-1.5986603E-1],"categories":[],"categories_nodes":[],"categories_segments":[],"categories_sizes":[],"default_left":[0,0,0,0,0,0,0,0,0,0,0,0,0,0,0,0,0,0,0,0,0,0,0,0,0,0,0,0,0,0,0,0,0,0,0,0,0,0,0,0,0,0,0],"id":18,"left_children":[1,3,5,7,-1,9,-1,11,13,15,17,19,21,-1,-1,23,25,27,-1,-1,29,31,33,35,37,39,-1,41,-1,-1,-1,-1,-1,-1,-1,-1,-1,-1,-1,-1,-1,-1,-1],"loss_changes":[2.4869783E2,1.1162481E2,1.5318002E2,1.1564035E2,0E0,1.19115326E2,0E0,6.621878E1,1.47000885E1,1.5924281E2,3.317868E1,7.416307E1,1.13214005E2,0E0,0E0,1.00334E2,3.0215393E1,1.4561958E1,0E0,0E0,4.7828766E1,1.9172379E1,6.0416115E1,8.62476E1,3.486653E1,2.6720612E1,0E0,1.4627563E1,0E0,0E0,0E0,0E0,0E0,0E0,0E0,0E0,0E0,0E0,0E0,0E0,0E0,0E0,0E0],"parents":[2147483647,0,0,1,1,2,2,3,3,5,5,7,7,8,8,9,9,10,10,11,11,12,12,15,15,16,16,17,17,20,20,21,21,22,22,23,23,24,24,25,25,27,27],"right_children":[2,4,6,8,-1,10,-1,12,14,16,18,20,22,-1,-1,24,26,28,-1,-1,30,32,34,36,38,40,-1,42,-1,-1,-1,-1,-1,-1,-1,-1,-1,-1,-1,-1,-1,-1,-1],"split_conditions":[-1.5540485E-1,4.4276753E-1,3.171131E-1,1.8888809E-1,-1.75664E-1,1.5607644E0,-1.7238896E-1,-1.147121E-1,-2.8715944E0,5.041357E-3,1.3598204E0,-1.514413E0,-9.716074E-1,1.8017492E-1,4.661364E-1,4.5131156E-1,2.7873993E-1,2.3528228E0,-1.7587316E-1,-1.8568395E-1,1.0220783E0,-2.019996E0,1.0464407E-2,2.416356E-2,1.5607644E0,-1.9788519E0,5.049235E-1,6.8918115E-1,-1.65525E-1,1.88888E-1,-4.6365846E-2,-2.3043275E-1,1.6589868E-1,9.06527E-3,-1.5818778E-1,-3.0473352E-3,-1.3799089E-1,-1.6815528E-1,3.0431762E-1,2.7816284E-1,-1.6755223E-1,2.9908562E-1,-1.5986603E-1],"split_indices":[0,40,3,40,0,2,0,24,0,2,1,24,0,0,0,41,3,2,0,0,21,31,24,0,6,41,0,25,0,0,0,0,0,0,0,0,0,0,0,0,0,0,0],"split_type":[0,0,0,0,0,0,0,0,0,0,0,0,0,0,0,0,0,0,0,0,0,0,0,0,0,0,0,0,0,0,0,0,0,0,0,0,0,0,0,0,0,0,0],"sum_hessian":[9.749936E3,2.290979E3,7.4589565E3,2.1126763E3,1.783028E2,6.487609E3,9.7134753E2,2.0199978E3,9.267853E1,6.3274E3,1.6020894E2,7.268868E2,1.293111E3,2.3342731E1,6.93358E1,5.28942E3,1.0379801E3,1.4301956E2,1.7189383E1,6.1207397E1,6.656794E2,3.731195E2,9.199915E2,4.7706094E3,5.188103E2,1.0327797E3,5.2004128E0,1.3664977E2,6.3697915E0,5.7619165E2,8.948776E1,1.0487761E1,3.6263174E2,6.423288E2,2.776627E2,4.2984062E3,4.722033E2,5.0523764E2,1.3572648E1,1.1386118E1,1.02139355E3,1.306856E2,5.9641743E0],"tree_param":{"num_deleted":"0","num_feature":"48","num_nodes":"43","size_leaf_vector":"1"}},{"base_weights":[6.217371E-2,4.1564383E-2,3.7429264E-1,6.895004E-2,-3.809423E-1,4.6583194E-1,-4.0431467E-1,3.4884647E-2,3.9442116E-1,5.6817806E-1,-5.5869913E-1,5.9096164E-1,-7.544256E-2,-7.6742715E-1,1.7797303E-1,1.5901953E-2,4.7786808E-1,8.754812E-1,1.9555064E-1,-1.7385697E-1,2.4670792E-1,5.0999284E-1,-6.195172E-1,6.3201904E-1,-3.1640005E-1,-1.8589237E-1,4.0191576E-1,-2.4594969E-1,-1.8329687E-1,4.7134474E-2,-3.639259E-1,5.5507916E-1,-2.3712948E-1,-1.8619633E-1,9.2487484E-1,-2.2601879E-1,2.6156318E-1,-1.825678E-1,2.546141E-1,2.32307E-1,-6.3703716E-1,8.0699384E-1,4.8918223E-1,-2.0270368E-1,1.7207709E-1,2.1110655E-1,-1.7186324E-1,7.1584117E-3,1.4450064E-1,-1.6747686E-1,8.429162E-3,1.9682015E-1,-1.1308079E-1,2.827784E-1,-1.7252307E-1,-7.315926E-2,1.15774415E-1,-1.9546859E-1,2.2555467E-1,2.5096196E-1,-1.7563456E-1,-2.1170817E-1,1.7883271E-1],"categories":[],"categories_nodes":[],"categories_segments":[],"categories_sizes":[],"default_left":[0,0,0,0,0,0,0,0,0,0,0,0,0,0,0,0,0,0,0,0,0,0,0,0,0,0,0,0,0,0,0,0,0,0,0,0,0,0,0,0,0,0,0,0,0,0,0,0,0,0,0,0,0,0,0,0,0,0,0,0,0,0,0],"id":19,"left_children":[1,3,5,7,9,11,13,15,17,19,21,23,25,27,-1,29,31,33,35,-1,-1,37,39,41,43,-1,45,-1,-1,47,49,51,-1,-1,53,-1,55,-1,-1,-1,57,59,61,-1,-1,-1,-1,-1,-1,-1,-1,-1,-1,-1,-1,-1,-1,-1,-1,-1,-1,-1,-1],"loss_changes":[9.152899E1,1.545063E2,6.3006775E1,1.3901216E2,1.3745602E2,5.3491302E1,3.4234978E1,9.545353E1,1.1348013E2,3.8026653E1,4.4846817E1,2.4082E1,3.8971165E1,6.316757E-2,0E0,1.2916696E2,4.6115845E1,2.6230255E1,5.292885E1,0E0,0E0,1.4701397E1,1.6334885E1,1.494191E1,9.474406E0,0E0,2.3940039E1,0E0,0E0,1.017299E2,6.304081E1,4.168579E1,0E0,0E0,9.485443E0,0E0,4.9606846E1,0E0,0E0,0E0,1.3424744E1,1.1772934E1,4.391002E1,0E0,0E0,0E0,0E0,0E0,0E0,0E0,0E0,0E0,0E0,0E0,0E0,0E0,0E0,0E0,0E0,0E0,0E0,0E0,0E0],"parents":[2147483647,0,0,1,1,2,2,3,3,4,4,5,5,6,6,7,7,8,8,9,9,10,10,11,11,12,12,13,13,15,15,16,16,17,17,18,18,21,21,22,22,23,23,24,24,26,26,29,29,30,30,31,31,34,34,36,36,40,40,41,41,42,42],"right_children":[2,4,6,8,10,12,14,16,18,20,22,24,26,28,-1,30,32,34,36,-1,-1,38,40,42,44,-1,46,-1,-1,48,50,52,-1,-1,54,-1,56,-1,-1,-1,58,60,62,-1,-1,-1,-1,-1,-1,-1,-1,-1,-1,-1,-1,-1,-1,-1,-1,-1,-1,-1,-1],"split_conditions":[1.164127E0,7.9063123E-1,1.9513974E0,5.794719E-1,-5.0264943E-2,1.1541225E0,2.6190515E0,8.817653E-1,6.8932354E-1,-1.0542127E0,-4.0542882E-2,1.2142723E0,1.5857376E0,3.6323455E-1,1.7797303E-1,5.014164E-1,2.0436482E0,-7.998466E-1,7.320437E-1,-1.7385697E-1,2.4670792E-1,-7.6596326E-1,-1.3217227E0,1.5058877E0,1.8085902E0,-1.8589237E-1,3.4406257E0,-2.4594969E-1,-1.8329687E-1,6.248581E-2,9.362828E-1,1.2541012E0,-2.3712948E-1,-1.8619633E-1,8.455571E-1,-2.2601879E-1,-3.1717783E-1,-1.825678E-1,2.546141E-1,2.32307E-1,5.152626E-1,3.2544866E0,1.6181806E0,-2.0270368E-1,1.7207709E-1,2.1110655E-1,-1.7186324E-1,7.1584117E-3,1.4450064E-1,-1.6747686E-1,8.429162E-3,1.9682015E-1,-1.1308079E-1,2.827784E-1,-1.7252307E-1,-7.315926E-2,1.15774415E-1,-1.9546859E-1,2.2555467E-1,2.5096196E-1,-1.7563456E-1,-2.1170817E-1,1.7883271E-1],"split_indices":[37,37,36,40,3,28,36,2,40,3,7,29,28,25,0,28,2,19,40,0,0,7,18,37,37,0,28,0,0,28,28,28,0,0,44,0,18,0,0,0,12,31,37,0,0,0,0,0,0,0,0,0,0,0,0,0,0,0,0,0,0,0,0],"split_type":[0,0,0,0,0,0,0,0,0,0,0,0,0,0,0,0,0,0,0,0,0,0,0,0,0,0,0,0,0,0,0,0,0,0,0,0,0,0,0,0,0,0,0,0,0,0,0,0,0,0,0,0,0,0,0,0,0,0,0,0,0,0,0],"sum_hessian":[1.4230429E4,1.3350054E4,8.803758E2,1.25382E4,8.11853E2,7.881199E2,9.225594E1,1.1351232E4,1.1869681E3,1.2771756E2,6.841355E2,6.400612E2,1.4805864E2,6.780538E1,2.4450556E1,1.0885791E4,4.6544116E2,3.461771E2,8.407911E2,2.2924965E1,1.04792595E2,3.643935E1,6.4769617E2,6.1264307E2,2.7418165E1,6.904631E1,7.901234E1,4.761437E1,2.0191017E1,1.0059494E4,8.2629706E2,4.3926227E2,2.6178907E1,1.0693872E1,3.3548322E2,5.400747E1,7.867836E2,8.284603E0,2.8154747E1,7.503775E0,6.401924E2,2.732557E2,3.3938736E2,1.970449E1,7.713675E0,6.054665E1,1.8465685E1,9.54911E3,5.1038324E2,5.521607E2,2.7413638E2,3.9658646E2,4.2675808E1,3.3193347E2,3.5497558E0,1.5516275E2,6.3162085E2,6.3409204E2,6.1003485E0,2.6796893E2,5.286748E0,2.7416471E1,3.119709E2],"tree_param":{"num_deleted":"0","num_feature":"48","num_nodes":"63","size_leaf_vector":"1"}},{"base_weights":[1.912591E-2,-4.9169973E-1,5.2655872E-2,-5.5912185E-1,2.709527E-1,1.4865928E-2,4.0039614E-1,-5.7708E-1,2.7699563E-1,4.841327E-2,-4.7470337E-1,4.8081002E-1,-3.1231618E-1,-5.858376E-1,2.6141468E-1,-5.219206E-1,7.4053206E-2,-6.234465E-1,-2.0630296E-1,-2.0396236E-1,5.349101E-1,-1.9735657E-1,2.007426E-1,-5.896017E-1,2.625433E-1,-5.668624E-1,2.2369687E-1,-5.721872E-1,9.2662774E-2,-1.651351E-1,-6.410819E-1,6.602263E-1,-1.88735E-1,-8.942286E-2,5.852733E-1,2.0883872E-1,-1.8356785E-1,-1.6736057E-1,-1.8237902E-1,-1.7677186E-1,2.751737E-1,2.0510724E-2,-1.7871325E-1,1.646072E-1,1.8885031E-2,-2.0266576E-1,-1.8114251E-1,4.49431E-2,3.2612154E-1,2.0843646E-1,-2.156875E-1,-2.0970523E-1,1.8272823E-1],"categories":[],"categories_nodes":[],"categories_segments":[],"categories_sizes":[],"default_left":[0,0,0,0,0,0,0,0,0,0,0,0,0,0,0,0,0,0,0,0,0,0,0,0,0,0,0,0,0,0,0,0,0,0,0,0,0,0,0,0,0,0,0,0,0,0,0,0,0,0,0,0,0],"id":20,"left_children":[1,3,5,7,-1,9,11,13,-1,15,17,19,21,23,-1,25,27,29,31,-1,33,-1,35,37,-1,39,-1,41,43,-1,45,47,-1,49,51,-1,-1,-1,-1,-1,-1,-1,-1,-1,-1,-1,-1,-1,-1,-1,-1,-1,-1],"loss_changes":[2.202068E2,7.498079E1,1.5852997E2,2.06595E1,0E0,1.7875677E2,6.79214E1,9.993607E0,0E0,1.4898672E2,2.7737228E1,6.71127E1,2.1494135E1,4.605713E0,0E0,2.5393127E1,1.172888E2,2.2460938E-1,9.215041E1,0E0,3.2005737E1,0E0,2.0256502E1,9.262085E-2,0E0,1.4617905E1,0E0,4.1543427E0,1.283677E2,0E0,4.852295E-2,1.7832142E1,0E0,3.837723E1,2.919815E1,0E0,0E0,0E0,0E0,0E0,0E0,0E0,0E0,0E0,0E0,0E0,0E0,0E0,0E0,0E0,0E0,0E0,0E0],"parents":[2147483647,0,0,1,1,2,2,3,3,5,5,6,6,7,7,9,9,10,10,11,11,12,12,13,13,15,15,16,16,17,17,18,18,20,20,22,22,23,23,25,25,27,27,28,28,30,30,31,31,33,33,34,34],"right_children":[2,4,6,8,-1,10,12,14,-1,16,18,20,22,24,-1,26,28,30,32,-1,34,-1,36,38,-1,40,-1,42,44,-1,46,48,-1,50,52,-1,-1,-1,-1,-1,-1,-1,-1,-1,-1,-1,-1,-1,-1,-1,-1,-1,-1],"split_conditions":[-6.788192E-1,1.5119464E0,1.7958778E-1,1.5119464E0,2.709527E-1,6.086305E-1,1.3118165E0,1.5119464E0,2.7699563E-1,-7.826891E-1,1.2695836E0,-5.666474E-1,5.1438725E-1,1.5119464E0,2.6141468E-1,1.1028618E0,-6.983595E-1,-1.0914944E0,1.6183714E0,-2.0396236E-1,-1.0074112E0,-1.9735657E-1,6.6247165E-1,-8.5439146E-1,2.625433E-1,1.503495E0,2.2369687E-1,-1.405182E0,-2.6272443E-1,-1.651351E-1,7.5387426E-2,1.503495E0,-1.88735E-1,3.9263615E-1,-1.0597595E0,2.0883872E-1,-1.8356785E-1,-1.6736057E-1,-1.8237902E-1,-1.7677186E-1,2.751737E-1,2.0510724E-2,-1.7871325E-1,1.646072E-1,1.8885031E-2,-2.0266576E-1,-1.8114251E-1,4.49431E-2,3.2612154E-1,2.0843646E-1,-2.156875E-1,-2.0970523E-1,1.8272823E-1],"split_indices":[30,17,8,18,0,16,37,14,0,42,16,38,8,19,0,7,4,45,16,0,20,0,8,32,0,13,0,37,42,0,15,16,0,8,40,0,0,0,0,0,0,0,0,0,0,0,0,0,0,0,0,0,0],"split_type":[0,0,0,0,0,0,0,0,0,0,0,0,0,0,0,0,0,0,0,0,0,0,0,0,0,0,0,0,0,0,0,0,0,0,0,0,0,0,0,0,0,0,0,0,0,0,0,0,0,0,0,0,0],"sum_hessian":[1.2854054E4,7.909127E2,1.2063141E4,7.5501764E2,3.589507E1,1.0881644E4,1.1814971E3,7.465843E2,8.433338E0,1.018465E4,6.9699384E2,1.0619993E3,1.1949784E2,7.4268945E2,3.8948517E0,4.3733047E2,9.747319E3,4.476118E2,2.4938202E2,4.6780697E1,1.01521857E3,7.12378E1,4.826004E1,7.4137585E2,1.3136387E0,4.2288977E2,1.4440715E1,2.7200095E2,9.475318E3,9.3366E1,3.542458E2,8.15956E1,1.6778642E2,7.5723885E1,9.394947E2,3.0071611E1,1.818843E1,2.8294037E2,4.5843546E2,4.172022E2,5.6875386E0,9.567523E0,2.6243344E2,5.785353E2,8.896783E3,1.7514656E2,1.7909924E2,3.7775337E1,4.382026E1,3.3673378E1,4.2050507E1,1.6592094E1,9.229026E2],"tree_param":{"num_deleted":"0","num_feature":"48","num_nodes":"53","size_leaf_vector":"1"}},{"base_weights":[-1.0142041E-1,-3.5468E-2,-4.379352E-1,3.4479704E-1,-9.669614E-2,-1.6799995E-1,1.9982009E-1,-1.7402063E-1,3.9511123E-1,-4.4316548E-1,-3.5067383E-2,5.562964E-1,-1.6754806E-1,4.4272375E-1,-1.8392166E-1,8.450419E-1,-4.8848262E-1,8.513111E-3,-4.8865834E-1,7.148866E-1,-1.6324288E-1,4.7430027E-1,-1.8197373E-1,3.6035487E-1,1.9063418E-1,-5.0762075E-1,2.900181E-1,-2.2927538E-2,1.1717782E0,-5.2710843E-1,9.339166E-1,7.9916996E-1,-1.571342E-1,1.0111957E-1,1.9391453E-1,2.5093246E-1,-1.5712832E-1,1.1951768E-1,-2.1400753E-2,3.6718696E-1,-1.3643783E-1,-1.663823E-1,1.2323178E-2,3.5392916E-1,-1.1375131E-1,2.5842556E-1,-1.4985777E-1],"categories":[],"categories_nodes":[],"categories_segments":[],"categories_sizes":[],"default_left":[0,0,0,0,0,0,0,0,0,0,0,0,0,0,0,0,0,0,0,0,0,0,0,0,0,0,0,0,0,0,0,0,0,0,0,0,0,0,0,0,0,0,0,0,0,0,0],"id":21,"left_children":[1,3,5,7,9,-1,11,-1,13,15,17,19,-1,21,-1,23,25,27,29,31,-1,33,-1,-1,-1,35,-1,37,39,41,43,45,-1,-1,-1,-1,-1,-1,-1,-1,-1,-1,-1,-1,-1,-1,-1],"loss_changes":[2.0209467E2,1.773406E2,1.1627597E2,4.9385086E1,1.400565E2,0E0,6.5311646E1,0E0,4.839064E1,5.824005E1,1.1011872E2,2.9021988E1,0E0,3.2023224E1,0E0,1.7768002E0,2.7158203E1,1.8593591E2,2.7201546E1,1.5434715E1,0E0,2.1753906E1,0E0,0E0,0E0,2.0955109E1,0E0,1.0099226E2,1.1911636E1,7.4615326E0,4.712269E0,1.1349327E1,0E0,0E0,0E0,0E0,0E0,0E0,0E0,0E0,0E0,0E0,0E0,0E0,0E0,0E0,0E0],"parents":[2147483647,0,0,1,1,2,2,3,3,4,4,6,6,8,8,9,9,10,10,11,11,13,13,15,15,16,16,17,17,18,18,19,19,21,21,25,25,27,27,28,28,29,29,30,30,31,31],"right_children":[2,4,6,8,10,-1,12,-1,14,16,18,20,-1,22,-1,24,26,28,30,32,-1,34,-1,-1,-1,36,-1,38,40,42,44,46,-1,-1,-1,-1,-1,-1,-1,-1,-1,-1,-1,-1,-1,-1,-1],"split_conditions":[2.416356E-2,-9.474666E-1,1.473781E0,-1.514413E0,0E0,-1.6799995E-1,1.5570113E-1,-1.7402063E-1,1.0220783E0,-1.0909263E0,4.4276753E-1,2.416356E-2,-1.6754806E-1,1.4813399E-4,-1.8392166E-1,-1.3521254E0,2.0436482E0,1.9010866E-1,1.5607644E0,1.3598204E0,-1.6324288E-1,-1.405182E0,-1.8197373E-1,3.6035487E-1,1.9063418E-1,-1.2900707E0,2.900181E-1,-6.313379E-1,1.3282576E-2,9.0957946E-1,1.7264258E0,3.3875145E-2,-1.571342E-1,1.0111957E-1,1.9391453E-1,2.5093246E-1,-1.5712832E-1,1.1951768E-1,-2.1400753E-2,3.6718696E-1,-1.3643783E-1,-1.663823E-1,1.2323178E-2,3.5392916E-1,-1.1375131E-1,2.5842556E-1,-1.4985777E-1],"split_indices":[0,45,0,24,14,0,3,0,18,25,40,7,0,1,0,14,2,40,6,1,0,45,0,0,0,28,0,38,9,1,6,43,0,0,0,0,0,0,0,0,0,0,0,0,0,0,0],"split_type":[0,0,0,0,0,0,0,0,0,0,0,0,0,0,0,0,0,0,0,0,0,0,0,0,0,0,0,0,0,0,0,0,0,0,0,0,0,0,0,0,0,0,0,0,0,0,0],"sum_hessian":[9.10554E3,7.6143374E3,1.491203E3,1.0553461E3,6.558991E3,1.2517445E3,2.3945856E2,5.3907112E1,1.00143896E3,9.895682E2,5.569423E3,1.6306812E2,7.6390434E1,9.568133E2,4.462565E1,3.3028786E1,9.565394E2,5.08212E3,4.8730298E2,1.4283392E2,2.0234203E1,9.2939325E2,2.7420092E1,1.0483816E1,2.254497E1,9.4476556E2,1.1773877E1,4.94933E3,1.3278987E2,4.7509143E2,1.2211548E1,1.3406638E2,8.767543E0,5.186936E2,4.1069962E2,1.0607604E1,9.3415796E2,5.0931314E2,4.440017E3,1.2890236E2,3.887503E0,4.531821E2,2.190933E1,1.03712845E1,1.8402637E0,1.2825558E2,5.810783E0],"tree_param":{"num_deleted":"0","num_feature":"48","num_nodes":"47","size_leaf_vector":"1"}},{"base_weights":[5.288597E-2,4.217645E-2,5.798662E-1,6.3928865E-2,-2.4722764E-1,7.138499E-1,-1.7684849E-1,2.1835834E-2,2.6621026E-1,-6.5098286E-1,1.5262957E-2,7.490966E-1,1.9308218E-1,4.0070997E-3,4.6472093E-1,7.2387666E-1,1.6632552E-1,-2.0658599E-1,-1.7977224E-1,1.0065107E0,-2.0288657E-1,2.3262152E-1,1.8698767E-1,7.611253E-1,-6.721934E-3,5.736526E-1,-2.9061866E-1,8.0687666E-1,-1.7488047E-1,-7.465443E-1,2.8043726E-1,3.577339E-1,7.0960754E-1,-3.2169366E-1,7.9303044E-1,1.9006391E-1,2.4892002E-1,-6.659148E-2,8.0575645E-3,1.8870239E-1,-9.256347E-2,-1.363091E-1,1.7103311E-1,2.496287E-1,-1.847619E-1,-2.4232884E-1,-1.9694494E-1,-2.0638582E-1,1.0135644E-1,2.442853E-1,1.7970197E-1,-1.5699448E-1,8.952585E-2,2.8465858E-1,2.0331292E-1],"categories":[],"categories_nodes":[],"categories_segments":[],"categories_sizes":[],"default_left":[0,0,0,0,0,0,0,0,0,0,0,0,0,0,0,0,0,0,0,0,0,0,0,0,0,0,0,0,0,0,0,0,0,0,0,0,0,0,0,0,0,0,0,0,0,0,0,0,0,0,0,0,0,0,0],"id":22,"left_children":[1,3,5,7,9,11,-1,13,15,17,19,21,-1,23,25,27,29,-1,-1,31,33,-1,-1,35,37,39,41,43,-1,45,47,-1,49,51,53,-1,-1,-1,-1,-1,-1,-1,-1,-1,-1,-1,-1,-1,-1,-1,-1,-1,-1,-1,-1],"loss_changes":[7.782336E1,8.512795E1,4.345336E1,1.0707184E2,1.0020224E2,1.2909698E-1,0E0,8.220157E1,9.8898346E1,3.1272888E-1,1.2430158E2,4.058838E-2,0E0,8.130805E1,3.3314514E1,4.2527603E1,1.8555815E2,0E0,0E0,4.8777313E0,5.6008682E1,0E0,0E0,6.985245E-1,7.134771E1,1.7404442E1,7.5090218E0,1.3609161E1,0E0,5.612564E-1,8.821383E1,0E0,3.0879974E-3,5.2879555E1,2.6462746E-1,0E0,0E0,0E0,0E0,0E0,0E0,0E0,0E0,0E0,0E0,0E0,0E0,0E0,0E0,0E0,0E0,0E0,0E0,0E0,0E0],"parents":[2147483647,0,0,1,1,2,2,3,3,4,4,5,5,7,7,8,8,9,9,10,10,11,11,13,13,14,14,15,15,16,16,19,19,20,20,23,23,24,24,25,25,26,26,27,27,29,29,30,30,32,32,33,33,34,34],"right_children":[2,4,6,8,10,12,-1,14,16,18,20,22,-1,24,26,28,30,-1,-1,32,34,-1,-1,36,38,40,42,44,-1,46,48,-1,50,52,54,-1,-1,-1,-1,-1,-1,-1,-1,-1,-1,-1,-1,-1,-1,-1,-1,-1,-1,-1,-1],"split_conditions":[1.5556626E0,8.801973E-1,3.4203048E0,2.91596E-2,1.0256946E0,5.041357E-3,-1.7684849E-1,1.1104217E0,1.6165161E-1,2.416356E-2,1.1533096E0,5.3309005E-1,1.9308218E-1,-1.514413E0,6.8186563E-1,2.5708787E-2,1.9904199E-1,-2.0658599E-1,-1.7977224E-1,1.1004754E0,1.1667956E0,2.3262152E-1,1.8698767E-1,-1.511372E0,-1.6364607E-1,6.542293E-1,1.748782E0,7.476979E-2,-1.7488047E-1,3.3875145E-2,-1.1227884E0,3.577339E-1,7.659525E-2,1.5556626E0,5.041357E-3,1.9006391E-1,2.4892002E-1,-6.659148E-2,8.0575645E-3,1.8870239E-1,-9.256347E-2,-1.363091E-1,1.7103311E-1,2.496287E-1,-1.847619E-1,-2.4232884E-1,-1.9694494E-1,-2.0638582E-1,1.0135644E-1,2.442853E-1,1.7970197E-1,-1.5699448E-1,8.952585E-2,2.8465858E-1,2.0331292E-1],"split_indices":[30,26,30,26,26,2,0,40,26,3,26,40,0,24,33,8,26,0,0,26,1,0,0,39,2,27,40,5,0,41,15,0,40,26,2,0,0,0,0,0,0,0,0,0,0,0,0,0,0,0,0,0,0,0,0],"split_type":[0,0,0,0,0,0,0,0,0,0,0,0,0,0,0,0,0,0,0,0,0,0,0,0,0,0,0,0,0,0,0,0,0,0,0,0,0,0,0,0,0,0,0,0,0,0,0,0,0,0,0,0,0,0,0],"sum_hessian":[1.3792748E4,1.3519087E4,2.7366058E2,1.2574716E4,9.443713E2,2.4587779E2,2.7782785E1,1.0409662E4,2.1650537E3,3.7148465E2,5.7288666E2,1.5728844E2,8.858936E1,1.0007799E4,4.018638E2,3.867481E2,1.7783057E3,2.0792905E2,1.6355562E2,1.0268469E2,4.7020197E2,1.2581434E2,3.1474094E1,1.3886044E2,9.8689375E3,3.5142358E2,5.044019E1,3.6401108E2,2.2737005E1,1.9697835E2,1.5813273E3,6.1287262E1,4.139743E1,4.2069275E2,4.950921E1,5.2139523E1,8.672092E1,1.33109E3,8.537848E3,3.309448E2,2.0478813E1,4.277483E1,7.665361E0,3.580791E2,5.9319844E0,1.1252279E2,8.445555E1,8.789694E1,1.4934304E3,1.7999596E1,2.3397835E1,3.175891E2,1.0310362E2,1.7982143E1,3.1527067E1],"tree_param":{"num_deleted":"0","num_feature":"48","num_nodes":"55","size_leaf_vector":"1"}},{"base_weights":[1.5713057E-2,-1.7081262E-1,4.1364443E-2,-3.788308E-1,6.728307E-2,-4.9769837E-1,2.342942E-1,7.718215E-1,5.1726926E-2,-5.4127055E-1,3.2846177E-1,5.023555E-1,-1.6320737E-1,-1.9090085E-1,8.201033E-1,-4.901611E-1,7.404985E-2,-5.722762E-1,-7.665044E-2,6.136211E-1,-1.5271401E-1,6.048455E-1,-1.601409E-1,-1.5942469E-1,8.4262466E-1,-5.3588355E-1,6.232557E-1,-1.9922638E-1,8.751284E-2,-1.7328964E-1,1.8632223E-1,-1.5879977E-1,2.5421315E-1,-1.09559774E-1,2.1546608E-1,-1.345662E-1,1.9924812E-1,2.704635E-1,2.0593818E-1,-2.9478883E-2,-1.7790693E-1,3.120767E-1,-1.6318768E-1,1.9172795E-1,1.8872079E-2],"categories":[],"categories_nodes":[],"categories_segments":[],"categories_sizes":[],"default_left":[0,0,0,0,0,0,0,0,0,0,0,0,0,0,0,0,0,0,0,0,0,0,0,0,0,0,0,0,0,0,0,0,0,0,0,0,0,0,0,0,0,0,0,0,0],"id":23,"left_children":[1,-1,3,5,7,9,11,13,15,17,19,21,-1,-1,23,25,27,29,31,33,-1,35,-1,-1,37,39,41,-1,43,-1,-1,-1,-1,-1,-1,-1,-1,-1,-1,-1,-1,-1,-1,-1,-1],"loss_changes":[1.8541197E2,0E0,1.2891364E2,5.0238075E1,1.2213862E2,2.0925415E1,2.3715355E1,1.6890244E1,1.3198546E2,7.848587E0,7.356966E0,9.253317E0,0E0,0E0,7.546173E0,2.2311348E1,1.0417691E2,3.6403656E0,1.5267854E1,2.5616531E0,0E0,5.1086426E0,0E0,0E0,1.4953156E0,1.0324348E1,9.079234E0,0E0,1.396242E2,0E0,0E0,0E0,0E0,0E0,0E0,0E0,0E0,0E0,0E0,0E0,0E0,0E0,0E0,0E0,0E0],"parents":[2147483647,0,0,2,2,3,3,4,4,5,5,6,6,7,7,8,8,9,9,10,10,11,11,14,14,15,15,16,16,17,17,18,18,19,19,21,21,24,24,25,25,26,26,28,28],"right_children":[2,-1,4,6,8,10,12,14,16,18,20,22,-1,-1,24,26,28,30,32,34,-1,36,-1,-1,38,40,42,-1,44,-1,-1,-1,-1,-1,-1,-1,-1,-1,-1,-1,-1,-1,-1,-1,-1],"split_conditions":[-8.324449E-1,-1.7081262E-1,-4.3869674E-1,4.9816507E-1,-6.373646E-1,4.9816507E-1,5.420581E-1,-6.7698383E-1,-6.7231655E-1,4.632132E-1,5.420581E-1,5.4449666E-1,-1.6320737E-1,-1.9090085E-1,-6.90569E-1,7.659525E-2,-4.1789934E-1,1.1240476E0,-1.5633783E0,-1.5633783E0,-1.5271401E-1,-1.5633783E0,-1.601409E-1,-1.5942469E-1,2.416356E-2,-8.825181E-2,1.498297E-1,-1.9922638E-1,-2.4720411E-1,-1.7328964E-1,1.8632223E-1,-1.5879977E-1,2.5421315E-1,-1.09559774E-1,2.1546608E-1,-1.345662E-1,1.9924812E-1,2.704635E-1,2.0593818E-1,-2.9478883E-2,-1.7790693E-1,3.120767E-1,-1.6318768E-1,1.9172795E-1,1.8872079E-2],"split_indices":[32,0,8,33,32,29,31,3,26,26,31,28,0,0,7,40,32,32,8,8,0,8,0,0,7,8,40,0,26,0,0,0,0,0,0,0,0,0,0,0,0,0,0,0,0],"split_type":[0,0,0,0,0,0,0,0,0,0,0,0,0,0,0,0,0,0,0,0,0,0,0,0,0,0,0,0,0,0,0,0,0,0,0,0,0,0,0,0,0,0,0,0,0],"sum_hessian":[1.2351368E4,5.178735E2,1.1833495E4,6.8671954E2,1.1146775E4,5.753615E2,1.1135804E2,2.3975269E2,1.0907022E4,5.468644E2,2.8497135E1,8.30941E1,2.8263935E1,7.544175E0,2.3220851E2,4.307056E2,1.0476317E4,5.124361E2,3.4428253E1,2.1458244E1,7.0388913E0,7.5993576E1,7.1005254E0,3.435671E0,2.2877284E2,4.1421457E2,1.6491028E1,1.8679059E2,1.0289526E4,5.1066016E2,1.7759672E0,2.339444E1,1.1033813E1,1.8311595E0,1.9627085E1,3.701137E0,7.229244E1,1.6263719E2,6.613566E1,4.815143E1,3.6606314E2,1.2230369E1,4.260658E0,4.383456E2,9.851181E3],"tree_param":{"num_deleted":"0","num_feature":"48","num_nodes":"45","size_leaf_vector":"1"}},{"base_weights":[-8.933807E-2,-4.5173936E-2,-1.6773778E-1,-4.409833E-1,4.0433547E-4,7.574137E-1,-4.910314E-1,2.799466E-1,-5.7910413E-2,1.835303E-1,9.5161545E-1,1.9715147E-1,-5.218732E-1,1.910178E-1,9.04154E-1,-2.8399866E-2,-1.729842E-1,1.896594E-1,3.4993207E-1,2.2017525E-1,-5.3567684E-1,3.183289E-1,-1.9387396E-1,5.643261E-1,1.0941956E0,-4.4040464E-2,1.2852962E0,1.9016902E-1,-1.6456456E-1,4.1947234E-2,1.7378432E-1,1.8738967E-1,-1.2566836E-1,-1.0799755E-1,3.374219E-1,-1.2554243E-1,-3.4731912E-4,5.3097236E-1,3.067863E-1],"categories":[],"categories_nodes":[],"categories_segments":[],"categories_sizes":[],"default_left":[0,0,0,0,0,0,0,0,0,0,0,0,0,0,0,0,0,0,0,0,0,0,0,0,0,0,0,0,0,0,0,0,0,0,0,0,0,0,0],"id":24,"left_children":[1,3,-1,5,7,9,11,13,15,-1,17,-1,19,21,23,25,-1,-1,-1,-1,27,29,-1,31,33,35,37,-1,-1,-1,-1,-1,-1,-1,-1,-1,-1,-1,-1],"loss_changes":[1.766539E2,1.4044241E2,0E0,4.85867E1,1.1383336E2,3.4046936E-1,2.769078E1,6.673255E1,8.842492E1,0E0,9.831524E-2,0E0,1.3439423E1,1.1279469E2,9.0718155E0,1.1240311E2,0E0,0E0,0E0,0E0,1.15634E1,4.265773E1,0E0,3.574728E0,4.6314545E0,8.677697E1,6.383484E0,0E0,0E0,0E0,0E0,0E0,0E0,0E0,0E0,0E0,0E0,0E0,0E0],"parents":[2147483647,0,0,1,1,3,3,4,4,5,5,6,6,7,7,8,8,10,10,12,12,13,13,14,14,15,15,20,20,21,21,23,23,24,24,25,25,26,26],"right_children":[2,4,-1,6,8,10,12,14,16,-1,18,-1,20,22,24,26,-1,-1,-1,-1,28,30,-1,32,34,36,38,-1,-1,-1,-1,-1,-1,-1,-1,-1,-1,-1,-1],"split_conditions":[2.416356E-2,-0E0,-1.6773778E-1,-1.8018687E0,-6.6185224E-1,-2.0118074E0,-1.4867766E0,-7.875714E-1,3.731948E-1,1.835303E-1,-1.2778782E0,1.9715147E-1,-1.9788519E0,-9.474666E-1,-1.6364607E-1,3.6709192E-1,-1.729842E-1,1.896594E-1,3.4993207E-1,2.2017525E-1,-1.8936194E0,-1.405182E0,-1.9387396E-1,-1.0542127E0,-2.8587636E-1,-1.2479952E-1,7.659525E-2,1.9016902E-1,-1.6456456E-1,4.1947234E-2,1.7378432E-1,1.8738967E-1,-1.2566836E-1,-1.0799755E-1,3.374219E-1,-1.2554243E-1,-3.4731912E-4,5.3097236E-1,3.067863E-1],"split_indices":[7,17,0,39,45,45,27,45,43,0,31,0,41,45,3,43,0,0,0,0,6,45,0,3,19,45,40,0,0,0,0,0,0,0,0,0,0,0,0],"split_type":[0,0,0,0,0,0,0,0,0,0,0,0,0,0,0,0,0,0,0,0,0,0,0,0,0,0,0,0,0,0,0,0,0,0,0,0,0,0,0],"sum_hessian":[8.514573E3,7.7839136E3,7.3065924E2,8.028814E2,6.981032E3,3.16196E1,7.7126184E2,1.2042831E3,5.776749E3,2.0440187E1,1.1179413E1,1.9643667E1,7.5161816E2,1.055251E3,1.4903214E2,5.4667827E3,3.099663E2,6.080833E0,5.0985804E0,7.6047673E0,7.4401337E2,9.1650995E2,1.3874106E2,5.4875153E1,9.4156975E1,5.403417E3,6.3365513E1,7.573838E0,7.364396E2,5.451411E2,3.7136884E2,5.2047512E1,2.8276393E0,1.7151147E0,9.2441864E1,5.543453E2,4.849072E3,2.0256374E1,4.310914E1],"tree_param":{"num_deleted":"0","num_feature":"48","num_nodes":"39","size_leaf_vector":"1"}},{"base_weights":[4.5221608E-2,3.811533E-2,7.422174E-1,5.069033E-2,-3.804174E-1,2.4951836E-1,2.0021665E-1,2.9578157E-2,3.4727025E-1,1.9771223E-1,-5.308327E-1,4.0528715E-2,-2.0117743E-1,4.4386965E-1,-3.0735704E-1,2.1700893E-1,-5.801765E-1,6.6291916E-1,3.167796E-2,-7.023473E-2,5.382341E-1,-5.321725E-1,1.9159263E-1,-6.183384E-1,1.9057235E-1,2.1501243E-1,-1.7845681E-1,-1.559132E-1,1.4296404E-2,-1.980727E-1,1.4370584E-1,-1.6927586E-1,1.7432657E-1,-1.7484084E-1,1.5749568E-1,1.9190067E-1,-1.9035569E-1],"categories":[],"categories_nodes":[],"categories_segments":[],"categories_sizes":[],"default_left":[0,0,0,0,0,0,0,0,0,0,0,0,0,0,0,0,0,0,0,0,0,0,0,0,0,0,0,0,0,0,0,0,0,0,0,0,0],"id":25,"left_children":[1,3,5,7,9,-1,-1,11,13,-1,15,17,-1,19,21,-1,23,25,27,29,31,33,-1,35,-1,-1,-1,-1,-1,-1,-1,-1,-1,-1,-1,-1,-1],"loss_changes":[6.62751E1,6.976699E1,3.4947205E-1,8.0553635E1,6.0806725E1,0E0,0E0,9.213154E1,5.420112E1,0E0,2.135897E1,6.513867E1,0E0,3.620096E1,2.3846651E1,0E0,1.5518005E1,1.1643547E1,1.0277612E2,3.806637E1,3.0090317E1,5.1151752E0,0E0,6.8518753E0,0E0,0E0,0E0,0E0,0E0,0E0,0E0,0E0,0E0,0E0,0E0,0E0,0E0],"parents":[2147483647,0,0,1,1,2,2,3,3,4,4,7,7,8,8,10,10,11,11,13,13,14,14,16,16,17,17,18,18,19,19,20,20,21,21,23,23],"right_children":[2,4,6,8,10,-1,-1,12,14,-1,16,18,-1,20,22,-1,24,26,28,30,32,34,-1,36,-1,-1,-1,-1,-1,-1,-1,-1,-1,-1,-1,-1,-1],"split_conditions":[2.2681007E0,1.2524124E0,7.5387426E-2,5.152626E-1,-8.324449E-1,2.4951836E-1,2.0021665E-1,3.8826805E-1,8.292164E-1,1.9771223E-1,-1.8018687E0,-1.5016074E0,-2.0117743E-1,-1.0128942E0,7.344848E-1,2.1700893E-1,4.9403167E-1,5.2331156E-1,-9.193934E-1,6.9989663E-1,-1.2420224E0,1.39908055E-2,1.9159263E-1,-1.8348242E0,1.9057235E-1,2.1501243E-1,-1.7845681E-1,-1.559132E-1,1.4296404E-2,-1.980727E-1,1.4370584E-1,-1.6927586E-1,1.7432657E-1,-1.7484084E-1,1.5749568E-1,1.9190067E-1,-1.9035569E-1],"split_indices":[13,13,14,13,32,0,0,13,19,0,40,36,0,31,43,0,40,17,36,13,8,4,0,41,0,0,0,0,0,0,0,0,0,0,0,0,0],"split_type":[0,0,0,0,0,0,0,0,0,0,0,0,0,0,0,0,0,0,0,0,0,0,0,0,0,0,0,0,0,0,0,0,0,0,0,0,0],"sum_hessian":[1.3385386E4,1.3251336E4,1.340504E2,1.286566E4,3.8567557E2,5.6431553E1,7.761885E1,1.2011701E4,8.539587E2,4.832689E1,3.373487E2,1.182766E4,1.8404092E2,7.444296E2,1.0952903E2,1.2252822E1,3.2509586E2,1.6480176E2,1.1662858E4,1.154896E2,6.2894E2,8.885113E1,2.0677904E1,3.1567548E2,9.420392E0,1.5845557E2,6.346194E0,3.2753223E2,1.1335326E4,5.558175E1,5.9907852E1,2.307738E1,6.058627E2,8.521848E1,3.632647E0,3.5193346E0,3.1215613E2],"tree_param":{"num_deleted":"0","num_feature":"48","num_nodes":"37","size_leaf_vector":"1"}},{"base_weights":[1.3013278E-2,-5.7466644E-1,3.5164982E-2,-1.6213962E-1,-1.7895095E-1,-5.978506E-1,5.071785E-2,-1.66013E-1,-1.900774E-1,3.1804335E-1,1.634622E-2,1.5074164E-1,6.0265136E-1,-4.7976208E-1,3.7212078E-2,2.7465126E-1,-7.224192E-1,6.507281E-1,-1.7845151E-1,3.197085E-1,-5.459437E-1,-1.9293249E-3,2.664923E-1,1.2292378E-1,-1.1455047E-1,-2.2430998E-1,-1.67489E-1,2.0588766E-1,4.423403E-2,-1.7425889E-1,1.6171421E-1,1.056946E-1,-1.73667E-1,7.6944106E-3,-1.8611835E-1,-1.941117E-1,9.414534E-2],"categories":[],"categories_nodes":[],"categories_segments":[],"categories_sizes":[],"default_left":[0,0,0,0,0,0,0,0,0,0,0,0,0,0,0,0,0,0,0,0,0,0,0,0,0,0,0,0,0,0,0,0,0,0,0,0,0],"id":26,"left_children":[1,3,5,-1,-1,7,9,-1,-1,11,13,15,17,19,21,23,25,27,-1,29,31,33,35,-1,-1,-1,-1,-1,-1,-1,-1,-1,-1,-1,-1,-1,-1],"loss_changes":[1.5548872E2,1.6326904E-3,1.1334496E2,0E0,0E0,8.823395E-2,1.0322239E2,0E0,0E0,6.0850677E1,1.030762E2,8.755157E1,2.7646439E1,2.1439056E1,8.574838E1,6.2927017E1,1.1444092E-5,8.055084E0,0E0,6.5070543E0,1.1199432E1,1.3923224E2,6.0439568E1,0E0,0E0,0E0,0E0,0E0,0E0,0E0,0E0,0E0,0E0,0E0,0E0,0E0,0E0],"parents":[2147483647,0,0,1,1,2,2,5,5,6,6,9,9,10,10,11,11,12,12,13,13,14,14,15,15,16,16,17,17,19,19,20,20,21,21,22,22],"right_children":[2,4,6,-1,-1,8,10,-1,-1,12,14,16,18,20,22,24,26,28,-1,30,32,34,36,-1,-1,-1,-1,-1,-1,-1,-1,-1,-1,-1,-1,-1,-1],"split_conditions":[-1.199846E0,-8.5439146E-1,-8.8262796E-1,-1.6213962E-1,-1.7895095E-1,-6.34812E-1,-2.0167537E-1,-1.66013E-1,-1.900774E-1,-8.1683886E-1,-5.666474E-1,-8.922441E-1,1.3310405E0,-6.948078E-1,2.7410424E-1,2.0798318E-1,9.0957946E-1,1.3118124E0,-1.7845151E-1,-1.6688261E0,-7.386299E-1,1.39908055E-2,-3.3595887E-1,1.2292378E-1,-1.1455047E-1,-2.2430998E-1,-1.67489E-1,2.0588766E-1,4.423403E-2,-1.7425889E-1,1.6171421E-1,1.056946E-1,-1.73667E-1,7.6944106E-3,-1.8611835E-1,-1.941117E-1,9.414534E-2],"split_indices":[33,32,7,0,0,8,20,0,0,20,44,20,1,12,5,31,2,30,0,44,18,5,43,0,0,0,0,0,0,0,0,0,0,0,0,0,0],"split_type":[0,0,0,0,0,0,0,0,0,0,0,0,0,0,0,0,0,0,0,0,0,0,0,0,0,0,0,0,0,0,0,0,0,0,0,0,0],"sum_hessian":[1.1941482E4,4.3286002E2,1.1508622E4,1.7871062E2,2.541494E2,2.7508246E2,1.123354E4,1.2991087E2,1.4517159E2,1.27887E3,9.95467E3,8.063823E2,4.724877E2,4.008978E2,9.553772E3,7.0677045E2,9.961184E1,4.5468945E2,1.7798256E1,3.0356924E1,3.705409E2,8.1614824E3,1.3922897E3,5.864617E2,1.2030882E2,8.323495E1,1.6376892E1,4.2434006E2,3.0349394E1,5.6227074E0,2.4734217E1,1.2766851E1,3.5777402E2,7.814014E3,3.4746835E2,6.795089E1,1.3243389E3],"tree_param":{"num_deleted":"0","num_feature":"48","num_nodes":"37","size_leaf_vector":"1"}},{"base_weights":[-7.801426E-2,-3.711425E-2,-1.6452745E-1,-7.645506E-3,-1.6754276E-1,-4.1011512E-1,2.96718E-2,2.0933394E-1,-4.6502548E-1,5.1618606E-2,-1.7382854E-1,1.7785597E-1,-5.019931E-1,2.7727357E-1,-7.3869834E-3,2.0166214E-1,-1.5539491E-1,4.1759368E-2,2.2638436E-1,-6.6207717E-3,3.1552923E-1],"categories":[],"categories_nodes":[],"categories_segments":[],"categories_sizes":[],"default_left":[0,0,0,0,0,0,0,0,0,0,0,0,0,0,0,0,0,0,0,0,0],"id":27,"left_children":[1,3,-1,5,-1,7,9,-1,11,13,-1,-1,15,17,19,-1,-1,-1,-1,-1,-1],"loss_changes":[1.5473676E2,1.1370769E2,0E0,1.0524053E2,0E0,3.64954E1,8.575412E1,0E0,2.2475258E1,8.242969E1,0E0,0E0,1.0646332E1,8.4472565E1,7.635216E1,0E0,0E0,0E0,0E0,0E0,0E0],"parents":[2147483647,0,0,1,1,3,3,5,5,6,6,8,8,9,9,12,12,13,13,14,14],"right_children":[2,4,-1,6,-1,8,10,-1,12,14,-1,-1,16,18,20,-1,-1,-1,-1,-1,-1],"split_conditions":[3.171131E-1,3.731948E-1,-1.6452745E-1,-0E0,-1.6754276E-1,-1.8018687E0,7.476979E-2,2.0933394E-1,-1.3155495E0,-5.293668E-2,-1.7382854E-1,1.7785597E-1,-1.9788519E0,-1.7323618E-1,3.6709192E-1,2.0166214E-1,-1.5539491E-1,4.1759368E-2,2.2638436E-1,-6.6207717E-3,3.1552923E-1],"split_indices":[3,43,0,17,0,39,8,0,1,24,0,0,41,24,43,0,0,0,0,0,0],"split_type":[0,0,0,0,0,0,0,0,0,0,0,0,0,0,0,0,0,0,0,0,0],"sum_hessian":[8.0425947E3,7.400256E3,6.4233905E2,7.0053115E3,3.9494418E2,5.935751E2,6.4117363E3,2.747713E1,5.6609796E2,6.18963E3,2.221065E2,1.860664E1,5.4749133E2,1.2822448E3,4.9073853E3,6.8040686E0,5.4068726E2,9.9556036E2,2.8668433E2,4.8412534E3,6.613168E1],"tree_param":{"num_deleted":"0","num_feature":"48","num_nodes":"21","size_leaf_vector":"1"}},{"base_weights":[3.8270243E-2,3.1609863E-2,7.6689273E-1,4.60644E-2,-5.5487275E-1,9.345547E-1,1.7601441E-1,2.1240862E-2,3.3748806E-1,-6.529516E-1,1.9651145E-1,3.2962388E-1,2.0984125E-1,3.6751147E-2,-3.623456E-1,8.105403E-1,1.6148527E-1,-6.820005E-1,1.7343596E-1,5.1457873E-3,2.0393641E-1,-5.2486885E-1,7.3606765E-1,2.5430334E-1,1.9070724E-1,7.104647E-1,-2.7314011E-2,-6.9361234E-1,1.7972477E-1,-2.2854412E-3,1.4013559E-1,8.860139E-2,-6.948172E-2,-1.7544222E-1,2.2628056E-1,2.340175E-1,1.6499881E-1,2.2573285E-1,1.831116E-1,-6.044775E-2,2.447283E-1,-2.103684E-1,1.4110318E-1],"categories":[],"categories_nodes":[],"categories_segments":[],"categories_sizes":[],"default_left":[0,0,0,0,0,0,0,0,0,0,0,0,0,0,0,0,0,0,0,0,0,0,0,0,0,0,0,0,0,0,0,0,0,0,0,0,0,0,0,0,0,0,0],"id":28,"left_children":[1,3,5,7,9,11,-1,13,15,17,-1,-1,-1,19,21,23,25,27,-1,29,31,33,35,-1,-1,37,39,41,-1,-1,-1,-1,-1,-1,-1,-1,-1,-1,-1,-1,-1,-1,-1],"loss_changes":[6.3341335E1,1.0972243E2,3.0233688E0,9.135814E1,3.7371834E1,1.5302849E0,0E0,6.926238E1,8.240239E1,1.0710831E1,0E0,0E0,0E0,5.911561E1,8.115483E1,1.2050018E0,7.503204E1,4.614807E0,0E0,5.5491833E1,7.08782E1,3.0703255E1,5.171585E-2,0E0,0E0,3.1906128E-1,7.938614E1,2.8137665E0,0E0,0E0,0E0,0E0,0E0,0E0,0E0,0E0,0E0,0E0,0E0,0E0,0E0,0E0,0E0],"parents":[2147483647,0,0,1,1,2,2,3,3,4,4,5,5,7,7,8,8,9,9,13,13,14,14,15,15,16,16,17,17,19,19,20,20,21,21,22,22,25,25,26,26,27,27],"right_children":[2,4,6,8,10,12,-1,14,16,18,-1,-1,-1,20,22,24,26,28,-1,30,32,34,36,-1,-1,38,40,42,-1,-1,-1,-1,-1,-1,-1,-1,-1,-1,-1,-1,-1,-1,-1],"split_conditions":[1.748782E0,1.3093753E0,1.2785937E-1,5.4651636E-1,3.0214426E-1,7.659525E-2,1.7601441E-1,3.2803357E-1,7.015293E-1,3.224455E-1,1.9651145E-1,3.2962388E-1,2.0984125E-1,8.199384E-2,8.817653E-1,7.466906E-1,-3.371812E-2,3.224455E-1,1.7343596E-1,1.164127E0,8.9315945E-1,8.5614026E-1,8.8981336E-1,2.5430334E-1,1.9070724E-1,8.357925E-1,1.1873178E0,3.0214426E-1,1.7972477E-1,-2.2854412E-3,1.4013559E-1,8.860139E-2,-6.948172E-2,-1.7544222E-1,2.2628056E-1,2.340175E-1,1.6499881E-1,2.2573285E-1,1.831116E-1,-6.044775E-2,2.447283E-1,-2.103684E-1,1.4110318E-1],"split_indices":[42,42,37,42,18,40,0,42,42,19,0,0,0,27,3,38,3,12,0,37,38,5,0,0,0,39,42,21,0,0,0,0,0,0,0,0,0,0,0,0,0,0,0],"split_type":[0,0,0,0,0,0,0,0,0,0,0,0,0,0,0,0,0,0,0,0,0,0,0,0,0,0,0,0,0,0,0,0,0,0,0,0,0,0,0,0,0,0,0],"sum_hessian":[1.3056255E4,1.2939022E4,1.1723292E2,1.2628695E4,3.1032712E2,5.8556877E1,5.8676044E1,1.1638406E4,9.9028925E2,2.8748325E2,2.2843872E1,3.2313828E1,2.624305E1,1.1186966E4,4.5143982E2,2.6755685E2,7.2273236E2,2.8129175E2,6.191487E0,9.409237E3,1.7777285E3,3.9370822E2,5.773162E1,2.1751039E2,5.0046463E1,1.842418E2,5.3849054E2,2.7921948E2,2.0722852E0,9.157215E3,2.5202269E2,1.469637E3,3.0809155E2,3.7660388E2,1.7104313E1,4.4110786E1,1.3620832E1,1.2521166E2,5.9030144E1,4.469186E2,9.157195E1,2.777994E2,1.4200577E0],"tree_param":{"num_deleted":"0","num_feature":"48","num_nodes":"43","size_leaf_vector":"1"}},{"base_weights":[1.1018443E-2,-1.6618492E-1,3.0338757E-2,-1.761469E-1,4.3824945E-2,8.0947924E-1,3.2187022E-2,8.519034E-1,-1.4640766E-1,-2.4540653E-3,2.6427913E-1,8.700369E-1,-1.2052732E-1,-3.4909736E-2,3.084344E-1,6.531214E-1,-1.3907614E-2,1.9471946E-1,2.797913E-1,-3.1573605E-3,-1.2183664E-1,1.5497284E-1,-1.0102362E-1,-1.9898672E-1,2.1803616E-1,1.917495E-1,-4.19124E-2],"categories":[],"categories_nodes":[],"categories_segments":[],"categories_sizes":[],"default_left":[0,0,0,0,0,0,0,0,0,0,0,0,0,0,0,0,0,0,0,0,0,0,0,0,0,0,0],"id":29,"left_children":[1,-1,3,-1,5,7,9,11,-1,13,15,17,-1,19,21,23,25,-1,-1,-1,-1,-1,-1,-1,-1,-1,-1],"loss_changes":[1.2663197E2,0E0,9.343794E1,0E0,9.779741E1,9.461365E0,8.69521E1,3.9753265E0,0E0,9.497263E1,1.5194214E2,1.5738144E0,0E0,7.714353E1,1.196565E2,5.7289627E1,6.743866E1,0E0,0E0,0E0,0E0,0E0,0E0,0E0,0E0,0E0,0E0],"parents":[2147483647,0,0,2,2,4,4,5,5,6,6,7,7,9,9,10,10,11,11,13,13,14,14,15,15,16,16],"right_children":[2,-1,4,-1,6,8,10,12,-1,14,16,18,-1,20,22,24,26,-1,-1,-1,-1,-1,-1,-1,-1,-1,-1],"split_conditions":[-8.324449E-1,-1.6618492E-1,-9.403165E-1,-1.761469E-1,-8.181147E-1,7.5387426E-2,5.1438725E-1,7.5387426E-2,-1.4640766E-1,6.8349135E-1,8.262659E-1,-8.8262796E-1,-1.2052732E-1,3.3722386E-1,1.3890316E0,-8.4005606E-1,-1.0170674E-1,1.9471946E-1,2.797913E-1,-3.1573605E-3,-1.2183664E-1,1.5497284E-1,-1.0102362E-1,-1.9898672E-1,2.1803616E-1,1.917495E-1,-4.19124E-2],"split_indices":[32,0,5,0,5,18,0,17,0,33,0,5,0,33,33,36,24,0,0,0,0,0,0,0,0,0,0],"split_type":[0,0,0,0,0,0,0,0,0,0,0,0,0,0,0,0,0,0,0,0,0,0,0,0,0,0,0],"sum_hessian":[1.1598722E4,3.8261295E2,1.1216109E4,2.3881676E2,1.0977292E4,1.633299E2,1.0813962E4,1.584912E2,4.838706E0,9.4103955E3,1.4035665E3,1.5653302E2,1.9581654E0,8.521653E3,8.8874304E2,5.848001E2,8.1876636E2,3.7065403E1,1.1946762E2,7.997331E3,5.243219E2,6.7211206E2,2.16631E2,3.0566746E1,5.542334E2,1.3158467E2,6.871817E2],"tree_param":{"num_deleted":"0","num_feature":"48","num_nodes":"27","size_leaf_vector":"1"}},{"base_weights":[-6.79015E-2,-3.1783912E-2,-1.6332942E-1,2.3312582E-2,-2.8172204E-1,5.0679214E-2,-4.4254377E-1,4.4113022E-1,-3.4456083E-1,7.3593654E-2,-4.9013087E-1,-4.9482447E-1,2.6186958E-1,5.358608E-1,-1.5283151E-1,-3.8049784E-1,7.239683E-1,6.304678E-2,1.1350788E0,-5.2145654E-1,6.762067E-1,-5.2216125E-1,2.661402E-1,5.693606E-1,-1.2653634E-1,-4.382098E-1,-1.3198343E-2,-1.1066541E-1,7.985234E-1,2.0541434E-1,1.3385375E-2,2.6995102E-1,4.8711446E-1,-1.6171092E-1,1.0994787E-1,2.9701477E-1,-9.9018075E-2,-1.6073123E-1,1.883629E-1,1.7955738E-1,9.51656E-2,-1.352495E-1,2.9459655E-1,2.9728767E-1,-9.931977E-2,2.950177E-1,2.0175096E-1],"categories":[],"categories_nodes":[],"categories_segments":[],"categories_sizes":[],"default_left":[0,0,0,0,0,0,0,0,0,0,0,0,0,0,0,0,0,0,0,0,0,0,0,0,0,0,0,0,0,0,0,0,0,0,0,0,0,0,0,0,0,0,0,0,0,0,0],"id":30,"left_children":[1,3,-1,5,7,9,11,13,15,17,19,21,-1,23,-1,25,27,29,31,33,35,37,-1,39,-1,41,43,-1,45,-1,-1,-1,-1,-1,-1,-1,-1,-1,-1,-1,-1,-1,-1,-1,-1,-1,-1],"loss_changes":[1.324589E2,9.854853E1,0E0,7.478598E1,5.886612E1,6.86875E1,2.2816292E1,9.621727E0,4.5962875E1,5.9437332E1,8.584785E0,1.2313606E1,0E0,3.2845879E0,0E0,2.4408005E1,3.4768887E0,6.0280243E1,4.543358E0,3.6315422E0,2.3254235E0,5.160568E0,0E0,4.875126E-1,0E0,1.8284058E1,5.0575752E1,0E0,1.9784927E-1,0E0,0E0,0E0,0E0,0E0,0E0,0E0,0E0,0E0,0E0,0E0,0E0,0E0,0E0,0E0,0E0,0E0,0E0],"parents":[2147483647,0,0,1,1,3,3,4,4,5,5,6,6,7,7,8,8,9,9,10,10,11,11,13,13,15,15,16,16,17,17,18,18,19,19,20,20,21,21,23,23,25,25,26,26,28,28],"right_children":[2,4,-1,6,8,10,12,14,16,18,20,22,-1,24,-1,26,28,30,32,34,36,38,-1,40,-1,42,44,-1,46,-1,-1,-1,-1,-1,-1,-1,-1,-1,-1,-1,-1,-1,-1,-1,-1,-1,-1],"split_conditions":[2.416356E-2,1.0464407E-2,-1.6332942E-1,2.9129493E-1,-1.3760065E0,4.5131156E-1,2.118616E0,1.11991905E-1,2.2687469E0,2.8826883E-1,1.5607644E0,1.4704912E0,2.6186958E-1,8.1477545E-2,-1.5283151E-1,5.3067845E-1,6.526036E-1,-1.7935272E0,-1.5540485E-1,1.3397968E0,1.7264258E0,1.5607644E0,2.661402E-1,1.3125381E-2,-1.2653634E-1,1.5402257E0,5.388068E-1,-1.1066541E-1,2.416356E-2,2.0541434E-1,1.3385375E-2,2.6995102E-1,4.8711446E-1,-1.6171092E-1,1.0994787E-1,2.9701477E-1,-9.9018075E-2,-1.6073123E-1,1.883629E-1,1.7955738E-1,9.51656E-2,-1.352495E-1,2.9459655E-1,2.9728767E-1,-9.931977E-2,2.950177E-1,2.0175096E-1],"split_indices":[7,24,0,9,7,41,38,44,38,9,6,36,0,40,0,32,24,6,0,1,6,6,0,38,0,6,32,0,0,0,0,0,0,0,0,0,0,0,0,0,0,0,0,0,0,0,0],"split_type":[0,0,0,0,0,0,0,0,0,0,0,0,0,0,0,0,0,0,0,0,0,0,0,0,0,0,0,0,0,0,0,0,0,0,0,0,0,0,0,0,0,0,0,0,0,0,0],"sum_hessian":[7.696133E3,7.154908E3,5.412247E2,5.8633047E3,1.2916033E3,5.5388193E3,3.2448553E2,1.0281968E2,1.1887837E3,5.3145044E3,2.2431477E2,3.126822E2,1.1803347E1,9.389835E1,8.921328E0,1.1507261E3,3.805758E1,5.2632686E3,5.12362E1,2.1898611E2,5.328653E0,3.0722702E2,5.4551554E0,9.111644E1,2.7819147E0,9.9430304E2,1.5642299E2,2.1783793E0,3.58792E1,1.5049265E2,5.112776E3,3.6503834E1,1.4732363E1,2.1512006E2,3.866064E0,4.0741053E0,1.2545472E0,3.0416174E2,3.0652976E0,8.0438736E1,1.0677701E1,9.862207E2,8.082374E0,3.7101196E1,1.1932179E2,1.1785982E1,2.4093216E1],"tree_param":{"num_deleted":"0","num_feature":"48","num_nodes":"47","size_leaf_vector":"1"}},{"base_weights":[3.244259E-2,-1.7858848E-1,3.9387528E-2,3.31238E-2,6.9716805E-1,4.257416E-2,-5.130829E-1,2.200974E-1,1.767506E-1,2.4420198E-2,2.9729488E-1,-6.952566E-1,2.3908015E-1,4.370586E-2,-3.1612808E-1,-4.7070077E-1,3.6379102E-1,-2.2030549E-1,-1.8767615E-1,1.9286333E-1,-1.9497561E-1,1.8267609E-1,1.057097E-2,-2.1435444E-1,6.5307864E-3,-1.7560042E-1,8.6701E-2,1.7743105E-1,6.0337532E-2],"categories":[],"categories_nodes":[],"categories_segments":[],"categories_sizes":[],"default_left":[0,0,0,0,0,0,0,0,0,0,0,0,0,0,0,0,0,0,0,0,0,0,0,0,0,0,0,0,0],"id":31,"left_children":[1,-1,3,5,7,9,11,-1,-1,13,15,17,19,21,23,25,27,-1,-1,-1,-1,-1,-1,-1,-1,-1,-1,-1,-1],"loss_changes":[5.558068E1,0E0,5.191212E1,6.44794E1,3.6128998E-2,5.6758575E1,2.927771E1,0E0,0E0,7.5281204E1,4.18742E1,7.1411133E-3,1.5555034E1,5.1902252E1,8.271479E1,5.874007E0,2.7731392E1,0E0,0E0,0E0,0E0,0E0,0E0,0E0,0E0,0E0,0E0,0E0,0E0],"parents":[2147483647,0,0,2,2,3,3,4,4,5,5,6,6,9,9,10,10,11,11,12,12,13,13,14,14,15,15,16,16],"right_children":[2,-1,4,6,8,10,12,-1,-1,14,16,18,20,22,24,26,28,-1,-1,-1,-1,-1,-1,-1,-1,-1,-1,-1,-1],"split_conditions":[-1.7935272E0,-1.7858848E-1,2.2681007E0,1.2524124E0,4.774566E-3,6.086305E-1,1.6183714E0,2.200974E-1,1.767506E-1,1.5046625E-1,-7.6596326E-1,1.3439916E0,1.850539E0,-1.5016074E0,6.086305E-1,1.6183714E0,8.292164E-1,-2.2030549E-1,-1.8767615E-1,1.9286333E-1,-1.9497561E-1,1.8267609E-1,1.057097E-2,-2.1435444E-1,6.5307864E-3,-1.7560042E-1,8.6701E-2,1.7743105E-1,6.0337532E-2],"split_indices":[6,0,21,21,28,18,21,0,0,19,4,13,21,36,19,18,18,0,0,0,0,0,0,0,0,0,0,0,0],"split_type":[0,0,0,0,0,0,0,0,0,0,0,0,0,0,0,0,0,0,0,0,0,0,0,0,0,0,0,0,0],"sum_hessian":[1.2742655E4,1.3850806E2,1.2604147E4,1.2486297E4,1.1785068E2,1.2274842E4,2.1145485E2,8.375805E1,3.4092625E1,1.1459237E4,8.156047E2,1.7028703E2,4.1167812E1,1.0845893E4,6.1334436E2,6.4506744E1,7.510979E2,1.029668E2,6.732024E1,2.8499659E1,1.2668153E1,1.5907123E2,1.0686821E4,2.8096606E2,3.3237833E2,5.6248734E1,8.258012E0,3.119283E2,4.391696E2],"tree_param":{"num_deleted":"0","num_feature":"48","num_nodes":"29","size_leaf_vector":"1"}},{"base_weights":[9.722088E-3,-1.7241374E-1,2.7415609E-2,-3.5629156E-1,4.8358273E-2,-4.6874642E-1,2.5424293E-1,5.871242E-2,-6.9107085E-1,-5.09792E-1,3.0978224E-1,4.7954762E-1,-1.5585852E-1,4.1343115E-2,6.2026876E-1,-2.2987673E-1,-1.7816705E-1,-5.4091644E-1,-3.636328E-3,5.461633E-1,-1.4105096E-1,5.660292E-1,-1.6609386E-1,6.4804256E-1,2.9617932E-2,-1.8053493E-1,7.2867155E-1,-1.6550711E-1,1.0313585E-1,-1.5179744E-1,2.061397E-1,1.8811014E-1,-1.08781435E-1,-1.3969316E-1,2.013125E-1,-1.5764862E-1,2.2321409E-1,-8.7610856E-2,1.5497159E-2,2.260434E-1,-1.6764674E-1],"categories":[],"categories_nodes":[],"categories_segments":[],"categories_sizes":[],"default_left":[0,0,0,0,0,0,0,0,0,0,0,0,0,0,0,0,0,0,0,0,0,0,0,0,0,0,0,0,0,0,0,0,0,0,0,0,0,0,0,0,0],"id":32,"left_children":[1,-1,3,5,7,9,11,13,15,17,19,21,-1,23,25,-1,-1,27,29,31,-1,33,-1,35,37,-1,39,-1,-1,-1,