{"learner":{"attributes":{"scikit_learn":"{\"_estimator_type\": \"classifier\"}"},"feature_names":[],"feature_types":[],"gradient_booster":{"model":{"gbtree_model_param":{"num_parallel_tree":"1","num_trees":"450"},"iteration_indptr":[0,3,6,9,12,15,18,21,24,27,30,33,36,39,42,45,48,51,54,57,60,63,66,69,72,75,78,81,84,87,90,93,96,99,102,105,108,111,114,117,120,123,126,129,132,135,138,141,144,147,150,153,156,159,162,165,168,171,174,177,180,183,186,189,192,195,198,201,204,207,210,213,216,219,222,225,228,231,234,237,240,243,246,249,252,255,258,261,264,267,270,273,276,279,282,285,288,291,294,297,300,303,306,309,312,315,318,321,324,327,330,333,336,339,342,345,348,351,354,357,360,363,366,369,372,375,378,381,384,387,390,393,396,399,402,405,408,411,414,417,420,423,426,429,432,435,438,441,444,447,450],"tree_info":[0,1,2,0,1,2,0,1,2,0,1,2,0,1,2,0,1,2,0,1,2,0,1,2,0,1,2,0,1,2,0,1,2,0,1,2,0,1,2,0,1,2,0,1,2,0,1,2,0,1,2,0,1,2,0,1,2,0,1,2,0,1,2,0,1,2,0,1,2,0,1,2,0,1,2,0,1,2,0,1,2,0,1,2,0,1,2,0,1,2,0,1,2,0,1,2,0,1,2,0,1,2,0,1,2,0,1,2,0,1,2,0,1,2,0,1,2,0,1,2,0,1,2,0,1,2,0,1,2,0,1,2,0,1,2,0,1,2,0,1,2,0,1,2,0,1,2,0,1,2,0,1,2,0,1,2,0,1,2,0,1,2,0,1,2,0,1,2,0,1,2,0,1,2,0,1,2,0,1,2,0,1,2,0,1,2,0,1,2,0,1,2,0,1,2,0,1,2,0,1,2,0,1,2,0,1,2,0,1,2,0,1,2,0,1,2,0,1,2,0,1,2,0,1,2,0,1,2,0,1,2,0,1,2,0,1,2,0,1,2,0,1,2,0,1,2,0,1,2,0,1,2,0,1,2,0,1,2,0,1,2,0,1,2,0,1,2,0,1,2,0,1,2,0,1,2,0,1,2,0,1,2,0,1,2,0,1,2,0,1,2,0,1,2,0,1,2,0,1,2,0,1,2,0,1,2,0,1,2,0,1,2,0,1,2,0,1,2,0,1,2,0,1,2,0,1,2,0,1,2,0,1,2,0,1,2,0,1,2,0,1,2,0,1,2,0,1,2,0,1,2,0,1,2,0,1,2,0,1,2,0,1,2,0,1,2,0,1,2,0,1,2,0,1,2,0,1,2,0,1,2,0,1,2,0,1,2,0,1,2,0,1,2,0,1,2,0,1,2,0,1,2,0,1,2,0,1,2,0,1,2,0,1,2,0,1,2,0,1,2,0,1,2,0,1,2,0,1,2,0,1,2,0,1,2,0,1,2,0,1,2,0,1,2,0,1,2,0,1,2],"trees":[{"base_weights":[-6.1533E-1,-2.2295895E-1,-6.50585E-1,2.5871444E-1,-3.58642E-1,4.736513E-1,-6.577857E-1,3.5423863E-1,-2.2343872E-1,-2.804583E-1,-6.7972153E-1,2.3035297E-1,4.456405E-1,-6.219561E-1,-7.3984385E-1,-2.2332509E-1,4.6109182E-1,-2.9498404E-1,4.3852693E-1,-2.2479095E-1,3.4285712E-1,4.167433E-1,-2.2178063E-1,-3.0984986E-1,-6.3607E-1,-2.416108E-1,-7.427683E-1,-2.8901738E-1,5.683221E-1,-5.9517837E-1,-2.4538001E-1,4.3769E-1,-2.1913046E-1,-2.1939062E-1,5.579237E-1,-2.2458103E-1,-1.9019447E-1,-6.093754E-1,-7.31948E-1,-2.2305478E-1,4.368932E-1,-7.463049E-1,-4.5071462E-1,4.3753847E-1,-2.2336827E-1,3.3825505E-1,1.024182E-1,-6.266824E-2,-2.2452612E-1,4.387812E-1,-7.875536E-2,1.2897305E-1,4.386555E-1,4.441894E-1,-7.751072E-2,-1.8537886E-1,-3.722856E-2,-5.88538E-2,-2.2160642E-1,-2.2498713E-1,-2.2127108E-1,-2.2382064E-1,1.4985297E-2],"categories":[],"categories_nodes":[],"categories_segments":[],"categories_sizes":[],"default_left":[0,0,0,0,0,0,0,0,0,0,0,0,0,0,0,0,0,0,0,0,0,0,0,0,0,0,0,0,0,0,0,0,0,0,0,0,0,0,0,0,0,0,0,0,0,0,0,0,0,0,0,0,0,0,0,0,0,0,0,0,0,0,0],"id":0,"left_children":[1,3,5,7,9,11,13,15,-1,17,19,21,-1,23,25,-1,27,29,-1,-1,31,33,-1,35,37,39,41,43,45,47,49,-1,-1,-1,51,-1,53,55,57,-1,-1,59,61,-1,-1,-1,-1,-1,-1,-1,-1,-1,-1,-1,-1,-1,-1,-1,-1,-1,-1,-1,-1],"loss_changes":[1.2621289E3,4.9185953E2,6.781172E2,1.5884735E2,1.4719574E2,1.3097763E2,2.4414453E2,1.7775296E2,0E0,1.1996161E2,8.201123E1,7.824206E1,0E0,2.5492383E2,3.6654297E1,0E0,1.1099396E2,6.961755E1,0E0,0E0,8.957801E1,5.913552E1,0E0,1.3150818E2,1.4136719E2,1.2805992E2,2.5623047E1,1.3880301E2,1.5263873E2,3.912938E1,1.1812216E2,0E0,0E0,0E0,3.6786827E1,0E0,2.2497083E2,1.7986621E2,4.3413086E1,0E0,0E0,2.3925781E-1,4.4875847E1,0E0,0E0,0E0,0E0,0E0,0E0,0E0,0E0,0E0,0E0,0E0,0E0,0E0,0E0,0E0,0E0,0E0,0E0,0E0,0E0],"parents":[2147483647,0,0,1,1,2,2,3,3,4,4,5,5,6,6,7,7,9,9,10,10,11,11,13,13,14,14,16,16,17,17,20,20,21,21,23,23,24,24,25,25,26,26,27,27,28,28,29,29,30,30,34,34,36,36,37,37,38,38,41,41,42,42],"right_children":[2,4,6,8,10,12,14,16,-1,18,20,22,-1,24,26,-1,28,30,-1,-1,32,34,-1,36,38,40,42,44,46,48,50,-1,-1,-1,52,-1,54,56,58,-1,-1,60,62,-1,-1,-1,-1,-1,-1,-1,-1,-1,-1,-1,-1,-1,-1,-1,-1,-1,-1,-1,-1],"split_conditions":[-8.121241E-1,-7.622289E-1,-1.9528017E0,-8.413861E-1,6.0154505E-2,6.9122165E-1,1.5341413E-2,-2.113115E0,-2.2343872E-1,2.8928014E-2,-8.413861E-1,1.5341413E-2,4.456405E-1,-8.9473224E-1,-1.8092757E0,-2.2332509E-1,-1.7948409E0,-3.3806038E-1,4.3852693E-1,-2.2479095E-1,3.8214147E-1,-6.3248765E-1,-2.2178063E-1,-3.2442337E-1,1.28318835E-2,6.0383356E-1,2.322452E0,-1.9528017E0,-1.4615787E0,-1.1007433E0,-2.7787212E-1,4.3769E-1,-2.1913046E-1,-2.1939062E-1,3.1488969E-3,-2.2458103E-1,-2.9841268E-1,1.7184914E0,-7.470973E-1,-2.2305478E-1,4.368932E-1,9.956198E-1,6.2334156E-1,4.3753847E-1,-2.2336827E-1,3.3825505E-1,1.024182E-1,-6.266824E-2,-2.2452612E-1,4.387812E-1,-7.875536E-2,1.2897305E-1,4.386555E-1,4.441894E-1,-7.751072E-2,-1.8537886E-1,-3.722856E-2,-5.88538E-2,-2.2160642E-1,-2.2498713E-1,-2.2127108E-1,-2.2382064E-1,1.4985297E-2],"split_indices":[24,0,0,24,0,12,24,36,0,0,24,24,0,0,0,0,24,12,0,0,0,24,0,24,0,24,36,0,24,12,12,0,0,0,24,0,24,12,24,0,0,24,24,0,0,0,0,0,0,0,0,0,0,0,0,0,0,0,0,0,0,0,0],"split_type":[0,0,0,0,0,0,0,0,0,0,0,0,0,0,0,0,0,0,0,0,0,0,0,0,0,0,0,0,0,0,0,0,0,0,0,0,0,0,0,0,0,0,0,0,0,0,0,0,0,0,0,0,0,0,0,0,0,0,0,0,0,0,0],"sum_hessian":[9.124977E4,7.523555E3,8.372622E4,1.6533333E3,5.8702217E3,5.324444E2,8.319377E4,1.5102222E3,1.431111E2,4.722222E3,1.1479999E3,4.302222E2,1.0222221E2,5.7914664E4,2.527911E4,1.3333333E2,1.3768888E3,4.6839995E3,3.822222E1,1.0751111E3,7.2888885E1,3.613333E2,6.8888885E1,2.5066665E3,5.5407996E4,1.4799998E2,2.513111E4,1.7199998E2,1.2048888E3,6.626666E2,4.021333E3,3.5555553E1,3.7333332E1,3.9111107E1,3.222222E2,5.3599994E2,1.9706665E3,4.3346664E4,1.2061333E4,1.1466666E2,3.3333332E1,2.4828887E4,3.022222E2,3.511111E1,1.3688889E2,3.4666666E2,8.5822217E2,1.8888887E2,4.7377774E2,3.9111107E1,3.982222E3,2.8355554E2,3.8666664E1,7.644444E1,1.8942222E3,4.2595555E4,7.511111E2,1.5022221E2,1.191111E4,1.7448443E4,7.380444E3,1.8977777E2,1.12444435E2],"tree_param":{"num_deleted":"0","num_feature":"48","num_nodes":"63","size_leaf_vector":"1"}},{"base_weights":[7.1726143E-1,6.783401E-1,9.464716E-1,7.271205E-1,4.8550102E-1,9.7246844E-1,2.7529725E-1,7.3742294E-1,-1.3334343E-1,1.487774E-1,5.5130744E-1,6.912438E-2,9.8803157E-1,1.741559E-1,4.383954E-1,7.2267985E-1,9.677332E-1,5.67711E-2,-2.2371267E-1,7.8670554E-2,9.7894734E-1,5.920602E-1,-7.2065935E-2,-4.9464673E-1,4.4278076E-1,1.189165E0,9.413627E-1,3.8337797E-1,-2.2236674E-1,7.313311E-1,8.3608635E-2,9.055863E-1,4.4883922E-1,-6.1398405E-1,3.049339E-1,1.6704741E-1,-5.660597E-1,3.4817168E-1,1.3063291E0,-2.1043307E-1,6.2152493E-1,-5.408272E-1,2.2508395E-1,3.974026E-1,-5.963992E-1,-2.1645573E-1,1.2102379E0,-4.122142E-2,9.628072E-1,-1.6868332E-1,7.771545E-1,2.2550757E-1,1.6617766E-1,-2.2349893E-1,8.470022E-2,2.9021776E-1,-6.367115E-2,4.044944E-1,-2.234339E-1,5.9012048E-2,4.3722397E-1,9.220314E-2,-6.1924215E-2,-2.234339E-1,-1.1518892E-1,4.370607E-1,-2.1876925E-1,-1.956522E-1,4.248E-1,-2.2399606E-1,1.04327664E-1,3.7365377E-1,1.769513E-1,1.1573896E-1,-2.2412606E-1,-1.5778178E-1,2.0239542E-1,-1.9438896E-1,3.512195E-1,1.1865357E-1,3.7150466E-1,-1.0500918E-1,4.3798223E-1,3.9633146E-1,2.79468E-1,-2.2306223E-1,4.3902442E-1,3.1983018E-1,-2.1869162E-1],"categories":[],"categories_nodes":[],"categories_segments":[],"categories_sizes":[],"default_left":[0,0,0,0,0,0,0,0,0,0,0,0,0,0,0,0,0,0,0,0,0,0,0,0,0,0,0,0,0,0,0,0,0,0,0,0,0,0,0,0,0,0,0,0,0,0,0,0,0,0,0,0,0,0,0,0,0,0,0,0,0,0,0,0,0,0,0,0,0,0,0,0,0,0,0,0,0,0,0,0,0,0,0,0,0,0,0,0,0],"id":1,"left_children":[1,3,5,7,9,11,13,15,17,19,21,23,25,27,-1,29,31,33,-1,35,37,39,41,43,-1,45,47,49,-1,51,53,55,-1,57,59,61,63,65,67,69,71,73,75,-1,77,-1,79,81,83,85,87,-1,-1,-1,-1,-1,-1,-1,-1,-1,-1,-1,-1,-1,-1,-1,-1,-1,-1,-1,-1,-1,-1,-1,-1,-1,-1,-1,-1,-1,-1,-1,-1,-1,-1,-1,-1,-1,-1],"loss_changes":[8.134219E2,7.3345703E2,2.3080664E2,5.520039E2,3.4896216E2,1.7916895E2,5.915025E1,2.0819531E2,8.5895294E1,1.4988007E2,3.3478198E2,1.7283702E2,1.1652344E2,8.789272E1,0E0,3.1963086E2,1.2009204E2,9.401319E1,0E0,1.355342E2,4.096077E1,2.9257764E2,1.12871155E2,2.9607117E1,0E0,9.575659E1,2.1448926E2,8.121712E1,0E0,2.0566016E2,1.2756947E2,2.2900269E2,0E0,4.015912E1,5.1115723E1,1.0963362E2,9.04702E0,8.45456E1,2.9204254E1,1.3159193E2,2.351582E2,6.036518E1,1.6785956E2,0E0,1.4254528E1,0E0,5.29021E1,1.0172437E2,1.1028027E2,1.4755522E2,9.56001E1,0E0,0E0,0E0,0E0,0E0,0E0,0E0,0E0,0E0,0E0,0E0,0E0,0E0,0E0,0E0,0E0,0E0,0E0,0E0,0E0,0E0,0E0,0E0,0E0,0E0,0E0,0E0,0E0,0E0,0E0,0E0,0E0,0E0,0E0,0E0,0E0,0E0,0E0],"parents":[2147483647,0,0,1,1,2,2,3,3,4,4,5,5,6,6,7,7,8,8,9,9,10,10,11,11,12,12,13,13,15,15,16,16,17,17,19,19,20,20,21,21,22,22,23,23,25,25,26,26,27,27,29,29,30,30,31,31,33,33,34,34,35,35,36,36,37,37,38,38,39,39,40,40,41,41,42,42,44,44,46,46,47,47,48,48,49,49,50,50],"right_children":[2,4,6,8,10,12,14,16,18,20,22,24,26,28,-1,30,32,34,-1,36,38,40,42,44,-1,46,48,50,-1,52,54,56,-1,58,60,62,64,66,68,70,72,74,76,-1,78,-1,80,82,84,86,88,-1,-1,-1,-1,-1,-1,-1,-1,-1,-1,-1,-1,-1,-1,-1,-1,-1,-1,-1,-1,-1,-1,-1,-1,-1,-1,-1,-1,-1,-1,-1,-1,-1,-1,-1,-1,-1,-1],"split_conditions":[1.5900709E-1,3.3398184E-1,1.2447653E0,1.9330888E0,4.6146318E-1,-1.9528017E0,3.0437331E0,8.236716E-2,4.4637837E-2,1.3223792E0,1.5946788E0,9.463659E-3,-5.873972E-1,1.5986869E0,4.383954E-1,2.8928014E-2,9.1757095E-1,-4.0736035E-2,-2.2371267E-1,4.4659036E-1,3.8214147E-1,-1.1422535E0,-6.873849E-1,4.2310214E-1,4.4278076E-1,-1.8092757E0,-5.202656E-1,1.3820974E0,-2.2236674E-1,7.298229E-1,-7.580368E-1,7.198379E-1,4.4883922E-1,-5.6682193E-1,1.28318835E-2,4.1347376E-1,-3.3806038E-1,2.0279195E0,-1.1259378E-1,7.5074285E-1,-5.560812E-1,1.6694595E0,1.7231066E0,3.974026E-1,3.1488969E-3,-2.1645573E-1,2.0475195E-1,1.2356437E0,-8.613167E-1,1.3982326E0,1.1117346E0,2.2550757E-1,1.6617766E-1,-2.2349893E-1,8.470022E-2,2.9021776E-1,-6.367115E-2,4.044944E-1,-2.234339E-1,5.9012048E-2,4.3722397E-1,9.220314E-2,-6.1924215E-2,-2.234339E-1,-1.1518892E-1,4.370607E-1,-2.1876925E-1,-1.956522E-1,4.248E-1,-2.2399606E-1,1.04327664E-1,3.7365377E-1,1.769513E-1,1.1573896E-1,-2.2412606E-1,-1.5778178E-1,2.0239542E-1,-1.9438896E-1,3.512195E-1,1.1865357E-1,3.7150466E-1,-1.0500918E-1,4.3798223E-1,3.9633146E-1,2.79468E-1,-2.2306223E-1,4.3902442E-1,3.1983018E-1,-2.1869162E-1],"split_indices":[12,0,0,36,0,0,0,0,0,24,24,36,36,0,0,0,36,0,0,0,0,12,12,12,0,0,36,0,0,24,12,36,0,0,0,36,12,24,36,0,24,24,24,0,24,0,12,12,0,12,12,0,0,0,0,0,0,0,0,0,0,0,0,0,0,0,0,0,0,0,0,0,0,0,0,0,0,0,0,0,0,0,0,0,0,0,0,0,0],"split_type":[0,0,0,0,0,0,0,0,0,0,0,0,0,0,0,0,0,0,0,0,0,0,0,0,0,0,0,0,0,0,0,0,0,0,0,0,0,0,0,0,0,0,0,0,0,0,0,0,0,0,0,0,0,0,0,0,0,0,0,0,0,0,0,0,0,0,0,0,0,0,0,0,0,0,0,0,0,0,0,0,0,0,0,0,0,0,0,0,0],"sum_hessian":[9.124977E4,7.8007555E4,1.3242222E4,6.225644E4,1.575111E4,1.2747999E4,4.942222E2,6.1519996E4,7.364444E2,2.5755554E3,1.3175555E4,2.1599998E2,1.2531999E4,4.5644443E2,3.7777775E1,5.7822664E4,3.697333E3,5.626666E2,1.7377777E2,2.3759998E3,1.9955554E2,1.236711E4,8.084444E2,1.5466666E2,6.133333E1,2.3555554E3,1.0176443E4,3.7199997E2,8.444444E1,5.705022E4,7.724444E2,3.3106665E3,3.8666666E2,1.5155554E2,4.1111108E2,2.0902222E3,2.8577777E2,6.8888885E1,1.3066666E2,4.3777774E2,1.1929333E4,3.133333E2,4.9511108E2,7.5555553E0,1.471111E2,2.5333332E1,2.3302222E3,2.1733331E2,9.95911E3,1.551111E2,2.1688887E2,5.1173773E4,5.8764443E3,1.4888889E2,6.2355554E2,3.1373333E3,1.7333333E2,8.888888E0,1.4266666E2,3.7688885E2,3.422222E1,1.5195554E3,5.706666E2,1.4266666E2,1.431111E2,3.3777775E1,3.511111E1,6.666666E0,1.2399999E2,2.231111E2,2.1466666E2,5.746666E2,1.1354666E4,5.6888885E1,2.5644443E2,1.8533333E2,3.0977777E2,1.4355554E2,3.5555553E0,7.822221E1,2.2519998E3,1.8088889E2,3.6444443E1,7.955555E2,9.163555E3,1.1511111E2,3.9999996E1,1.8222221E2,3.4666664E1],"tree_param":{"num_deleted":"0","num_feature":"48","num_nodes":"89","size_leaf_vector":"1"}},{"base_weights":[-1.019316E-1,-5.4047906E-1,-4.5877993E-2,-6.9887847E-1,-3.919721E-1,-1.277044E-1,2.2728813E-1,-3.704306E-1,-7.280666E-1,8.5336715E-2,-4.529179E-1,-7.00029E-1,-9.405667E-2,2.6757008E-1,-2.7856284E-1,-5.478803E-1,4.3769E-1,-2.2491392E-1,-6.991419E-1,-2.499433E-1,4.4615388E-1,-4.6601948E-1,4.361775E-1,-9.17031E-2,-7.230544E-1,-6.402055E-2,-4.399433E-1,1.9835575E-1,5.020463E-1,4.3726024E-1,-4.0193024E-1,-2.2434106E-1,4.368932E-1,-2.247691E-1,-6.500166E-1,4.435625E-2,-2.2376603E-1,-4.8546943E-1,5.3770083E-1,5.2971137E-1,-2.2141595E-1,-7.303367E-1,-5.525692E-1,-1.0659767E-1,1.7923653E-1,-4.6914038E-1,5.454545E-1,2.5410348E-1,-1.3869175E-1,7.107251E-1,1.3303143E-1,-2.2176002E-1,1.0421836E0,-4.597836E-1,4.373832E-1,-1.5155825E-1,-2.0572495E-1,1.9942196E-1,-2.2334696E-1,-1.2791607E-1,-2.0321691E-1,-2.1919774E-1,4.4136462E-1,-2.145078E-1,3.333333E-1,-1.3731961E-1,-2.204355E-1,1.477612E-1,-2.2311279E-1,-4.538831E-2,2.5013605E-2,3.5171813E-1,4.654186E-2,1.3730928E-1,-1.4567778E-1,3.6155748E-1,-2.2019006E-1,4.460945E-1,7.246379E-2,1.2948056E-1,-8.860733E-2,2.3499264E-1,-7.7223994E-2,2.599774E-1,4.642941E-3,4.4582045E-1,-2.1686749E-1,9.729729E-2,-1.570661E-1],"categories":[],"categories_nodes":[],"categories_segments":[],"categories_sizes":[],"default_left":[0,0,0,0,0,0,0,0,0,0,0,0,0,0,0,0,0,0,0,0,0,0,0,0,0,0,0,0,0,0,0,0,0,0,0,0,0,0,0,0,0,0,0,0,0,0,0,0,0,0,0,0,0,0,0,0,0,0,0,0,0,0,0,0,0,0,0,0,0,0,0,0,0,0,0,0,0,0,0,0,0,0,0,0,0,0,0,0,0],"id":2,"left_children":[1,3,5,7,9,11,13,15,17,19,21,23,25,27,29,31,-1,-1,33,35,-1,37,-1,39,41,43,45,47,49,51,53,-1,-1,-1,55,57,-1,59,61,63,-1,65,67,69,71,73,75,77,79,81,83,-1,85,87,-1,-1,-1,-1,-1,-1,-1,-1,-1,-1,-1,-1,-1,-1,-1,-1,-1,-1,-1,-1,-1,-1,-1,-1,-1,-1,-1,-1,-1,-1,-1,-1,-1,-1,-1],"loss_changes":[2.243117E3,2.4299194E2,1.8085527E3,4.7690674E1,1.5536938E2,1.1989202E3,3.8010632E2,1.3400418E2,2.3520508E0,2.8493658E2,1.1897595E2,4.835559E1,6.109024E2,2.8026184E2,1.2169904E2,1.512566E2,0E0,0E0,4.387512E0,7.14704E1,0E0,9.208771E1,0E0,5.1489918E1,3.7318115E0,5.6042224E2,1.3543036E2,2.5068268E2,3.0304224E2,1.450809E2,1.2702861E2,0E0,0E0,0E0,4.8681946E0,1.5128052E2,0E0,5.2038574E1,1.0750631E2,4.8155964E1,0E0,3.5333252E0,2.8443924E1,3.910254E2,1.9271368E2,6.981152E1,1.153983E2,1.7685901E2,1.6933813E2,1.7688635E2,1.22716156E2,0E0,1.0632303E2,5.7156113E1,0E0,0E0,0E0,0E0,0E0,0E0,0E0,0E0,0E0,0E0,0E0,0E0,0E0,0E0,0E0,0E0,0E0,0E0,0E0,0E0,0E0,0E0,0E0,0E0,0E0,0E0,0E0,0E0,0E0,0E0,0E0,0E0,0E0,0E0,0E0],"parents":[2147483647,0,0,1,1,2,2,3,3,4,4,5,5,6,6,7,7,8,8,9,9,10,10,11,11,12,12,13,13,14,14,15,15,18,18,19,19,21,21,23,23,24,24,25,25,26,26,27,27,28,28,29,29,30,30,34,34,35,35,37,37,38,38,39,39,41,41,42,42,43,43,44,44,45,45,46,46,47,47,48,48,49,49,50,50,52,52,53,53],"right_children":[2,4,6,8,10,12,14,16,18,20,22,24,26,28,30,32,-1,-1,34,36,-1,38,-1,40,42,44,46,48,50,52,54,-1,-1,-1,56,58,-1,60,62,64,-1,66,68,70,72,74,76,78,80,82,84,-1,86,88,-1,-1,-1,-1,-1,-1,-1,-1,-1,-1,-1,-1,-1,-1,-1,-1,-1,-1,-1,-1,-1,-1,-1,-1,-1,-1,-1,-1,-1,-1,-1,-1,-1,-1,-1],"split_conditions":[-5.560812E-1,-1.0348407E0,2.3186801E-1,-7.9237896E-1,-6.9655174E-1,-9.3632466E-1,8.5322917E-1,-1.1665199E0,-1.3453435E0,-8.526164E-1,2.2660437E0,-1.0074112E0,6.5312326E-1,7.198379E-1,-3.4084117E-1,-8.38258E-1,4.3769E-1,-2.2491392E-1,-4.0736035E-2,-7.820492E-1,4.4615388E-1,1.5986869E0,4.361775E-1,2.9007944E-1,1.034746E0,5.07458E-1,1.5679567E-1,3.4268045E-1,1.2861844E0,-5.873972E-1,3.7347984E0,-2.2434106E-1,4.368932E-1,-2.247691E-1,-1.2811295E0,-1.0074112E0,-2.2376603E-1,8.5322917E-1,-9.998888E-1,-1.1598033E0,-2.2141595E-1,-4.8070568E-1,1.3069341E0,9.0122186E-2,5.318695E-1,-4.8211327E-1,1.7224795E-1,-4.8211327E-1,4.9004993E-1,2.0071423E0,-9.6320903E-1,-2.2176002E-1,6.673649E-1,3.033992E-1,4.373832E-1,-1.5155825E-1,-2.0572495E-1,1.9942196E-1,-2.2334696E-1,-1.2791607E-1,-2.0321691E-1,-2.1919774E-1,4.4136462E-1,-2.145078E-1,3.333333E-1,-1.3731961E-1,-2.204355E-1,1.477612E-1,-2.2311279E-1,-4.538831E-2,2.5013605E-2,3.5171813E-1,4.654186E-2,1.3730928E-1,-1.4567778E-1,3.6155748E-1,-2.2019006E-1,4.460945E-1,7.246379E-2,1.2948056E-1,-8.860733E-2,2.3499264E-1,-7.7223994E-2,2.599774E-1,4.642941E-3,4.4582045E-1,-2.1686749E-1,9.729729E-2,-1.570661E-1],"split_indices":[24,24,0,12,12,0,12,24,24,12,12,12,12,36,36,12,0,0,0,24,0,0,0,24,36,36,0,36,36,36,12,0,0,0,24,12,0,12,24,0,0,12,36,24,36,24,0,24,0,0,12,0,0,0,0,0,0,0,0,0,0,0,0,0,0,0,0,0,0,0,0,0,0,0,0,0,0,0,0,0,0,0,0,0,0,0,0,0,0],"split_type":[0,0,0,0,0,0,0,0,0,0,0,0,0,0,0,0,0,0,0,0,0,0,0,0,0,0,0,0,0,0,0,0,0,0,0,0,0,0,0,0,0,0,0,0,0,0,0,0,0,0,0,0,0,0,0,0,0,0,0,0,0,0,0,0,0,0,0,0,0,0,0,0,0,0,0,0,0,0,0,0,0,0,0,0,0,0,0,0,0],"sum_hessian":[9.124977E4,1.0340443E4,8.090933E4,5.0017773E3,5.3386665E3,6.2259996E4,1.8649332E4,4.093333E2,4.5924443E3,6.044444E2,4.734222E3,3.4559998E3,5.8803996E4,1.727422E4,1.3751111E3,3.7377774E2,3.5555553E1,2.6124443E3,1.9799999E3,4.8844443E2,1.1599999E2,4.7026665E3,3.1555553E1,1.2622221E2,3.3297776E3,5.4106664E4,4.697333E3,1.3338666E4,3.9355554E3,2.0177777E2,1.1733333E3,3.4044443E2,3.3333332E1,9.7333325E2,1.0066666E3,3.0711108E2,1.8133333E2,4.6137773E3,8.8888885E1,6.444444E1,6.1777775E1,3.190222E3,1.3955554E2,4.6047555E4,8.059111E3,4.5626665E3,1.3466666E2,1.1445777E4,1.8928888E3,2.5133333E3,1.4222222E3,6.844444E1,1.3333333E2,1.1386666E3,3.4666664E1,2.0222221E2,8.044444E2,1.7199998E2,1.351111E2,3.530222E3,1.0835555E3,3.7777775E1,5.1111107E1,2.0444443E1,4.3999996E1,5.2888885E1,3.1373333E3,2.1333332E1,1.1822221E2,3.7277332E4,8.770222E3,1.8977777E2,7.869333E3,7.911111E1,4.483555E3,8.8888885E1,4.5777775E1,1.1422221E2,1.1331555E4,4.0755554E2,1.4853333E3,2.3382222E3,1.751111E2,1.9555554E2,1.2266666E3,1.0666666E2,2.6666664E1,8.533333E1,1.0533333E3],"tree_param":{"num_deleted":"0","num_feature":"48","num_nodes":"89","size_leaf_vector":"1"}},{"base_weights":[-5.385503E-1,-1.595369E-1,-5.729663E-1,3.131074E-1,-2.976747E-1,3.834334E-1,-5.8001435E-1,-2.049926E-1,3.9772755E-1,-2.1447298E-1,-2.0367463E-1,5.185423E-1,-2.0270315E-1,-2.6190603E-1,-5.918876E-1,-2.4595454E-1,4.811962E-1,-2.5560805E-1,2.3499045E-1,7.3101425E-1,-9.3899205E-2,5.1246274E-1,-2.85018E-1,-5.58251E-1,-6.676265E-1,3.3990255E-1,-2.0562543E-1,8.8259906E-1,3.0732015E-1,-1.0541895E-1,-4.3243816E-1,4.9906895E-1,-6.680571E-2,-2.1674255E-1,7.888536E-1,-2.1771918E-1,8.0870926E-1,3.6521053E-1,-3.0833542E-1,-3.598027E-1,-5.7607317E-1,-1.968673E-1,-6.7060846E-1,1.1280493E-1,3.4243897E-1,-1.2662669E-1,1.6839483E-1,-1.8380146E-1,1.0657821E-2,-2.1210866E-1,-8.741054E-2,3.2152778E-1,-5.970174E-2,3.2065246E-1,1.5389454E-1,3.5704887E-1,-2.0606798E-1,-1.7029412E-1,-5.5306222E-2,-1.22643806E-1,2.2595489E-1,-1.6493824E-1,-2.0024258E-1,-2.0351122E-1,3.3313945E-1,-2.0227726E-1,-1.1693257E-1],"categories":[],"categories_nodes":[],"categories_segments":[],"categories_sizes":[],"default_left":[0,0,0,0,0,0,0,0,0,0,0,0,0,0,0,0,0,0,0,0,0,0,0,0,0,0,0,0,0,0,0,0,0,0,0,0,0,0,0,0,0,0,0,0,0,0,0,0,0,0,0,0,0,0,0,0,0,0,0,0,0,0,0,0,0,0,0],"id":3,"left_children":[1,3,5,7,9,11,13,-1,15,17,-1,19,-1,21,23,25,27,29,31,33,35,-1,37,39,41,-1,-1,43,45,47,49,-1,51,-1,53,-1,55,-1,57,59,61,63,65,-1,-1,-1,-1,-1,-1,-1,-1,-1,-1,-1,-1,-1,-1,-1,-1,-1,-1,-1,-1,-1,-1,-1,-1],"loss_changes":[1.0608555E3,4.422467E2,5.0283984E2,1.2945471E2,1.660993E2,7.8490654E1,2.794121E2,0E0,7.6025055E1,7.962807E1,0E0,6.3161545E1,0E0,1.21838455E2,1.8141016E2,9.94564E1,8.703995E1,1.0467868E2,1.5590865E2,3.0842026E1,7.231327E1,0E0,9.2686844E1,1.7457031E2,3.066504E1,0E0,0E0,4.90838E1,1.6223595E2,1.5256004E2,6.9933044E1,0E0,4.52633E1,0E0,2.6237595E1,0E0,3.0632587E1,0E0,8.3343445E1,2.2258643E2,1.0854492E2,8.857116E1,2.2078125E1,0E0,0E0,0E0,0E0,0E0,0E0,0E0,0E0,0E0,0E0,0E0,0E0,0E0,0E0,0E0,0E0,0E0,0E0,0E0,0E0,0E0,0E0,0E0,0E0],"parents":[2147483647,0,0,1,1,2,2,3,3,4,4,5,5,6,6,8,8,9,9,11,11,13,13,14,14,15,15,16,16,17,17,18,18,19,19,20,20,22,22,23,23,24,24,27,27,28,28,29,29,30,30,32,32,34,34,36,36,38,38,39,39,40,40,41,41,42,42],"right_children":[2,4,6,8,10,12,14,-1,16,18,-1,20,-1,22,24,26,28,30,32,34,36,-1,38,40,42,-1,-1,44,46,48,50,-1,52,-1,54,-1,56,-1,58,60,62,64,66,-1,-1,-1,-1,-1,-1,-1,-1,-1,-1,-1,-1,-1,-1,-1,-1,-1,-1,-1,-1,-1,-1,-1,-1],"split_conditions":[-8.413861E-1,-7.622289E-1,-1.9528017E0,-2.113115E0,6.0154505E-2,1.5341413E-2,-1.0023924E0,-2.049926E-1,-1.7948409E0,-9.080385E-1,-2.0367463E-1,9.463659E-3,-2.0270315E-1,-1.3760666E0,1.5341413E-2,-1.9528017E0,-1.4615787E0,-1.2429264E0,-3.540311E-1,-1.7005609E0,4.1347376E-1,5.1246274E-1,-8.121241E-1,-5.6682193E-1,-1.8092757E0,3.3990255E-1,-2.0562543E-1,-1.653684E0,-1.2811295E0,-1.4125054E0,-2.550721E-1,4.9906895E-1,-1.2172135E0,-2.1674255E-1,-1.5531388E-1,-2.1771918E-1,6.429417E-1,3.6521053E-1,-3.2442337E-1,1.7184914E0,1.28318835E-2,6.0383356E-1,2.322452E0,1.1280493E-1,3.4243897E-1,-1.2662669E-1,1.6839483E-1,-1.8380146E-1,1.0657821E-2,-2.1210866E-1,-8.741054E-2,3.2152778E-1,-5.970174E-2,3.2065246E-1,1.5389454E-1,3.5704887E-1,-2.0606798E-1,-1.7029412E-1,-5.5306222E-2,-1.22643806E-1,2.2595489E-1,-1.6493824E-1,-2.0024258E-1,-2.0351122E-1,3.3313945E-1,-2.0227726E-1,-1.1693257E-1],"split_indices":[24,0,0,36,0,24,36,0,24,24,0,36,0,12,24,0,24,24,0,36,36,0,24,0,0,0,0,0,24,36,0,0,36,0,36,0,36,0,24,12,0,24,36,0,0,0,0,0,0,0,0,0,0,0,0,0,0,0,0,0,0,0,0,0,0,0,0],"split_type":[0,0,0,0,0,0,0,0,0,0,0,0,0,0,0,0,0,0,0,0,0,0,0,0,0,0,0,0,0,0,0,0,0,0,0,0,0,0,0,0,0,0,0,0,0,0,0,0,0,0,0,0,0,0,0,0,0,0,0,0,0,0,0,0,0,0,0],"sum_hessian":[8.133425E4,6.7711445E3,7.45631E4,1.5311123E3,5.240032E3,5.4507196E2,7.401803E4,1.1929693E2,1.4118153E3,4.3025986E3,9.374335E2,4.838575E2,6.1214466E1,2.6641218E3,7.1353914E4,1.618369E2,1.2499784E3,3.942235E3,3.6036368E2,3.5908716E2,1.2477034E2,3.004574E1,2.6340762E3,4.9416027E4,2.1937883E4,3.8730118E1,1.2310678E2,3.7656967E2,8.7340875E2,2.13256E3,1.8096749E3,6.206457E1,2.982991E2,1.330268E1,3.457845E2,7.350933E1,5.1261013E1,3.9474155E1,2.594602E3,4.0739612E3,4.5342066E4,1.3850748E2,2.1799377E4,1.281804E2,2.4838928E2,2.2541493E2,6.4799384E2,4.629792E2,1.6695809E3,6.1281854E2,1.1968563E3,3.0293253E1,2.6800586E2,1.7018544E2,1.7559904E2,4.1006516E1,1.0254495E1,8.38102E2,1.7565E3,3.902738E3,1.7122308E2,3.5222297E4,1.01197705E4,1.0157683E2,3.6930653E1,2.151837E4,2.8100717E2],"tree_param":{"num_deleted":"0","num_feature":"48","num_nodes":"67","size_leaf_vector":"1"}},{"base_weights":[5.0853735E-1,4.8216906E-1,6.6137254E-1,5.133112E-1,3.5571697E-1,6.788254E-1,1.7747292E-1,5.2057785E-1,-1.4623442E-1,3.3578953E-1,1.1642423E0,6.6134036E-1,1.0360498E0,-2.1047065E-1,2.5553212E-1,9.306624E-1,5.1537085E-1,1.5274771E-2,-2.1256725E-1,-1.7510438E-1,3.585504E-1,8.2201624E-1,1.2108223E0,3.24682E-1,6.4559764E-1,1.3173288E-1,3.4474924E-1,-1.9069846E-1,4.023975E-1,-2.2604564E-1,1.0264384E0,5.038767E-1,6.931921E-1,-5.809562E-1,2.157989E-1,-5.4726684E-1,4.3583673E-1,3.8071573E-1,-8.8781185E-2,3.6126933E-1,-2.2600281E-1,1.1335961E0,3.8064992E-1,1.8771878E-1,6.615921E-1,3.674813E-1,-2.4257556E-1,-6.0280406E-1,3.4171784E-1,8.251153E-2,7.791477E-1,3.4944057E-1,2.8306568E-1,1.5303853E-1,6.942216E-3,2.769736E-1,1.8001081E-1,3.0567864E-1,-2.1172029E-1,3.8983673E-2,3.2073152E-1,1.3857502E-1,-2.0580927E-1,1.926868E-2,3.971223E-1,1.3022491E-1,4.4732776E-2,-1.1970986E-1,1.699042E-1,3.5120037E-1,2.0873994E-1,1.3271795E-1,-2.756735E-1,2.8844756E-1,1.9042125E-1,-4.986225E-2,-2.4102138E-1,1.00362524E-1,-2.0389445E-1,3.1412286E-1,-2.1362108E-1],"categories":[],"categories_nodes":[],"categories_segments":[],"categories_sizes":[],"default_left":[0,0,0,0,0,0,0,0,0,0,0,0,0,0,0,0,0,0,0,0,0,0,0,0,0,0,0,0,0,0,0,0,0,0,0,0,0,0,0,0,0,0,0,0,0,0,0,0,0,0,0,0,0,0,0,0,0,0,0,0,0,0,0,0,0,0,0,0,0,0,0,0,0,0,0,0,0,0,0,0,0],"id":4,"left_children":[1,3,5,7,9,11,13,15,17,19,21,23,25,-1,27,29,31,33,-1,35,37,39,41,-1,43,45,-1,47,49,-1,51,53,55,57,59,61,63,65,67,-1,-1,69,-1,71,73,-1,-1,75,-1,77,79,-1,-1,-1,-1,-1,-1,-1,-1,-1,-1,-1,-1,-1,-1,-1,-1,-1,-1,-1,-1,-1,-1,-1,-1,-1,-1,-1,-1,-1,-1],"loss_changes":[3.9789258E2,3.316953E2,1.2264795E2,3.2416016E2,2.6798535E2,8.694873E1,3.499548E1,1.4233789E2,6.700688E1,1.8911523E2,5.385254E0,8.795459E1,6.663721E1,0E0,3.066544E1,1.3583923E2,1.3464648E2,6.875891E1,0E0,1.5805177E2,1.5436194E2,3.1655766E1,1.305542E-1,0E0,9.433838E1,7.677113E1,0E0,6.439548E1,4.229636E1,0E0,7.9922485E0,1.8644824E2,8.532739E1,2.9615074E1,3.1385231E1,6.0781967E1,8.6794E1,1.8323877E2,1.497472E2,0E0,0E0,1.7757416E0,0E0,1.2349714E2,9.976123E1,0E0,0E0,7.6967506E0,0E0,3.6956264E1,6.518396E1,0E0,0E0,0E0,0E0,0E0,0E0,0E0,0E0,0E0,0E0,0E0,0E0,0E0,0E0,0E0,0E0,0E0,0E0,0E0,0E0,0E0,0E0,0E0,0E0,0E0,0E0,0E0,0E0,0E0,0E0],"parents":[2147483647,0,0,1,1,2,2,3,3,4,4,5,5,6,6,7,7,8,8,9,9,10,10,11,11,12,12,14,14,15,15,16,16,17,17,19,19,20,20,21,21,22,22,24,24,25,25,27,27,28,28,30,30,31,31,32,32,33,33,34,34,35,35,36,36,37,37,38,38,41,41,43,43,44,44,47,47,49,49,50,50],"right_children":[2,4,6,8,10,12,14,16,18,20,22,24,26,-1,28,30,32,34,-1,36,38,40,42,-1,44,46,-1,48,50,-1,52,54,56,58,60,62,64,66,68,-1,-1,70,-1,72,74,-1,-1,76,-1,78,80,-1,-1,-1,-1,-1,-1,-1,-1,-1,-1,-1,-1,-1,-1,-1,-1,-1,-1,-1,-1,-1,-1,-1,-1,-1,-1,-1,-1,-1,-1],"split_conditions":[1.5900709E-1,3.3398184E-1,1.2447653E0,1.9330888E0,2.2895327E0,7.1668345E-1,1.2698108E0,-1.6590976E0,4.4637837E-2,-1.1007433E0,-7.0819035E-2,-1.7005609E0,2.8716427E-1,-2.1047065E-1,6.5312326E-1,-1.9528017E0,8.236716E-2,-4.0736035E-2,-2.1256725E-1,7.5074285E-1,1.8459878E0,-1.0820942E-1,3.1488969E-3,3.24682E-1,-1.2550514E0,7.5074285E-1,3.4474924E-1,1.1801332E0,1.9621153E-1,-2.2604564E-1,-1.4125054E0,2.8928014E-2,-6.4477015E-1,-5.6682193E-1,1.28318835E-2,-3.8457313E-1,-1.1785722E0,7.735432E-1,9.612443E-2,3.6126933E-1,-2.2600281E-1,9.847025E-1,3.8064992E-1,-1.3453739E0,3.3080748E-1,3.674813E-1,-2.4257556E-1,3.0362207E-1,3.4171784E-1,9.463659E-3,9.1271067E-1,3.4944057E-1,2.8306568E-1,1.5303853E-1,6.942216E-3,2.769736E-1,1.8001081E-1,3.0567864E-1,-2.1172029E-1,3.8983673E-2,3.2073152E-1,1.3857502E-1,-2.0580927E-1,1.926868E-2,3.971223E-1,1.3022491E-1,4.4732776E-2,-1.1970986E-1,1.699042E-1,3.5120037E-1,2.0873994E-1,1.3271795E-1,-2.756735E-1,2.8844756E-1,1.9042125E-1,-4.986225E-2,-2.4102138E-1,1.00362524E-1,-2.0389445E-1,3.1412286E-1,-2.1362108E-1],"split_indices":[12,0,0,36,0,0,0,24,0,12,24,36,12,0,12,0,0,0,0,0,0,24,24,0,36,0,0,24,36,0,36,0,12,0,0,24,12,36,36,0,0,36,0,36,12,0,0,36,0,36,24,0,0,0,0,0,0,0,0,0,0,0,0,0,0,0,0,0,0,0,0,0,0,0,0,0,0,0,0,0,0],"split_type":[0,0,0,0,0,0,0,0,0,0,0,0,0,0,0,0,0,0,0,0,0,0,0,0,0,0,0,0,0,0,0,0,0,0,0,0,0,0,0,0,0,0,0,0,0,0,0,0,0,0,0,0,0,0,0,0,0,0,0,0,0,0,0,0,0,0,0,0,0,0,0,0,0,0,0,0,0,0,0,0,0],"sum_hessian":[9.8811086E4,8.427542E4,1.4535665E4,6.7619336E4,1.6656092E4,1.4029269E4,5.0639697E2,6.688266E4,7.366768E2,1.625683E4,3.992612E2,1.3377342E4,6.5192694E2,4.0649254E1,4.6574774E2,8.3635406E2,6.6046305E4,5.730574E2,1.6361945E2,6.930832E2,1.5563746E4,5.0066715E1,3.491945E2,4.7982794E2,1.2897514E4,7.271947E1,5.7920746E2,1.15256874E2,3.5049084E2,4.4633858E1,7.917202E2,6.2039938E4,4.0063645E3,1.437473E2,4.2931006E2,4.3077524E2,2.6230795E2,1.4829112E4,7.3463464E2,4.0480812E1,9.585902E0,1.5860014E2,1.9059433E2,4.3575424E2,1.246176E4,3.348613E1,3.9233337E1,8.8405716E1,2.6851156E1,1.9020941E2,1.6028145E2,2.9170993E2,5.0001025E2,6.124343E4,7.965084E2,1.1521552E3,2.8542095E3,9.8815565E0,1.3386574E2,3.911116E2,3.8198456E1,5.1790657E1,3.789846E2,1.8567227E2,7.6635666E1,1.2051339E4,2.777773E3,4.9880472E2,2.3582993E2,1.4467528E2,1.3924866E1,3.547208E2,8.103343E1,1.02132184E3,1.14404375E4,2.8407288E1,5.999843E1,1.4336325E2,4.684616E1,1.361221E2,2.4159344E1],"tree_param":{"num_deleted":"0","num_feature":"48","num_nodes":"81","size_leaf_vector":"1"}},{"base_weights":[-7.2568394E-2,-4.6542326E-1,-2.6533397E-2,-6.2461126E-1,-3.2404155E-1,-6.290374E-1,-2.492571E-3,-3.0469477E-1,-6.544055E-1,7.889093E-2,-3.792704E-1,-6.902853E-2,-6.523788E-1,-6.350807E-2,1.8137316E-1,-4.7749117E-1,3.460752E-1,-2.0340993E-1,-6.2314034E-1,-2.1096615E-1,3.3809406E-1,-3.9192757E-1,3.5018247E-1,4.6545476E-1,-2.0596248E-1,-6.6008455E-1,-4.7555587E-1,-3.0043572E-1,-2.5067292E-2,2.1164498E-1,-2.3271152E-1,-2.0367754E-1,3.3959997E-1,-2.0226398E-1,-5.74547E-1,4.6367053E-2,-2.0604585E-1,-4.0971524E-1,4.3990466E-1,-1.94828E-1,8.9605755E-1,-3.9417633E-1,-6.646944E-1,4.2898467E-1,-2.0144244E-1,-3.4229583E-1,5.56033E-1,-4.4797463E-3,-3.648534E-1,7.1352285E-1,1.9030532E-1,3.6933783E-1,-3.439667E-1,-1.2558345E-1,-1.8405037E-1,1.6341384E-1,-2.0654944E-1,-1.0560352E-1,-1.7649318E-1,-1.9750811E-1,3.2344872E-1,3.6476415E-1,-2.1753767E-1,-2.0751718E-1,4.5117378E-1,-2.0417972E-1,-1.9089498E-1,3.9158794E-1,-2.1241748E-1,-2.3603247E-2,-1.1606546E-1,2.4250071E-1,-2.2164099E-1,-1.0408395E-2,5.8483474E-2,-1.22556105E-1,1.5362552E-1,-5.42362E-2,2.8384548E-1,3.602312E-1,5.4109838E-2,-2.0004494E-1,2.4148403E-1,-1.1825563E-1,2.9780033E-1],"categories":[],"categories_nodes":[],"categories_segments":[],"categories_sizes":[],"default_left":[0,0,0,0,0,0,0,0,0,0,0,0,0,0,0,0,0,0,0,0,0,0,0,0,0,0,0,0,0,0,0,0,0,0,0,0,0,0,0,0,0,0,0,0,0,0,0,0,0,0,0,0,0,0,0,0,0,0,0,0,0,0,0,0,0,0,0,0,0,0,0,0,0,0,0,0,0,0,0,0,0,0,0,0,0],"id":5,"left_children":[1,3,5,7,9,11,13,15,17,19,21,23,25,27,29,31,-1,-1,33,35,-1,37,-1,39,-1,41,43,45,47,49,51,-1,-1,-1,53,55,-1,57,59,-1,61,63,65,67,-1,69,71,73,75,77,79,81,83,-1,-1,-1,-1,-1,-1,-1,-1,-1,-1,-1,-1,-1,-1,-1,-1,-1,-1,-1,-1,-1,-1,-1,-1,-1,-1,-1,-1,-1,-1,-1,-1],"loss_changes":[1.6065503E3,2.0950342E2,1.1517772E3,4.156604E1,1.0989343E2,3.983716E1,8.5786707E2,9.509144E1,2.5379639E0,1.8128363E2,8.545093E1,4.0982117E1,3.6767578E0,5.2290857E2,2.3888074E2,1.0974825E2,0E0,0E0,3.9243774E0,5.730062E1,0E0,6.3914978E1,0E0,3.25721E1,0E0,3.175293E0,2.259696E1,2.8753888E2,3.4557593E2,1.9002448E2,8.7099625E1,0E0,0E0,0E0,5.192169E0,1.11877426E2,0E0,4.3259827E1,6.426268E1,0E0,2.6023487E1,2.9414522E1,8.1018066E-1,2.3863306E1,0E0,8.979755E1,1.22732666E2,2.806777E2,1.0827966E2,1.507529E2,1.7084717E2,9.216498E1,7.399013E1,0E0,0E0,0E0,0E0,0E0,0E0,0E0,0E0,0E0,0E0,0E0,0E0,0E0,0E0,0E0,0E0,0E0,0E0,0E0,0E0,0E0,0E0,0E0,0E0,0E0,0E0,0E0,0E0,0E0,0E0,0E0,0E0],"parents":[2147483647,0,0,1,1,2,2,3,3,4,4,5,5,6,6,7,7,8,8,9,9,10,10,11,11,12,12,13,13,14,14,15,15,18,18,19,19,21,21,23,23,25,25,26,26,27,27,28,28,29,29,30,30,34,34,35,35,37,37,38,38,40,40,41,41,42,42,43,43,45,45,46,46,47,47,48,48,49,49,50,50,51,51,52,52],"right_children":[2,4,6,8,10,12,14,16,18,20,22,24,26,28,30,32,-1,-1,34,36,-1,38,-1,40,-1,42,44,46,48,50,52,-1,-1,-1,54,56,-1,58,60,-1,62,64,66,68,-1,70,72,74,76,78,80,82,84,-1,-1,-1,-1,-1,-1,-1,-1,-1,-1,-1,-1,-1,-1,-1,-1,-1,-1,-1,-1,-1,-1,-1,-1,-1,-1,-1,-1,-1,-1,-1,-1],"split_conditions":[-5.560812E-1,-1.0348407E0,-9.3632466E-1,-7.9237896E-1,-6.9655174E-1,-1.0074112E0,2.3186801E-1,-1.1665199E0,-1.3453435E0,-8.526164E-1,2.2660437E0,2.9007944E-1,1.034746E0,-6.37708E-2,8.5322917E-1,-8.38258E-1,3.460752E-1,-2.0340993E-1,-4.0736035E-2,-7.820492E-1,3.3809406E-1,1.5986869E0,3.5018247E-1,-1.1598033E0,-2.0596248E-1,-4.8070568E-1,1.3069341E0,8.606892E-1,7.675078E-1,-1.1007433E0,-3.4084117E-1,-2.0367754E-1,3.3959997E-1,-2.0226398E-1,-1.2811295E0,-1.0074112E0,-2.0604585E-1,7.432715E-1,-9.998888E-1,-1.94828E-1,-9.9420637E-1,-1.350961E0,-1.350961E0,-9.9420637E-1,-2.0144244E-1,-2.7787212E-1,-1.1259378E-1,7.198379E-1,1.3973376E-1,-1.2720383E0,-4.8211327E-1,-5.873972E-1,3.7347984E0,-1.2558345E-1,-1.8405037E-1,1.6341384E-1,-2.0654944E-1,-1.0560352E-1,-1.7649318E-1,-1.9750811E-1,3.2344872E-1,3.6476415E-1,-2.1753767E-1,-2.0751718E-1,4.5117378E-1,-2.0417972E-1,-1.9089498E-1,3.9158794E-1,-2.1241748E-1,-2.3603247E-2,-1.1606546E-1,2.4250071E-1,-2.2164099E-1,-1.0408395E-2,5.8483474E-2,-1.22556105E-1,1.5362552E-1,-5.42362E-2,2.8384548E-1,3.602312E-1,5.4109838E-2,-2.0004494E-1,2.4148403E-1,-1.1825563E-1,2.9780033E-1],"split_indices":[24,24,0,12,12,12,0,24,24,12,12,24,36,36,12,12,0,0,0,24,0,0,0,0,0,12,36,24,12,12,36,0,0,0,24,12,0,12,24,0,0,0,0,0,0,12,36,36,0,12,24,36,12,0,0,0,0,0,0,0,0,0,0,0,0,0,0,0,0,0,0,0,0,0,0,0,0,0,0,0,0,0,0,0,0],"split_type":[0,0,0,0,0,0,0,0,0,0,0,0,0,0,0,0,0,0,0,0,0,0,0,0,0,0,0,0,0,0,0,0,0,0,0,0,0,0,0,0,0,0,0,0,0,0,0,0,0,0,0,0,0,0,0,0,0,0,0,0,0,0,0,0,0,0,0,0,0,0,0,0,0,0,0,0,0,0,0,0,0,0,0,0,0],"sum_hessian":[8.8832625E4,9.316667E3,7.951595E4,4.380758E3,4.935909E3,3.0500999E3,7.646586E4,3.7418298E2,4.0065747E3,5.949454E2,4.340964E3,1.2220106E2,2.927899E3,5.7413836E4,1.905202E4,3.3514328E2,3.90397E1,2.2702336E3,1.736341E3,4.6668015E2,1.2826524E2,4.306466E3,3.449823E1,6.563633E1,5.656473E1,2.803014E3,1.24885025E2,8.013883E3,4.9399953E4,1.7754555E4,1.2974645E3,2.983783E2,3.6765007E1,8.4029504E2,8.960459E2,3.0347092E2,1.6320923E2,4.2168022E3,8.9663376E1,1.8146004E1,4.7490322E1,4.9240177E1,2.7537737E3,2.2021957E1,1.02863075E2,7.6410264E3,3.7285654E2,4.6578773E4,2.821182E3,7.228042E2,1.703175E4,2.0200565E2,1.0954589E3,1.8144774E2,7.1459814E2,1.8099123E2,1.2247968E2,3.189317E3,1.0274852E3,3.2944134E1,5.6719246E1,3.987407E1,7.6162534E0,4.31167E1,6.1234765E0,1.7499937E3,1.00377997E3,1.2353363E1,9.668594E0,1.1058429E3,6.535183E3,3.1236667E2,6.0489845E1,4.045087E4,6.1279004E3,2.6878738E3,1.333079E2,1.4925107E2,5.735531E2,1.647301E2,1.6867021E4,5.9632046E1,1.423736E2,1.0564712E3,3.8987637E1],"tree_param":{"num_deleted":"0","num_feature":"48","num_nodes":"85","size_leaf_vector":"1"}},{"base_weights":[-4.812944E-1,-1.1633144E-1,-5.1696223E-1,2.226682E-1,-2.6765767E-1,3.436373E-1,-5.241017E-1,1.7972896E-1,1.4365561E0,-1.846436E-1,-1.9093569E-1,4.5404705E-1,-1.9037098E-1,-4.8371843E-1,-6.220102E-1,2.891041E-1,-2.4349813E-1,4.9030042E-1,3.6115217E-1,-2.019593E-1,-1.2117697E-1,6.205693E-1,-6.797061E-2,-1.9014005E-1,-4.9978825E-1,-1.6614553E-1,-6.2507665E-1,-1.9007729E-1,3.559725E-1,-2.0424731E-1,3.672336E-1,4.6982935E-1,-1.6285723E-1,-1.9874103E-1,6.6663116E-1,-2.0167963E-1,6.9762796E-1,-3.993391E-1,-2.9378446E-2,-3.0154818E-1,-5.185465E-1,-1.9113754E-1,2.8342256E-1,-6.2917984E-1,-3.2931736E-1,-6.6440836E-2,1.2621841E-1,-1.8625718E-1,2.1328261E-1,2.4079323E-1,-1.9315058E-1,-1.6705982E-1,-3.0965228E-2,2.6950336E-1,1.3164161E-1,2.987203E-1,-1.8839757E-1,1.7739262E-2,-1.438717E-1,1.5013158E-2,-1.9483773E-1,-1.0477046E-1,1.9080086E-1,-1.4703391E-1,-1.8618955E-1,-1.9003938E-1,-1.8570015E-1,-1.9662149E-1,4.8015244E-2],"categories":[],"categories_nodes":[],"categories_segments":[],"categories_sizes":[],"default_left":[0,0,0,0,0,0,0,0,0,0,0,0,0,0,0,0,0,0,0,0,0,0,0,0,0,0,0,0,0,0,0,0,0,0,0,0,0,0,0,0,0,0,0,0,0,0,0,0,0,0,0,0,0,0,0,0,0,0,0,0,0,0,0,0,0,0,0,0,0],"id":6,"left_children":[1,3,5,7,9,11,13,15,17,19,-1,21,-1,23,25,27,29,-1,-1,-1,31,33,35,37,39,41,43,-1,45,-1,47,49,51,-1,53,-1,55,57,59,61,63,-1,-1,65,67,-1,-1,-1,-1,-1,-1,-1,-1,-1,-1,-1,-1,-1,-1,-1,-1,-1,-1,-1,-1,-1,-1,-1,-1],"loss_changes":[9.340371E2,3.2785358E2,4.0181836E2,1.0256005E2,1.3514667E2,5.844099E1,2.560332E2,8.831592E1,1.1277771E0,1.11785995E2,0E0,4.2150597E1,0E0,2.1646875E2,2.6356445E1,9.371898E1,1.0495661E2,0E0,0E0,0E0,7.876152E1,2.2151932E1,5.5086628E1,8.016154E1,1.616836E2,6.748605E1,2.2608887E1,0E0,5.2949707E1,0E0,5.6217285E1,7.860744E1,7.007563E1,0E0,1.8352737E1,0E0,2.1398754E1,3.8130203E1,6.647256E1,1.6853003E2,1.1509766E2,0E0,0E0,4.165039E-1,4.1493973E1,0E0,0E0,0E0,0E0,0E0,0E0,0E0,0E0,0E0,0E0,0E0,0E0,0E0,0E0,0E0,0E0,0E0,0E0,0E0,0E0,0E0,0E0,0E0,0E0],"parents":[2147483647,0,0,1,1,2,2,3,3,4,4,5,5,6,6,7,7,8,8,9,9,11,11,13,13,14,14,15,15,16,16,20,20,21,21,22,22,23,23,24,24,25,25,26,26,28,28,30,30,31,31,32,32,34,34,36,36,37,37,38,38,39,39,40,40,43,43,44,44],"right_children":[2,4,6,8,10,12,14,16,18,20,-1,22,-1,24,26,28,30,-1,-1,-1,32,34,36,38,40,42,44,-1,46,-1,48,50,52,-1,54,-1,56,58,60,62,64,-1,-1,66,68,-1,-1,-1,-1,-1,-1,-1,-1,-1,-1,-1,-1,-1,-1,-1,-1,-1,-1,-1,-1,-1,-1,-1,-1],"split_conditions":[-8.413861E-1,-5.6682193E-1,-1.9528017E0,-5.914812E-1,6.0154505E-2,1.5341413E-2,1.5341413E-2,-7.622289E-1,-1.3973649E0,-4.458434E-1,-1.9093569E-1,9.463659E-3,-1.9037098E-1,-1.0023924E0,-1.8092757E0,-2.113115E0,-6.371942E-1,4.9030042E-1,3.6115217E-1,-2.019593E-1,-3.540311E-1,-1.7005609E0,4.1347376E-1,-1.4125054E0,-5.6682193E-1,6.0383356E-1,2.322452E0,-1.9007729E-1,-1.7948409E0,-2.0424731E-1,-6.873849E-1,3.3080748E-1,-3.3806038E-1,-1.9874103E-1,-1.5531388E-1,-2.0167963E-1,6.429417E-1,-8.9473224E-1,4.0293768E-1,1.7184914E0,1.28318835E-2,-1.9113754E-1,2.8342256E-1,9.956198E-1,6.2334156E-1,-6.6440836E-2,1.2621841E-1,-1.8625718E-1,2.1328261E-1,2.4079323E-1,-1.9315058E-1,-1.6705982E-1,-3.0965228E-2,2.6950336E-1,1.3164161E-1,2.987203E-1,-1.8839757E-1,1.7739262E-2,-1.438717E-1,1.5013158E-2,-1.9483773E-1,-1.0477046E-1,1.9080086E-1,-1.4703391E-1,-1.8618955E-1,-1.9003938E-1,-1.8570015E-1,-1.9662149E-1,4.8015244E-2],"split_indices":[24,0,0,0,0,24,24,0,24,0,0,36,0,36,0,36,0,0,0,0,0,36,36,36,0,24,36,0,24,0,12,12,12,0,36,0,36,0,0,12,0,0,0,24,24,0,0,0,0,0,0,0,0,0,0,0,0,0,0,0,0,0,0,0,0,0,0,0,0],"split_type":[0,0,0,0,0,0,0,0,0,0,0,0,0,0,0,0,0,0,0,0,0,0,0,0,0,0,0,0,0,0,0,0,0,0,0,0,0,0,0,0,0,0,0,0,0,0,0,0,0,0,0,0,0,0,0,0,0,0,0,0,0,0,0,0,0,0,0,0,0],"sum_hessian":[7.1756484E4,6.3888047E3,6.536768E4,1.9715914E3,4.4172134E3,5.374344E2,6.4830246E4,1.9053412E3,6.6250175E1,3.6068318E3,8.103815E2,4.8340814E2,5.4026207E1,4.5903047E4,1.8927197E4,1.5143124E3,3.9102887E2,3.255753E1,3.3692646E1,4.1357825E2,3.1932537E3,3.6635355E2,1.170546E2,2.3828975E3,4.3520152E4,1.2683538E2,1.8800361E4,1.0175485E2,1.4125575E3,2.2779625E2,1.6323264E2,2.096891E2,2.9835645E3,1.2232723E1,3.5412082E2,6.548697E1,5.156763E1,1.0348124E3,1.3480852E3,3.763548E3,3.97566E4,8.9371346E1,3.746403E1,1.8541994E4,2.5836765E2,1.4219017E2,1.2703673E3,4.1918697E1,1.2131394E2,1.6165758E2,4.803152E1,3.911441E2,2.5924204E3,1.7410347E2,1.8001735E2,4.230329E1,9.26434E0,1.541617E2,8.8065063E2,1.195837E3,1.5224811E2,3.581985E3,1.8156297E2,3.1100172E4,8.656433E3,1.3006103E4,5.5358916E3,1.54847E2,1.0352065E2],"tree_param":{"num_deleted":"0","num_feature":"48","num_nodes":"69","size_leaf_vector":"1"}},{"base_weights":[3.8048857E-1,3.6500287E-1,5.434437E-1,3.8318706E-1,2.3630759E-1,-2.0274334E-1,5.5616665E-1,6.339119E-1,3.7473285E-1,1.1431127E-1,4.238662E-1,5.0666165E-1,7.9718864E-1,4.260882E-1,7.863791E-1,-2.4480751E-1,3.8086945E-1,-3.402957E-1,1.623066E-1,5.8466566E-1,2.5617158E-1,5.4173404E-1,-2.9156622E-1,8.5446656E-1,1.3553986E-1,9.487234E-1,9.945538E-2,3.9590973E-2,8.313582E-1,3.9709628E-1,-5.586495E-1,3.9517617E-1,2.4386111E-1,3.4544793E-1,-4.8266503E-1,8.401749E-1,1.1928666E-1,6.1186796E-1,-2.4589847E-1,4.4047448E-1,8.294643E-3,5.504447E-1,-7.794918E-1,9.284051E-1,4.6370974E-1,-1.3833216E-1,2.4253415E-1,2.7122033E-1,3.071236E-1,2.6274404E-1,-4.7971167E-2,3.0698287E-1,-2.2524871E-1,2.6192334E-1,1.0800502E-1,-2.5192678E-1,1.907172E-1,-1.795913E-1,2.945268E-1,1.4722261E-1,1.118944E-1,-3.3751573E-2,1.02058135E-1,-2.560204E-1,3.0344987E-1,2.0116593E-1,-1.8778837E-1,-2.124949E-1,2.9632118E-1,6.841778E-2,-5.3176235E-2,1.441042E-1,2.890029E-1,9.17511E-2,2.950684E-1,-2.2764827E-1,2.9221738E-2,2.2752617E-1,1.5560368E-1,-2.873513E-1,-1.8276271E-1,2.832789E-1,2.2988816E-1,-3.0820188E-1,2.4686106E-1,-2.1297862E-1,2.421672E-1],"categories":[],"categories_nodes":[],"categories_segments":[],"categories_sizes":[],"default_left":[0,0,0,0,0,0,0,0,0,0,0,0,0,0,0,0,0,0,0,0,0,0,0,0,0,0,0,0,0,0,0,0,0,0,0,0,0,0,0,0,0,0,0,0,0,0,0,0,0,0,0,0,0,0,0,0,0,0,0,0,0,0,0,0,0,0,0,0,0,0,0,0,0,0,0,0,0,0,0,0,0,0,0,0,0,0,0],"id":7,"left_children":[1,3,5,7,9,-1,11,13,15,17,19,21,23,25,27,29,31,33,35,37,39,41,-1,43,45,47,49,51,53,55,57,59,61,63,65,67,69,71,-1,73,75,77,79,81,83,85,-1,-1,-1,-1,-1,-1,-1,-1,-1,-1,-1,-1,-1,-1,-1,-1,-1,-1,-1,-1,-1,-1,-1,-1,-1,-1,-1,-1,-1,-1,-1,-1,-1,-1,-1,-1,-1,-1,-1,-1,-1],"loss_changes":[2.5522754E2,2.162373E2,1.3660962E2,1.7144043E2,2.6187225E2,0E0,1.0330737E2,8.333191E1,2.979834E2,1.514135E2,1.2148651E2,3.7459985E2,5.5948486E1,1.9102782E2,5.1087524E1,1.551611E2,1.5198242E2,6.487138E1,1.8289713E2,8.843988E1,1.0095293E2,8.153345E1,0E0,3.8900085E1,2.2051731E1,5.166321E-1,1.3909499E2,6.880706E1,2.791156E1,7.524611E1,3.243141E1,1.4881738E2,2.5195816E2,9.231083E1,9.118202E1,8.623065E1,1.9040964E2,1.0395416E2,0E0,9.237508E1,6.456505E1,4.5862793E1,8.307934E-1,2.2166748E0,1.1790979E2,4.676604E1,0E0,0E0,0E0,0E0,0E0,0E0,0E0,0E0,0E0,0E0,0E0,0E0,0E0,0E0,0E0,0E0,0E0,0E0,0E0,0E0,0E0,0E0,0E0,0E0,0E0,0E0,0E0,0E0,0E0,0E0,0E0,0E0,0E0,0E0,0E0,0E0,0E0,0E0,0E0,0E0,0E0],"parents":[2147483647,0,0,1,1,2,2,3,3,4,4,6,6,7,7,8,8,9,9,10,10,11,11,12,12,13,13,14,14,15,15,16,16,17,17,18,18,19,19,20,20,21,21,23,23,24,24,25,25,26,26,27,27,28,28,29,29,30,30,31,31,32,32,33,33,34,34,35,35,36,36,37,37,39,39,40,40,41,41,42,42,43,43,44,44,45,45],"right_children":[2,4,6,8,10,-1,12,14,16,18,20,22,24,26,28,30,32,34,36,38,40,42,-1,44,46,48,50,52,54,56,58,60,62,64,66,68,70,72,-1,74,76,78,80,82,84,86,-1,-1,-1,-1,-1,-1,-1,-1,-1,-1,-1,-1,-1,-1,-1,-1,-1,-1,-1,-1,-1,-1,-1,-1,-1,-1,-1,-1,-1,-1,-1,-1,-1,-1,-1,-1,-1,-1,-1,-1,-1],"split_conditions":[7.675078E-1,7.198379E-1,-1.9528017E0,-1.3453739E0,1.2861844E0,-2.0274334E-1,4.1347376E-1,-1.7982069E0,-1.2550514E0,7.6621974E-1,1.5107701E0,2.5113738E-1,1.2447653E0,-2.113115E0,-1.8092757E0,-4.7752059E-1,8.606892E-1,-1.3259445E-1,7.735432E-1,1.8459878E0,6.0383356E-1,3.7347984E0,-2.9156622E-1,1.2178322E0,1.3982326E0,-8.6658394E-1,-1.6590976E0,-1.7005609E0,1.5646316E-2,-1.9528017E0,3.1488969E-3,-1.0512055E-1,9.468497E-1,-9.080385E-1,-6.0437698E-2,-1.2072577E0,5.518591E-1,8.9401543E-1,-2.4589847E-1,3.5591903E-1,-9.6320903E-1,-8.036926E-1,1.28318835E-2,1.0517054E0,1.2520083E0,1.3820974E0,2.4253415E-1,2.7122033E-1,3.071236E-1,2.6274404E-1,-4.7971167E-2,3.0698287E-1,-2.2524871E-1,2.6192334E-1,1.0800502E-1,-2.5192678E-1,1.907172E-1,-1.795913E-1,2.945268E-1,1.4722261E-1,1.118944E-1,-3.3751573E-2,1.02058135E-1,-2.560204E-1,3.0344987E-1,2.0116593E-1,-1.8778837E-1,-2.124949E-1,2.9632118E-1,6.841778E-2,-5.3176235E-2,1.441042E-1,2.890029E-1,9.17511E-2,2.950684E-1,-2.2764827E-1,2.9221738E-2,2.2752617E-1,1.5560368E-1,-2.873513E-1,-1.8276271E-1,2.832789E-1,2.2988816E-1,-3.0820188E-1,2.4686106E-1,-2.1297862E-1,2.421672E-1],"split_indices":[12,36,0,36,36,0,36,36,36,36,36,36,0,36,0,0,24,24,36,0,24,12,0,36,12,24,24,36,12,0,24,0,24,24,0,12,0,24,0,24,12,0,0,24,36,0,0,0,0,0,0,0,0,0,0,0,0,0,0,0,0,0,0,0,0,0,0,0,0,0,0,0,0,0,0,0,0,0,0,0,0,0,0,0,0,0,0],"split_type":[0,0,0,0,0,0,0,0,0,0,0,0,0,0,0,0,0,0,0,0,0,0,0,0,0,0,0,0,0,0,0,0,0,0,0,0,0,0,0,0,0,0,0,0,0,0,0,0,0,0,0,0,0,0,0,0,0,0,0,0,0,0,0,0,0,0,0,0,0,0,0,0,0,0,0,0,0,0,0,0,0,0,0,0,0,0,0],"sum_hessian":[1.01218984E5,9.243781E4,8.781171E3,8.099196E4,1.1445852E4,9.014723E1,8.691023E3,2.639475E3,7.8352484E4,6.9359897E3,4.5098613E3,7.212672E3,1.478352E3,1.1185736E3,1.5209016E3,7.6809595E2,7.758439E4,6.617615E2,6.2742285E3,2.3009932E3,2.208868E3,7.046165E3,1.6650699E2,1.3603015E3,1.1805062E2,4.2947668E2,6.890969E2,8.6506905E1,1.4343947E3,2.5213556E2,5.159604E2,7.024714E4,7.337248E3,1.1352492E2,5.482366E2,3.7331702E2,5.900911E3,2.2578228E3,4.3170586E1,1.2664515E3,9.4241644E2,7.000594E3,4.557068E1,1.1427043E3,2.1759717E2,8.4467094E1,3.3583527E1,2.77406E2,1.5207068E2,1.7196509E2,5.1713184E2,3.841031E1,4.8096596E1,1.3169736E3,1.17421036E2,4.037019E1,2.1176537E2,5.035011E2,1.245925E1,1.32358E4,5.7011344E4,1.5613032E3,5.775945E3,4.0445103E1,7.307982E1,6.018671E1,4.8804987E2,3.2149204E1,3.4116782E2,4.317472E3,1.5834391E3,1.6447351E3,6.1308746E2,1.01610944E3,2.503421E2,9.7298355E1,8.451181E2,9.245484E2,6.076046E3,1.999935E1,2.557133E1,1.0364889E3,1.0621546E2,4.187855E1,1.7571861E2,5.2798912E1,3.1668184E1],"tree_param":{"num_deleted":"0","num_feature":"48","num_nodes":"87","size_leaf_vector":"1"}},{"base_weights":[-4.6137657E-2,-4.083142E-1,-7.5587467E-3,-5.994745E-1,-2.8793964E-1,-5.829342E-1,1.2814568E-2,-4.1936898E-1,-6.1732614E-1,1.0971513E-1,-3.4437534E-1,-5.173804E-2,-6.069272E-1,-3.611048E-2,1.5396743E-1,-1.8943839E-1,2.9850727E-1,-1.8914244E-1,-5.914258E-1,3.2516298E-1,-1.9179106E-1,-3.5534546E-1,2.987904E-1,4.157166E-1,-1.9341235E-1,-1.9133604E-1,-5.5878E-1,-3.632261E-1,-1.3937105E-2,1.6732301E-1,-4.2635435E-1,-4.6979272E-1,-1.913964E-1,8.0038106E-1,7.603648E-2,-3.698778E-1,3.6776206E-1,-1.8236968E-1,7.6032525E-1,3.4997702E-1,-5.7212794E-1,1.5178491E-1,-4.3101454E-1,3.6041532E-3,-2.973385E-1,1.8970543E-1,-1.713459E-1,-6.15503E-1,4.5704293E-1,-1.9256596E-1,-8.280246E-2,2.9790437E-1,1.18567355E-1,2.3979126E-1,-6.25036E-2,-9.815739E-2,-1.6359378E-1,-1.8857563E-1,2.6992005E-1,3.034611E-1,-1.9618149E-1,-1.7695032E-1,-1.2836744E-1,-1.8062723E-1,3.4236294E-1,-1.369918E-1,3.3459928E-2,1.7402275E-1,-1.4063008E-3,2.4701968E-1,-9.99058E-2,4.300996E-2,1.0370357E-1,-1.5672573E-1,2.520642E-3,-8.483503E-2,-1.9852982E-1,3.373083E-1,-1.8635759E-1],"categories":[],"categories_nodes":[],"categories_segments":[],"categories_sizes":[],"default_left":[0,0,0,0,0,0,0,0,0,0,0,0,0,0,0,0,0,0,0,0,0,0,0,0,0,0,0,0,0,0,0,0,0,0,0,0,0,0,0,0,0,0,0,0,0,0,0,0,0,0,0,0,0,0,0,0,0,0,0,0,0,0,0,0,0,0,0,0,0,0,0,0,0,0,0,0,0,0,0],"id":8,"left_children":[1,3,5,7,9,11,13,15,17,19,21,23,25,27,29,-1,-1,-1,31,33,-1,35,-1,37,-1,-1,39,41,43,45,47,49,-1,51,53,55,57,-1,59,-1,61,63,65,67,69,71,73,75,77,-1,-1,-1,-1,-1,-1,-1,-1,-1,-1,-1,-1,-1,-1,-1,-1,-1,-1,-1,-1,-1,-1,-1,-1,-1,-1,-1,-1,-1,-1],"loss_changes":[1.2042675E3,1.9074915E2,9.1309705E2,1.0045654E1,1.14335785E2,3.39187E1,5.1954083E2,8.826558E1,6.1950684E-1,1.02477066E2,6.593713E1,3.24804E1,3.430359E0,4.052155E2,1.5015384E2,0E0,0E0,0E0,5.3484497E0,5.8285385E1,0E0,4.6634277E1,0E0,2.3599415E1,0E0,0E0,2.3779022E1,1.2388025E2,2.6010458E2,1.4352051E2,7.3118126E1,9.156555E0,0E0,1.2828415E1,6.689794E1,3.2308838E1,4.703627E1,0E0,1.8253366E1,0E0,2.2926025E0,3.089331E2,4.3625366E1,2.3552846E2,1.2222958E2,1.2828577E2,7.408888E1,5.3458557E0,5.6424095E1,0E0,0E0,0E0,0E0,0E0,0E0,0E0,0E0,0E0,0E0,0E0,0E0,0E0,0E0,0E0,0E0,0E0,0E0,0E0,0E0,0E0,0E0,0E0,0E0,0E0,0E0,0E0,0E0,0E0,0E0],"parents":[2147483647,0,0,1,1,2,2,3,3,4,4,5,5,6,6,7,7,8,8,9,9,10,10,11,11,12,12,13,13,14,14,18,18,19,19,21,21,23,23,26,26,27,27,28,28,29,29,30,30,31,31,33,33,34,34,35,35,36,36,38,38,40,40,41,41,42,42,43,43,44,44,45,45,46,46,47,47,48,48],"right_children":[2,4,6,8,10,12,14,16,18,20,22,24,26,28,30,-1,-1,-1,32,34,-1,36,-1,38,-1,-1,40,42,44,46,48,50,-1,52,54,56,58,-1,60,-1,62,64,66,68,70,72,74,76,78,-1,-1,-1,-1,-1,-1,-1,-1,-1,-1,-1,-1,-1,-1,-1,-1,-1,-1,-1,-1,-1,-1,-1,-1,-1,-1,-1,-1,-1,-1],"split_conditions":[-5.560812E-1,-1.1665199E0,-9.3632466E-1,-7.9237896E-1,-6.9655174E-1,-1.0074112E0,2.164801E-1,-8.38258E-1,-1.3453435E0,-7.820492E-1,2.2660437E0,2.9007944E-1,-1.350961E0,-5.873972E-1,2.2895327E0,-1.8943839E-1,2.9850727E-1,-1.8914244E-1,-1.2811295E0,-8.009977E-1,-1.9179106E-1,1.5986869E0,2.987904E-1,-1.1598033E0,-1.9341235E-1,-1.9133604E-1,-4.8070568E-1,-6.67978E-1,7.675078E-1,8.5322917E-1,1.5646316E-2,-8.193063E-1,-1.913964E-1,-7.580368E-1,-4.458434E-1,8.5322917E-1,-9.998888E-1,-1.8236968E-1,-9.9420637E-1,3.4997702E-1,1.0127758E0,-8.38258E-1,2.8928014E-2,-8.036926E-1,-5.202656E-1,7.198379E-1,1.1839516E0,-7.0819035E-2,3.0437331E0,-1.9256596E-1,-8.280246E-2,2.9790437E-1,1.18567355E-1,2.3979126E-1,-6.25036E-2,-9.815739E-2,-1.6359378E-1,-1.8857563E-1,2.6992005E-1,3.034611E-1,-1.9618149E-1,-1.7695032E-1,-1.2836744E-1,-1.8062723E-1,3.4236294E-1,-1.369918E-1,3.3459928E-2,1.7402275E-1,-1.4063008E-3,2.4701968E-1,-9.99058E-2,4.300996E-2,1.0370357E-1,-1.5672573E-1,2.520642E-3,-8.483503E-2,-1.9852982E-1,3.373083E-1,-1.8635759E-1],"split_indices":[24,24,0,12,12,12,0,12,24,24,12,24,0,36,0,0,0,0,24,36,0,0,0,0,0,0,12,12,12,12,12,36,0,12,0,12,24,0,0,0,36,12,0,0,36,36,12,24,0,0,0,0,0,0,0,0,0,0,0,0,0,0,0,0,0,0,0,0,0,0,0,0,0,0,0,0,0,0,0],"split_type":[0,0,0,0,0,0,0,0,0,0,0,0,0,0,0,0,0,0,0,0,0,0,0,0,0,0,0,0,0,0,0,0,0,0,0,0,0,0,0,0,0,0,0,0,0,0,0,0,0,0,0,0,0,0,0,0,0,0,0,0,0,0,0,0,0,0,0,0,0,0,0,0,0,0,0,0,0,0,0],"sum_hessian":[8.618838E4,8.296042E3,7.7892336E4,3.2039856E3,5.092056E3,2.6628047E3,7.522953E4,2.9114185E2,2.9128438E3,6.327384E2,4.459318E3,1.15211975E2,2.5475928E3,5.5866402E4,1.9363133E4,2.5365857E2,3.7483284E1,1.9165466E3,9.962972E2,4.9183328E2,1.4090512E2,4.423845E3,3.5472286E1,6.459157E1,5.062041E1,1.5450565E3,1.00253625E3,3.5455042E3,5.23209E4,1.8928229E4,4.3490475E2,2.7887906E2,7.1741815E2,1.6839699E2,3.2343628E2,4.3371694E3,8.66759E1,1.6075966E1,4.85156E1,7.0330877E0,9.955032E2,4.12252E2,3.1332522E3,4.9272164E4,3.0487358E3,1.7755234E4,1.1729927E3,3.5845697E2,7.6447784E1,1.4648134E2,1.3239772E2,1.13148895E2,5.5248096E1,9.077012E1,2.3266617E2,3.4906863E3,8.464832E2,3.0106602E1,5.6569305E1,4.1439564E1,7.076035E0,8.839056E2,1.1159755E2,2.3419928E2,1.7805275E2,2.9920925E3,1.4115948E2,6.9769104E2,4.8574473E4,9.338636E1,2.9553494E3,1.36899375E4,4.0652976E3,3.9655624E2,7.7643646E2,4.4625656E1,3.1383133E2,4.7195675E1,2.9252111E1],"tree_param":{"num_deleted":"0","num_feature":"48","num_nodes":"79","size_leaf_vector":"1"}},{"base_weights":[-4.3415037E-1,-8.64663E-2,-4.729132E-1,1.788192E-1,-2.1195474E-1,-1.470593E-1,-4.9269673E-1,1.2473673E-1,9.2693394E-1,-1.4655054E-1,-5.1902825E-1,-3.2048542E-2,-5.408069E-1,-4.518715E-1,-5.9300137E-1,2.1831895E-1,-3.78948E-1,-1.5831372E-1,1.1069754E0,-1.8952154E-1,-9.222508E-2,-1.8168068E-1,4.2068952E-1,-5.195341E-1,7.453859E-2,-1.8413077E-1,-1.3481111E-2,-4.2304137E-1,-5.884303E-1,-5.9782606E-1,-2.7968618E-1,2.7578974E-1,-1.8545763E-1,5.888925E-1,-1.942273E-1,4.063608E-1,6.599353E-1,-1.08532354E-1,3.2688755E-1,3.1317854E-1,-1.746748E-1,2.0460266E-1,-1.886741E-1,9.987585E-1,-2.7744936E-2,2.5109023E-1,-1.8141235E-1,-4.332797E-1,1.493627E-1,-5.9404844E-1,-2.5484058E-1,-1.808863E-1,-5.858726E-1,-1.8464649E-1,1.3977794E-1,-1.7743228E-1,9.786573E-2,-1.8175521E-1,3.410653E-1,-1.8806437E-1,3.0665267E-1,1.3404056E-1,-4.0533885E-2,-1.8146574E-1,2.5611869E-1,4.325598E-1,2.163474E-1,5.7760224E-2,-4.9379412E-2,-5.237894E-2,-1.3434933E-1,3.2299832E-1,-4.609279E-2,-1.7884073E-1,-9.6857585E-2,-3.6767922E-2,-1.7709965E-1,-1.3123153E-1,-1.7794833E-1,4.3873402E-1,-2.0439227E-1],"categories":[],"categories_nodes":[],"categories_segments":[],"categories_sizes":[],"default_left":[0,0,0,0,0,0,0,0,0,0,0,0,0,0,0,0,0,0,0,0,0,0,0,0,0,0,0,0,0,0,0,0,0,0,0,0,0,0,0,0,0,0,0,0,0,0,0,0,0,0,0,0,0,0,0,0,0,0,0,0,0,0,0,0,0,0,0,0,0,0,0,0,0,0,0,0,0,0,0,0,0],"id":9,"left_children":[1,3,5,7,9,11,13,15,17,19,21,23,25,27,29,31,33,-1,35,-1,37,-1,39,41,43,-1,45,47,49,51,53,55,-1,57,-1,-1,59,61,-1,-1,-1,63,-1,65,67,-1,-1,69,71,73,75,-1,77,-1,79,-1,-1,-1,-1,-1,-1,-1,-1,-1,-1,-1,-1,-1,-1,-1,-1,-1,-1,-1,-1,-1,-1,-1,-1,-1,-1],"loss_changes":[8.51251E2,2.1100012E2,3.6628027E2,8.224244E1,8.633504E1,1.4734993E2,2.1912207E2,8.9616066E1,3.648416E1,9.3471E1,6.168547E1,1.3095717E2,2.8293427E1,1.4968066E2,2.3256348E1,7.721002E1,7.780965E1,0E0,1.264122E1,0E0,6.1642315E1,0E0,4.079162E1,3.594464E1,1.9556117E2,0E0,4.5975E1,1.8436035E2,1.2285156E1,5.8203125E-1,3.3450348E1,6.5800865E1,0E0,4.339741E1,0E0,0E0,2.1868412E1,4.6554073E1,0E0,0E0,0E0,3.2093296E1,0E0,2.4315659E1,5.6202362E1,0E0,0E0,1.1621631E2,1.5564117E2,3.5009766E0,4.882885E0,0E0,4.7348633E0,0E0,1.1625528E2,0E0,0E0,0E0,0E0,0E0,0E0,0E0,0E0,0E0,0E0,0E0,0E0,0E0,0E0,0E0,0E0,0E0,0E0,0E0,0E0,0E0,0E0,0E0,0E0,0E0,0E0],"parents":[2147483647,0,0,1,1,2,2,3,3,4,4,5,5,6,6,7,7,8,8,9,9,10,10,11,11,12,12,13,13,14,14,15,15,16,16,18,18,20,20,22,22,23,23,24,24,26,26,27,27,28,28,29,29,30,30,31,31,33,33,36,36,37,37,41,41,43,43,44,44,47,47,48,48,49,49,50,50,52,52,54,54],"right_children":[2,4,6,8,10,12,14,16,18,20,22,24,26,28,30,32,34,-1,36,-1,38,-1,40,42,44,-1,46,48,50,52,54,56,-1,58,-1,-1,60,62,-1,-1,-1,64,-1,66,68,-1,-1,70,72,74,76,-1,78,-1,80,-1,-1,-1,-1,-1,-1,-1,-1,-1,-1,-1,-1,-1,-1,-1,-1,-1,-1,-1,-1,-1,-1,-1,-1,-1,-1],"split_conditions":[-8.121241E-1,-5.6682193E-1,-8.9473224E-1,-6.115048E-1,6.0154505E-2,1.5341413E-2,1.5341413E-2,-7.622289E-1,-6.9655174E-1,-4.458434E-1,-8.413861E-1,-3.2442337E-1,1.2427214E0,1.4128569E-1,2.322452E0,-8.413861E-1,-2.0086164E0,-1.5831372E-1,-1.3453435E0,-1.8952154E-1,2.8928014E-2,-1.8168068E-1,3.8214147E-1,-1.9528017E0,-1.7323618E-1,-1.8413077E-1,1.2711706E0,1.7184914E0,2.322452E0,9.956198E-1,6.2334156E-1,-2.113115E0,-1.8545763E-1,-6.873849E-1,-1.942273E-1,4.063608E-1,-5.914812E-1,-3.7077108E-1,3.2688755E-1,3.1317854E-1,-1.746748E-1,-2.3926766E0,-1.886741E-1,-2.9841268E-1,-1.5987126E0,2.5109023E-1,-1.8141235E-1,-1.1232293E0,-4.6863553E-1,3.1488969E-3,1.28318835E-2,-1.808863E-1,1.0517054E0,-1.8464649E-1,1.0517054E0,-1.7743228E-1,9.786573E-2,-1.8175521E-1,3.410653E-1,-1.8806437E-1,3.0665267E-1,1.3404056E-1,-4.0533885E-2,-1.8146574E-1,2.5611869E-1,4.325598E-1,2.163474E-1,5.7760224E-2,-4.9379412E-2,-5.237894E-2,-1.3434933E-1,3.2299832E-1,-4.609279E-2,-1.7884073E-1,-9.6857585E-2,-3.6767922E-2,-1.7709965E-1,-1.3123153E-1,-1.7794833E-1,4.3873402E-1,-2.0439227E-1],"split_indices":[24,0,0,0,0,24,24,0,12,0,24,24,24,36,36,24,24,0,24,0,0,0,0,0,24,0,24,12,36,24,24,36,0,12,0,0,0,0,0,0,0,0,0,24,0,0,0,36,0,24,0,0,24,0,24,0,0,0,0,0,0,0,0,0,0,0,0,0,0,0,0,0,0,0,0,0,0,0,0,0,0],"split_type":[0,0,0,0,0,0,0,0,0,0,0,0,0,0,0,0,0,0,0,0,0,0,0,0,0,0,0,0,0,0,0,0,0,0,0,0,0,0,0,0,0,0,0,0,0,0,0,0,0,0,0,0,0,0,0,0,0,0,0,0,0,0,0,0,0,0,0,0,0,0,0,0,0,0,0,0,0,0,0,0,0],"sum_hessian":[6.3164188E4,6.336054E3,5.6828133E4,2.0345477E3,4.3015063E3,3.2532034E3,5.357493E4,1.8984708E3,1.360769E2,3.547413E3,7.540933E2,2.5186157E3,7.345877E2,3.8080992E4,1.54939375E4,1.6014885E3,2.9698236E2,1.4774576E1,1.2130233E2,3.5613098E2,3.191282E3,6.9080646E2,6.3286835E1,4.51189E2,2.0674265E3,6.451578E2,8.9429924E1,3.1446203E4,6.634789E3,1.525807E4,2.358667E2,1.499162E3,1.0232654E2,6.423296E1,2.3274939E2,7.676285E1,4.4539486E1,3.1487437E3,4.2538467E1,3.9006706E1,2.4280128E1,5.9093777E1,3.920952E2,2.0513054E2,1.862296E3,3.650449E1,5.2925434E1,3.0893861E4,5.523412E2,6.5241323E3,1.10656975E2,1.0642725E4,4.615346E3,1.3073747E2,1.0512923E2,8.1795845E1,1.4173661E3,2.0164438E1,4.4068523E1,9.623293E0,3.491619E1,1.4310553E2,3.005638E3,2.632879E1,3.2764984E1,7.739624E1,1.2773431E2,7.134763E2,1.1488197E3,1.6459779E3,2.9247883E4,1.3540453E2,4.1693668E2,6.4731123E3,5.101995E1,8.034363E1,3.0313343E1,2.188718E2,4.396474E3,3.996667E1,6.516255E1],"tree_param":{"num_deleted":"0","num_feature":"48","num_nodes":"81","size_leaf_vector":"1"}},{"base_weights":[2.9183838E-1,2.7478462E-1,3.955368E-1,2.918642E-1,1.794809E-1,2.3300865E-1,3.8339534E-1,2.944304E-1,-3.1633306E-1,-4.0716365E-2,2.0566332E-1,-2.5804454E-2,3.973651E-1,3.7109625E-1,2.7487567E-1,-6.5815955E-1,8.144266E-1,5.6438625E-1,-1.3877189E-1,1.9263104E-1,2.936269E-1,1.6981728E-1,-2.7812153E-1,6.203478E-1,3.6761963E-1,2.4543844E-1,4.4029534E-1,5.666376E-1,2.6861808E-1,2.6820827E-1,-7.3721236E-1,1.8646084E-1,3.1270453E-1,-2.821727E-1,9.138342E-1,-6.476382E-1,-1.8837066E-2,-1.400225E-1,2.0969786E-1,-2.6503333E-1,3.5139263E-1,-2.1468568E-1,6.4361984E-1,6.6949445E-1,3.419221E-1,1.2270375E-1,2.0415215E-2,1.3467827E-1,-1.6724148E-1,9.5118E-2,2.0396169E-1,-1.1803563E-1,8.195943E-2,-1.3661696E-1,-2.9110888E-1,2.713208E-1,-2.5046095E-1,3.0144843E-1,2.3739243E-1,2.8264856E-1,-2.4093355E-1,2.9647616E-1,-3.3075154E-2,2.8281444E-1,-8.055226E-2,1.0643588E-1,4.622142E-2,-2.7015957E-1,1.5382056E-1,-1.0298951E-2,2.0523195E-1,2.2057371E-1,-2.4732141E-1,-6.475163E-2,1.0745174E-1],"categories":[],"categories_nodes":[],"categories_segments":[],"categories_sizes":[],"default_left":[0,0,0,0,0,0,0,0,0,0,0,0,0,0,0,0,0,0,0,0,0,0,0,0,0,0,0,0,0,0,0,0,0,0,0,0,0,0,0,0,0,0,0,0,0,0,0,0,0,0,0,0,0,0,0,0,0,0,0,0,0,0,0,0,0,0,0,0,0,0,0,0,0,0,0],"id":10,"left_children":[1,3,5,7,9,-1,11,13,15,17,19,21,23,25,27,29,31,33,35,37,-1,39,-1,41,43,45,47,49,51,-1,53,55,-1,-1,57,59,61,63,65,-1,67,-1,69,71,73,-1,-1,-1,-1,-1,-1,-1,-1,-1,-1,-1,-1,-1,-1,-1,-1,-1,-1,-1,-1,-1,-1,-1,-1,-1,-1,-1,-1,-1,-1],"loss_changes":[1.7843652E2,1.4108496E2,6.5678955E1,1.14851074E2,7.599448E1,0E0,7.900195E1,1.0966748E2,1.2013361E2,8.32312E1,1.1849161E2,8.0749985E1,8.840015E1,1.2925659E2,1.0636572E2,2.9880882E1,1.014962E1,1.03742065E2,7.3640755E1,6.58038E1,0E0,7.230248E1,0E0,4.931189E1,9.124707E1,1.5333981E2,8.287207E1,3.437961E1,1.7330957E2,0E0,1.4483757E1,1.5760115E1,0E0,0E0,9.806061E-1,5.764402E1,9.011424E1,7.899027E1,8.888867E1,0E0,6.546147E1,0E0,4.2427063E1,9.1368835E1,9.85918E1,0E0,0E0,0E0,0E0,0E0,0E0,0E0,0E0,0E0,0E0,0E0,0E0,0E0,0E0,0E0,0E0,0E0,0E0,0E0,0E0,0E0,0E0,0E0,0E0,0E0,0E0,0E0,0E0,0E0,0E0],"parents":[2147483647,0,0,1,1,2,2,3,3,4,4,6,6,7,7,8,8,9,9,10,10,11,11,12,12,13,13,14,14,15,15,16,16,17,17,18,18,19,19,21,21,23,23,24,24,25,25,26,26,27,27,28,28,30,30,31,31,34,34,35,35,36,36,37,37,38,38,40,40,42,42,43,43,44,44],"right_children":[2,4,6,8,10,-1,12,14,16,18,20,22,24,26,28,30,32,34,36,38,-1,40,-1,42,44,46,48,50,52,-1,54,56,-1,-1,58,60,62,64,66,-1,68,-1,70,72,74,-1,-1,-1,-1,-1,-1,-1,-1,-1,-1,-1,-1,-1,-1,-1,-1,-1,-1,-1,-1,-1,-1,-1,-1,-1,-1,-1,-1,-1,-1],"split_conditions":[1.5900709E-1,7.0625067E-1,-1.7005609E0,1.064206E-1,7.8834695E-1,2.3300865E-1,-1.2550514E0,-0E0,1.2273625E-1,-5.278563E-2,8.334694E-2,-1.3453739E0,-6.1302924E-1,-7.622289E-1,-1.3453739E0,-4.569154E-1,7.845447E-1,-7.7780676E-1,-7.4672353E-1,-1.1256413E0,2.936269E-1,-1.0235656E0,-2.7812153E-1,-2.3926766E0,3.3080748E-1,-1.1598033E0,1.7707524E0,-1.7982069E0,-1.2550514E0,2.6820827E-1,3.1488969E-3,3.3398184E-1,3.1270453E-1,-2.821727E-1,7.4038976E-1,7.298229E-1,-5.867283E-1,-7.35354E-2,-6.4477015E-1,-2.6503333E-1,3.3080748E-1,-2.1468568E-1,2.0475195E-1,1.034746E0,-5.202656E-1,1.2270375E-1,2.0415215E-2,1.3467827E-1,-1.6724148E-1,9.5118E-2,2.0396169E-1,-1.1803563E-1,8.195943E-2,-1.3661696E-1,-2.9110888E-1,2.713208E-1,-2.5046095E-1,3.0144843E-1,2.3739243E-1,2.8264856E-1,-2.4093355E-1,2.9647616E-1,-3.3075154E-2,2.8281444E-1,-8.055226E-2,1.0643588E-1,4.622142E-2,-2.7015957E-1,1.5382056E-1,-1.0298951E-2,2.0523195E-1,2.2057371E-1,-2.4732141E-1,-6.475163E-2,1.0745174E-1],"split_indices":[12,24,36,12,24,0,36,0,0,36,12,36,36,0,36,24,0,36,12,12,0,0,0,0,12,0,36,36,36,0,24,0,0,0,24,24,12,36,12,0,12,0,12,36,36,0,0,0,0,0,0,0,0,0,0,0,0,0,0,0,0,0,0,0,0,0,0,0,0,0,0,0,0,0,0],"split_type":[0,0,0,0,0,0,0,0,0,0,0,0,0,0,0,0,0,0,0,0,0,0,0,0,0,0,0,0,0,0,0,0,0,0,0,0,0,0,0,0,0,0,0,0,0,0,0,0,0,0,0,0,0,0,0,0,0,0,0,0,0,0,0,0,0,0,0,0,0,0,0,0,0,0,0],"sum_hessian":[1.0096103E5,8.670551E4,1.4255524E4,7.352659E4,1.317891E4,4.3813492E2,1.381739E4,7.321818E4,3.0841858E2,1.4004454E3,1.1778465E4,4.5611365E2,1.3361276E4,1.4876346E4,5.8341832E4,2.3714735E2,7.127125E1,1.9462917E2,1.2058163E3,1.1584432E4,1.9403351E2,3.7543613E2,8.067753E1,1.5702506E3,1.1791025E4,5.284618E3,9.591728E3,1.2231361E3,5.7118695E4,1.0992977E1,2.2615437E2,1.94636E1,5.1807644E1,3.635746E1,1.582717E2,2.2915298E2,9.766633E2,5.64984E2,1.1019447E4,5.463723E1,3.207989E2,2.6375536E1,1.5438751E3,9.230224E2,1.0868003E4,2.74868E3,2.5359385E3,9.510001E3,8.1726234E1,3.829301E2,8.4020593E2,3.9183023E2,5.6726867E4,1.03726875E2,1.224275E2,1.149659E1,7.967012E0,8.6690346E1,7.158136E1,1.9962801E1,2.0919019E2,8.045786E1,8.9620544E2,5.9260582E1,5.0572342E2,3.0524585E3,7.966989E3,3.610027E1,2.846986E2,8.7011795E1,1.4568633E3,8.845964E2,3.842602E1,3.0732712E2,1.0560676E4],"tree_param":{"num_deleted":"0","num_feature":"48","num_nodes":"75","size_leaf_vector":"1"}},{"base_weights":[-2.4373522E-2,-3.6651853E-1,7.2817374E-3,-5.3813565E-1,-2.2477295E-1,-5.445442E-1,2.4184078E-2,-2.0590802E-1,-5.707378E-1,-1.4439341E-1,-5.190448E-1,-9.9238835E-2,-5.748797E-1,1.5822786E-1,-1.4069657E-2,-1.783346E-1,2.754918E-1,-1.794949E-1,-5.3702486E-1,1.8232325E-1,-2.0326662E-1,-5.822819E-1,2.6703116E-1,-4.4880852E-1,2.9586348E-1,-5.948562E-1,-4.6241423E-1,8.381626E-2,6.107594E-1,-5.7754222E-2,1.3049798E-1,-1.7923404E-1,2.6475433E-1,-1.8078119E-1,-4.7893354E-1,-7.406314E-2,8.7617415E-1,-2.4257733E-1,4.5699528E-1,-1.9052793E-1,-4.741771E-1,-1.8409488E-1,2.9743412E-1,2.689744E-1,-1.8349998E-1,-1.8152645E-1,-5.695108E-1,-5.2268237E-1,-9.269189E-2,1.1831164E0,7.282578E-2,-2.1964586E-1,6.685677E-1,-2.5453952E-1,-2.3462953E-2,-1.8909405E-1,1.5453574E-1,-8.909944E-2,-1.5799591E-1,1.633918E-1,-1.1206047E-1,2.8125638E-1,2.3242684E-1,-8.453201E-2,5.1008184E-2,-1.22410044E-1,4.0039954E-1,-1.6094139E-1,-4.3204002E-2,-1.2564404E-1,-1.8323797E-1,-1.3240948E-1,-1.8249406E-1,1.5062457E-1,-1.7661755E-1,-1.8832296E-1,3.924248E-1,3.0789632E-2,-5.5248667E-2,4.3031883E-1,-2.2196892E-1,3.5956565E-1,1.6702175E-1,-5.579052E-2,-1.4412966E-1,2.8497797E-1,-9.750456E-3,-1.2824935E-1,1.4150347E-1,1.344727E-1,3.8249582E-2],"categories":[],"categories_nodes":[],"categories_segments":[],"categories_sizes":[],"default_left":[0,0,0,0,0,0,0,0,0,0,0,0,0,0,0,0,0,0,0,0,0,0,0,0,0,0,0,0,0,0,0,0,0,0,0,0,0,0,0,0,0,0,0,0,0,0,0,0,0,0,0,0,0,0,0,0,0,0,0,0,0,0,0,0,0,0,0,0,0,0,0,0,0,0,0,0,0,0,0,0,0,0,0,0,0,0,0,0,0,0,0],"id":11,"left_children":[1,3,5,7,9,11,13,15,17,19,21,23,25,27,29,-1,31,-1,33,35,37,39,-1,41,43,45,47,49,51,53,55,-1,-1,-1,57,59,61,63,65,-1,67,-1,-1,-1,-1,-1,69,71,73,75,77,79,81,83,85,87,89,-1,-1,-1,-1,-1,-1,-1,-1,-1,-1,-1,-1,-1,-1,-1,-1,-1,-1,-1,-1,-1,-1,-1,-1,-1,-1,-1,-1,-1,-1,-1,-1,-1,-1],"loss_changes":[9.0712744E2,1.7241858E2,7.150626E2,3.4625305E1,9.1846695E1,3.0721375E1,3.814284E2,5.407083E1,2.394043E0,5.877668E1,7.478087E1,2.0369944E1,4.5169067E0,5.56079E2,3.6548752E2,0E0,6.9097885E1,0E0,4.754608E0,8.3104645E1,6.7283806E1,4.255829E0,0E0,1.9159492E1,3.837483E1,1.2420654E-1,7.2201614E0,1.7128601E2,1.1209448E2,2.9989545E2,1.03198975E2,0E0,0E0,0E0,5.9804688E0,6.3527683E1,5.7746887E-2,3.9561157E1,1.112175E2,0E0,5.3916893E0,0E0,0E0,0E0,0E0,0E0,3.0843353E0,1.6830902E0,1.4143207E1,3.2579758E1,1.0760132E2,1.3231596E2,1.2856525E2,1.0206735E2,3.3302594E2,1.4826187E2,9.913129E1,0E0,0E0,0E0,0E0,0E0,0E0,0E0,0E0,0E0,0E0,0E0,0E0,0E0,0E0,0E0,0E0,0E0,0E0,0E0,0E0,0E0,0E0,0E0,0E0,0E0,0E0,0E0,0E0,0E0,0E0,0E0,0E0,0E0,0E0],"parents":[2147483647,0,0,1,1,2,2,3,3,4,4,5,5,6,6,7,7,8,8,9,9,10,10,11,11,12,12,13,13,14,14,16,16,18,18,19,19,20,20,21,21,23,23,24,24,25,25,26,26,27,27,28,28,29,29,30,30,34,34,35,35,36,36,37,37,38,38,40,40,46,46,47,47,48,48,49,49,50,50,51,51,52,52,53,53,54,54,55,55,56,56],"right_children":[2,4,6,8,10,12,14,16,18,20,22,24,26,28,30,-1,32,-1,34,36,38,40,-1,42,44,46,48,50,52,54,56,-1,-1,-1,58,60,62,64,66,-1,68,-1,-1,-1,-1,-1,70,72,74,76,78,80,82,84,86,88,90,-1,-1,-1,-1,-1,-1,-1,-1,-1,-1,-1,-1,-1,-1,-1,-1,-1,-1,-1,-1,-1,-1,-1,-1,-1,-1,-1,-1,-1,-1,-1,-1,-1,-1],"split_conditions":[-5.861561E-1,-1.0348407E0,-9.3632466E-1,-7.9237896E-1,-6.7231655E-1,-4.8070568E-1,-3.3806038E-1,-9.239525E-1,-1.3453435E0,-6.9655174E-1,1.9061215E0,-1.1598033E0,-1.0235656E0,-5.467518E-1,2.0229334E-1,-1.783346E-1,-1.5696857E0,-1.794949E-1,-4.0736035E-2,-8.526164E-1,5.289382E-1,-6.072898E-1,2.6703116E-1,-6.136475E-1,-9.9420637E-1,-1.350961E0,6.0876566E-1,-8.613167E-1,-3.7077108E-1,-6.37708E-2,0E0,-1.7923404E-1,2.6475433E-1,-1.8078119E-1,-1.2811295E0,-1.2457943E0,1.28318835E-2,-7.0157856E-1,-9.080385E-1,-1.9052793E-1,1.5349142E-1,-1.8409488E-1,2.9743412E-1,2.689744E-1,-1.8349998E-1,-1.8152645E-1,-1.2895381E0,-9.9420637E-1,1.3069341E0,-1.1007433E0,-6.2482667E-1,-8.9473224E-1,-5.0297445E-1,-2.1390145E-1,-3.6918167E-2,1.1021011E0,3.3072117E-1,-8.909944E-2,-1.5799591E-1,1.633918E-1,-1.1206047E-1,2.8125638E-1,2.3242684E-1,-8.453201E-2,5.1008184E-2,-1.22410044E-1,4.0039954E-1,-1.6094139E-1,-4.3204002E-2,-1.2564404E-1,-1.8323797E-1,-1.3240948E-1,-1.8249406E-1,1.5062457E-1,-1.7661755E-1,-1.8832296E-1,3.924248E-1,3.0789632E-2,-5.5248667E-2,4.3031883E-1,-2.2196892E-1,3.5956565E-1,1.6702175E-1,-5.579052E-2,-1.4412966E-1,2.8497797E-1,-9.750456E-3,-1.2824935E-1,1.4150347E-1,1.344727E-1,3.8249582E-2],"split_indices":[24,24,0,12,24,12,12,12,24,12,12,0,0,12,24,0,24,0,0,12,0,24,0,12,0,0,36,0,0,36,12,0,0,0,24,12,0,24,24,0,36,0,0,0,0,0,0,0,36,12,12,0,12,36,36,24,24,0,0,0,0,0,0,0,0,0,0,0,0,0,0,0,0,0,0,0,0,0,0,0,0,0,0,0,0,0,0,0,0,0,0],"split_type":[0,0,0,0,0,0,0,0,0,0,0,0,0,0,0,0,0,0,0,0,0,0,0,0,0,0,0,0,0,0,0,0,0,0,0,0,0,0,0,0,0,0,0,0,0,0,0,0,0,0,0,0,0,0,0,0,0,0,0,0,0,0,0,0,0,0,0,0,0,0,0,0,0,0,0,0,0,0,0,0,0,0,0,0,0,0,0,0,0,0,0],"sum_hessian":[8.375404E4,7.091812E3,7.666223E4,3.2066245E3,3.8851873E3,2.277438E3,7.438479E4,2.872062E2,2.9194185E3,3.0528113E3,8.323762E2,1.4552312E2,2.1319148E3,1.6514318E4,5.7870473E4,1.5880164E2,1.2840457E2,1.5965936E3,1.3228247E3,4.6579367E2,2.5870176E3,7.971883E2,3.518792E1,7.713841E1,6.838471E1,1.8067117E3,3.2520312E2,1.4183289E4,2.3310305E3,4.444189E4,1.3428579E4,5.267304E1,7.573154E1,6.169634E2,7.058613E2,3.4076874E2,1.2502495E2,2.4422437E3,1.4477385E2,5.3228326E2,2.64905E2,6.97314E1,7.4070125E0,4.1155125E1,2.7229584E1,1.2708083E3,5.359033E2,2.7926642E2,4.593669E1,1.3934097E2,1.4043947E4,1.5153017E2,2.1795002E3,6.5941284E3,3.784776E4,9.388824E2,1.2489697E4,1.4817032E2,5.57691E2,1.10878136E2,2.298906E2,7.276549E1,5.2259464E1,2.230656E3,2.1158759E2,7.3181496E1,7.159236E1,2.2233138E2,4.2573624E1,1.176346E2,4.1826874E2,1.4639778E2,1.3286864E2,2.0883694E1,2.5053E1,8.735356E0,1.3060562E2,1.2584909E4,1.459039E3,3.5836716E1,1.1569345E2,3.780597E2,1.8014407E3,5.0599673E3,1.5341611E3,3.4725043E2,3.750051E4,6.9021045E2,2.4867189E2,1.0515077E3,1.1438189E4],"tree_param":{"num_deleted":"0","num_feature":"48","num_nodes":"91","size_leaf_vector":"1"}},{"base_weights":[-3.9370632E-1,-5.5361148E-2,-4.3433195E-1,1.7048696E-1,-1.6751269E-1,-3.8347682E-1,-5.672083E-1,1.2196977E-1,8.2423705E-1,-1.0534491E-1,-4.9174818E-1,-9.901629E-3,-4.1031054E-1,-5.722783E-1,-2.4286151E-1,6.917814E-1,5.654414E-2,-1.4919603E-1,9.4167805E-1,-1.8017489E-1,-5.639449E-2,-1.7493075E-1,3.938741E-1,-4.921041E-1,8.25355E-2,-3.7443385E-1,-5.540273E-1,-2.4966653E-1,-5.756087E-1,-1.7747778E-1,1.5014653E-1,-2.0789166E-1,8.639456E-1,-2.0646442E-1,1.9209106E-1,3.317274E-1,6.135834E-1,-2.9130273E-2,-1.9249614E-1,2.738042E-1,-1.6777508E-1,1.9160374E-1,-1.8016648E-1,8.1893533E-1,-5.129044E-3,-3.860481E-1,1.6966234E-1,1.26668E-1,-5.6518614E-1,-1.7438935E-1,2.500503E-1,-1.7445694E-1,-5.6176627E-1,3.4404904E-1,-1.8981495E-1,2.8349435E-1,2.0126788E-1,5.795607E-2,-1.5082785E-1,1.7549224E-1,-2.313615E-2,-1.7375329E-1,2.732854E-1,-1.3145299E-2,2.801301E-1,-1.7346744E-1,2.329816E-1,3.3209664E-1,9.699405E-2,9.623496E-2,-2.7214762E-2,-1.07261874E-1,-1.6421045E-1,2.4961641E-1,-3.3835106E-2,4.4143966E-1,-7.396908E-2,-1.11734904E-1,-1.7207189E-1,-1.6963643E-1,2.2669546E-1,-1.1951891E-1,-1.7095524E-1],"categories":[],"categories_nodes":[],"categories_segments":[],"categories_sizes":[],"default_left":[0,0,0,0,0,0,0,0,0,0,0,0,0,0,0,0,0,0,0,0,0,0,0,0,0,0,0,0,0,0,0,0,0,0,0,0,0,0,0,0,0,0,0,0,0,0,0,0,0,0,0,0,0,0,0,0,0,0,0,0,0,0,0,0,0,0,0,0,0,0,0,0,0,0,0,0,0,0,0,0,0,0,0],"id":12,"left_children":[1,3,5,7,9,11,13,15,17,19,21,23,25,27,29,31,33,-1,35,-1,37,-1,39,41,43,45,47,49,51,-1,53,-1,55,57,59,-1,61,63,-1,-1,-1,65,-1,67,69,71,73,75,77,-1,79,-1,81,-1,-1,-1,-1,-1,-1,-1,-1,-1,-1,-1,-1,-1,-1,-1,-1,-1,-1,-1,-1,-1,-1,-1,-1,-1,-1,-1,-1,-1,-1],"loss_changes":[7.666533E2,1.5150728E2,3.3628516E2,6.2855118E1,8.050659E1,3.6104395E2,2.2523438E1,6.888825E1,2.1724045E1,8.12941E1,5.2229584E1,1.0767329E2,1.7305371E2,1.443457E1,2.93973E1,4.5975792E1,5.920297E1,0E0,6.111084E0,0E0,4.871536E1,0E0,3.0523914E1,2.892772E1,1.3086914E2,1.7001294E2,5.1044434E1,2.3412968E1,7.7246094E-1,0E0,7.979627E1,0E0,2.0213623E0,6.698852E1,1.15932556E2,0E0,1.623768E1,4.132637E1,0E0,0E0,0E0,2.4748524E1,0E0,3.0430313E1,5.058642E1,1.2090405E2,1.0538157E2,5.5098846E1,1.04592285E1,0E0,2.3808554E1,0E0,5.121582E0,0E0,0E0,0E0,0E0,0E0,0E0,0E0,0E0,0E0,0E0,0E0,0E0,0E0,0E0,0E0,0E0,0E0,0E0,0E0,0E0,0E0,0E0,0E0,0E0,0E0,0E0,0E0,0E0,0E0,0E0],"parents":[2147483647,0,0,1,1,2,2,3,3,4,4,5,5,6,6,7,7,8,8,9,9,10,10,11,11,12,12,13,13,14,14,15,15,16,16,18,18,20,20,22,22,23,23,24,24,25,25,26,26,27,27,28,28,30,30,32,32,33,33,34,34,36,36,37,37,41,41,43,43,44,44,45,45,46,46,47,47,48,48,50,50,52,52],"right_children":[2,4,6,8,10,12,14,16,18,20,22,24,26,28,30,32,34,-1,36,-1,38,-1,40,42,44,46,48,50,52,-1,54,-1,56,58,60,-1,62,64,-1,-1,-1,66,-1,68,70,72,74,76,78,-1,80,-1,82,-1,-1,-1,-1,-1,-1,-1,-1,-1,-1,-1,-1,-1,-1,-1,-1,-1,-1,-1,-1,-1,-1,-1,-1,-1,-1,-1,-1,-1,-1],"split_conditions":[-8.121241E-1,-5.6682193E-1,1.5341413E-2,-6.115048E-1,6.0154505E-2,-8.9473224E-1,2.322452E0,-1.9528017E0,-6.9655174E-1,-4.458434E-1,-8.413861E-1,-3.2442337E-1,1.28318835E-2,-1.8092757E0,6.2334156E-1,-1.7005609E0,-1.1598033E0,-1.4919603E-1,-1.3453435E0,-1.8017489E-1,9.463659E-3,-1.7493075E-1,3.8214147E-1,-1.9528017E0,-1.7323618E-1,1.7184914E0,-7.470973E-1,6.0383356E-1,9.956198E-1,-1.7747778E-1,1.0517054E0,-2.0789166E-1,-2.3465121E-1,-1.5987126E0,-9.3632466E-1,3.317274E-1,-5.914812E-1,2.8928014E-2,-1.9249614E-1,2.738042E-1,-1.6777508E-1,-2.3926766E0,-1.8016648E-1,-1.350961E0,-5.873972E-1,9.463659E-3,1.8342621E0,-1.2928891E0,-1.0023924E0,-1.7438935E-1,-2.3926766E0,-1.7445694E-1,1.0517054E0,3.4404904E-1,-1.8981495E-1,2.8349435E-1,2.0126788E-1,5.795607E-2,-1.5082785E-1,1.7549224E-1,-2.313615E-2,-1.7375329E-1,2.732854E-1,-1.3145299E-2,2.801301E-1,-1.7346744E-1,2.329816E-1,3.3209664E-1,9.699405E-2,9.623496E-2,-2.7214762E-2,-1.07261874E-1,-1.6421045E-1,2.4961641E-1,-3.3835106E-2,4.4143966E-1,-7.396908E-2,-1.11734904E-1,-1.7207189E-1,-1.6963643E-1,2.2669546E-1,-1.1951891E-1,-1.7095524E-1],"split_indices":[24,0,24,0,0,0,36,0,12,0,24,24,0,0,24,36,0,0,24,0,36,0,0,0,24,12,24,24,24,0,24,0,36,0,0,0,0,0,0,0,0,0,0,0,36,36,12,36,36,0,0,0,24,0,0,0,0,0,0,0,0,0,0,0,0,0,0,0,0,0,0,0,0,0,0,0,0,0,0,0,0,0,0],"split_type":[0,0,0,0,0,0,0,0,0,0,0,0,0,0,0,0,0,0,0,0,0,0,0,0,0,0,0,0,0,0,0,0,0,0,0,0,0,0,0,0,0,0,0,0,0,0,0,0,0,0,0,0,0,0,0,0,0,0,0,0,0,0,0,0,0,0,0,0,0,0,0,0,0,0,0,0,0,0,0,0,0,0,0],"sum_hessian":[5.577566E4,5.979396E3,4.9796266E4,1.9838486E3,3.9955474E3,3.601594E4,1.3780322E4,1.8478961E3,1.3595255E2,3.3538223E3,6.4172516E2,2.4137283E3,3.3602215E4,1.3567477E4,2.1284604E2,1.893362E2,1.6585598E3,1.08315115E1,1.2512103E2,3.0066672E2,3.0531555E3,5.8202893E2,5.9696224E1,3.8757935E2,2.026149E3,2.6892514E4,6.7096997E3,1.394017E2,1.3428075E4,1.1250806E2,1.0033798E2,2.0602314E1,1.6873389E2,5.638908E2,1.0946691E3,8.182846E1,4.3292576E1,2.9182585E3,1.3489688E2,3.8682774E1,2.1013449E1,5.2956745E1,3.346226E2,2.1465573E2,1.8114933E3,2.6330748E4,5.617649E2,1.08053116E2,6.6016465E3,8.369514E1,5.5706566E1,9.379493E3,4.048582E3,4.3936436E1,5.640155E1,1.1610349E2,5.2630394E1,2.4022136E2,3.2366943E2,4.4462195E2,6.500471E2,8.450283E0,3.4842293E1,2.8753542E3,4.290424E1,2.2871176E1,3.0085571E1,1.3497517E2,7.9680565E1,3.761971E2,1.4352961E3,2.2379121E4,3.9516287E3,1.6734996E2,3.9441498E2,2.2834656E1,8.521846E1,2.7718008E2,6.324467E3,2.127418E1,3.4432384E1,1.9327278E2,3.8553093E3],"tree_param":{"num_deleted":"0","num_feature":"48","num_nodes":"83","size_leaf_vector":"1"}},{"base_weights":[2.2628479E-1,2.1462041E-1,3.5887086E-1,4.3294874E-1,2.0869422E-1,3.1149843E-1,5.9915876E-1,2.4999385E-1,5.6614685E-1,-4.7012694E-2,2.1585476E-1,3.4311545E-1,-9.409099E-1,6.514738E-1,3.2358733E-3,7.391424E-1,-2.773026E-2,-3.541435E-2,6.0417026E-1,-4.4896168E-1,2.3490472E-2,4.8220423E-1,2.104748E-1,-1.8536124E-1,3.539365E-1,-2.9942685E-1,-2.4998195E-1,7.2450024E-1,2.7893806E-1,-2.5295168E-1,2.043771E-1,2.1097542E-1,2.3762086E-1,-5.182399E-1,2.776807E-1,2.4481091E-1,-2.1466796E-1,6.367308E-1,2.324747E-1,-2.2408281E-1,-2.6011246E-1,-2.5325054E-1,5.6798585E-2,-2.660134E-1,5.39312E-1,2.2398947E-1,1.2387202E-1,3.6208308E-1,-7.811681E-1,2.224669E-1,5.5636734E-1,-3.0006796E-1,6.224263E-1,-2.1247841E-1,1.9720127E-1,-1.9636054E-1,1.9875152E-1,2.351079E-1,1.5235885E-2,2.6597688E-1,1.793625E-1,-2.4080661E-1,1.8253002E-1,-2.1415682E-1,9.309705E-2,2.6249886E-1,-1.3769034E-3,2.3100461E-1,-2.0809455E-1,2.4684775E-1,1.2361133E-1,6.254589E-2,9.718766E-2,8.114711E-3,8.927941E-2,1.7337017E-1,9.9304385E-2,-2.8866094E-1,-1.8260814E-1,-3.9284945E-1,2.2828548E-1,8.2478374E-2,2.2401033E-1],"categories":[],"categories_nodes":[],"categories_segments":[],"categories_sizes":[],"default_left":[0,0,0,0,0,0,0,0,0,0,0,0,0,0,0,0,0,0,0,0,0,0,0,0,0,0,0,0,0,0,0,0,0,0,0,0,0,0,0,0,0,0,0,0,0,0,0,0,0,0,0,0,0,0,0,0,0,0,0,0,0,0,0,0,0,0,0,0,0,0,0,0,0,0,0,0,0,0,0,0,0,0,0],"id":13,"left_children":[1,3,5,7,9,11,13,15,17,19,21,23,25,27,29,31,33,35,37,39,41,43,45,-1,47,-1,-1,49,51,53,-1,-1,-1,55,57,-1,-1,59,61,63,-1,-1,65,67,69,71,73,75,77,-1,79,-1,81,-1,-1,-1,-1,-1,-1,-1,-1,-1,-1,-1,-1,-1,-1,-1,-1,-1,-1,-1,-1,-1,-1,-1,-1,-1,-1,-1,-1,-1,-1],"loss_changes":[1.5391504E2,1.1832715E2,9.144812E1,5.877533E1,1.6316382E2,2.6667438E2,4.129413E1,1.3863731E2,3.200525E1,6.881941E1,1.2410571E2,6.8451904E1,1.8934631E-1,3.2925842E1,1.8915813E1,1.4500427E-1,9.778979E1,4.9271824E1,1.5769592E1,3.387657E1,5.9775772E1,7.3440216E1,9.941553E1,0E0,6.0289734E1,0E0,0E0,2.50531E0,8.902834E1,3.322678E1,0E0,0E0,0E0,4.0740456E1,4.615444E1,0E0,0E0,1.1204681E1,4.232848E1,6.225074E1,0E0,0E0,1.0001916E2,5.472357E1,5.7181458E1,1.138374E2,1.9295009E2,4.3013855E1,8.680172E-1,0E0,3.8298084E1,0E0,6.6711426E0,0E0,0E0,0E0,0E0,0E0,0E0,0E0,0E0,0E0,0E0,0E0,0E0,0E0,0E0,0E0,0E0,0E0,0E0,0E0,0E0,0E0,0E0,0E0,0E0,0E0,0E0,0E0,0E0,0E0,0E0],"parents":[2147483647,0,0,1,1,2,2,3,3,4,4,5,5,6,6,7,7,8,8,9,9,10,10,11,11,12,12,13,13,14,14,15,15,16,16,17,17,18,18,19,19,20,20,21,21,22,22,24,24,27,27,28,28,29,29,33,33,34,34,37,37,38,38,39,39,42,42,43,43,44,44,45,45,46,46,47,47,48,48,50,50,52,52],"right_children":[2,4,6,8,10,12,14,16,18,20,22,24,26,28,30,32,34,36,38,40,42,44,46,-1,48,-1,-1,50,52,54,-1,-1,-1,56,58,-1,-1,60,62,64,-1,-1,66,68,70,72,74,76,78,-1,80,-1,82,-1,-1,-1,-1,-1,-1,-1,-1,-1,-1,-1,-1,-1,-1,-1,-1,-1,-1,-1,-1,-1,-1,-1,-1,-1,-1,-1,-1,-1,-1],"split_conditions":[7.675078E-1,-1.3453739E0,4.1347376E-1,-1.7982069E0,-1.0023924E0,2.5113738E-1,1.2447653E0,-2.113115E0,-1.8092757E0,-6.9655174E-1,-8.193063E-1,-1.9528017E0,1.28318835E-2,1.2178322E0,1.3982326E0,-8.6658394E-1,-7.790333E-1,-1.7005609E0,1.5646316E-2,-1.1537436E0,-1.5987126E0,-8.9473224E-1,7.198379E-1,-1.8536124E-1,3.7347984E0,-2.9942685E-1,-2.4998195E-1,1.0517054E0,1.2520083E0,1.3820974E0,2.043771E-1,2.1097542E-1,2.3762086E-1,1.5646316E-2,-1.6242278E-1,2.4481091E-1,-2.1466796E-1,-1.0856967E0,-3.540311E-1,-1.2550514E0,-2.6011246E-1,-2.5325054E-1,-1.1598033E0,-9.254963E-1,-2.1019608E-1,1.7912349E-1,1.3069341E0,-8.036926E-1,1.28318835E-2,2.224669E-1,1.7231066E0,-3.0006796E-1,8.256391E-1,-2.1247841E-1,1.9720127E-1,-1.9636054E-1,1.9875152E-1,2.351079E-1,1.5235885E-2,2.6597688E-1,1.793625E-1,-2.4080661E-1,1.8253002E-1,-2.1415682E-1,9.309705E-2,2.6249886E-1,-1.3769034E-3,2.3100461E-1,-2.0809455E-1,2.4684775E-1,1.2361133E-1,6.254589E-2,9.718766E-2,8.114711E-3,8.927941E-2,1.7337017E-1,9.9304385E-2,-2.8866094E-1,-1.8260814E-1,-3.9284945E-1,2.2828548E-1,8.2478374E-2,2.2401033E-1],"split_indices":[12,36,36,36,36,36,0,36,0,12,36,0,0,36,12,24,0,36,12,36,0,0,36,0,12,0,0,24,36,0,0,0,0,12,0,0,0,0,0,36,0,0,0,36,0,36,36,0,0,0,24,0,12,0,0,0,0,0,0,0,0,0,0,0,0,0,0,0,0,0,0,0,0,0,0,0,0,0,0,0,0,0,0],"split_type":[0,0,0,0,0,0,0,0,0,0,0,0,0,0,0,0,0,0,0,0,0,0,0,0,0,0,0,0,0,0,0,0,0,0,0,0,0,0,0,0,0,0,0,0,0,0,0,0,0,0,0,0,0,0,0,0,0,0,0,0,0,0,0,0,0,0,0,0,0,0,0,0,0,0,0,0,0,0,0,0,0,0,0],"sum_hessian":[9.957116E4,9.152204E4,8.0491187E3,2.416675E3,8.910536E4,6.725493E3,1.3236255E3,1.0193791E3,1.3972959E3,2.4270903E3,8.667827E4,6.560597E3,1.6489594E2,1.2167186E3,1.0690689E2,3.68568E2,6.508111E2,8.3073616E1,1.3142223E3,3.613892E2,2.065701E3,1.7143845E3,8.496388E4,7.242742E1,6.48817E3,1.0228611E2,6.260982E1,1.0165119E3,2.0020668E2,7.8044876E1,2.8862017E1,2.2814482E2,1.4042317E2,2.4946208E2,4.01349E2,3.6802296E1,4.627132E1,1.2077135E3,1.0650872E2,2.359898E2,1.25399376E2,7.5467514E1,1.9902335E3,1.2131219E2,1.5930724E3,7.34934E4,1.1470489E4,6.4426123E3,4.5557304E1,9.1979376E2,9.671815E1,4.1975647E1,1.5823103E2,5.2171566E1,2.5873306E1,2.2404579E2,2.541629E1,1.2349055E2,2.7785846E2,1.5960039E2,1.0481132E3,2.8074217E1,7.84345E1,1.2296183E2,1.1302798E2,1.3797786E2,1.8522556E3,3.520956E1,8.610263E1,4.9188757E2,1.1011848E3,6.3628945E4,9.864449E3,7.366219E3,4.1042705E3,8.0853253E2,5.63408E3,1.9993067E1,2.5564236E1,9.023207E0,8.769495E1,4.2527485E1,1.15703545E2],"tree_param":{"num_deleted":"0","num_feature":"48","num_nodes":"83","size_leaf_vector":"1"}},{"base_weights":[-6.99788E-3,-5.101864E-1,1.0706707E-2,1.02820255E-1,-5.528403E-1,-4.9720132E-1,2.5577957E-2,-2.2726794E-1,1.767597E0,-5.6030357E-1,-3.4291112E-1,-1.6150506E-1,-5.364989E-1,4.1049685E-2,-2.3052564E-1,-1.7399079E-1,2.4398446E-1,6.0650325E-1,2.646692E-1,-1.7503887E-1,-5.253496E-1,4.0685228E-1,-1.7480688E-1,-1.7213751E-1,2.7259824E-1,-1.7366129E-1,-4.9068573E-1,1.4696258E-2,1.9429272E-1,-2.4650745E-1,1.102766E0,2.3812336E-1,-1.7886516E-1,-3.3032322E-1,-5.594176E-1,3.216955E-1,-1.8804537E-1,-1.7113535E-1,2.3742609E-1,-3.221351E-1,-5.272923E-1,1.2697014E-1,-1.4652847E-2,3.0207828E-1,2.294889E-2,-3.434572E-1,-1.3309429E-2,5.4386795E-1,2.2663616E-1,-1.725893E-1,-4.5416825E-2,-1.7495039E-1,-1.5693246E-1,-1.7632203E-1,-5.32943E-3,-1.7533062E-1,-1.3164902E-1,2.6653208E-2,2.1519028E-1,-7.285123E-2,9.2687464E-4,2.0040224E-1,7.830422E-2,-5.6868162E-2,3.8320445E-2,-4.7735836E-2,-1.1909932E-1,2.5174847E-1,-6.907897E-2],"categories":[],"categories_nodes":[],"categories_segments":[],"categories_sizes":[],"default_left":[0,0,0,0,0,0,0,0,0,0,0,0,0,0,0,0,0,0,0,0,0,0,0,0,0,0,0,0,0,0,0,0,0,0,0,0,0,0,0,0,0,0,0,0,0,0,0,0,0,0,0,0,0,0,0,0,0,0,0,0,0,0,0,0,0,0,0,0,0],"id":14,"left_children":[1,3,5,7,9,11,13,15,17,19,21,23,25,27,29,-1,31,-1,-1,-1,33,35,-1,-1,37,-1,39,41,43,45,47,-1,-1,49,51,-1,-1,-1,-1,53,55,57,59,61,63,65,67,-1,-1,-1,-1,-1,-1,-1,-1,-1,-1,-1,-1,-1,-1,-1,-1,-1,-1,-1,-1,-1,-1],"loss_changes":[7.282516E2,7.270526E1,5.964732E2,1.0019215E2,3.8779907E0,2.9547974E1,3.04011E2,2.5477497E1,5.001526E0,1.7230225E0,1.6734095E1,4.254543E1,3.6188965E0,2.9218997E2,9.341173E1,0E0,3.093803E1,0E0,0E0,0E0,6.520294E0,1.6372402E1,0E0,0E0,5.1209602E1,0E0,5.831253E0,2.034323E2,1.9606558E2,9.7665955E1,1.1444786E1,0E0,0E0,6.5981617E0,4.345398E-1,0E0,0E0,0E0,0E0,1.4227186E1,3.7749023E0,2.878915E2,1.9815102E2,9.775336E1,9.1338425E1,3.005304E1,2.3501219E2,0E0,0E0,0E0,0E0,0E0,0E0,0E0,0E0,0E0,0E0,0E0,0E0,0E0,0E0,0E0,0E0,0E0,0E0,0E0,0E0,0E0,0E0],"parents":[2147483647,0,0,1,1,2,2,3,3,4,4,5,5,6,6,7,7,8,8,9,9,10,10,11,11,12,12,13,13,14,14,16,16,20,20,21,21,24,24,26,26,27,27,28,28,29,29,30,30,33,33,34,34,39,39,40,40,41,41,42,42,43,43,44,44,45,45,46,46],"right_children":[2,4,6,8,10,12,14,16,18,20,22,24,26,28,30,-1,32,-1,-1,-1,34,36,-1,-1,38,-1,40,42,44,46,48,-1,-1,50,52,-1,-1,-1,-1,54,56,58,60,62,64,66,68,-1,-1,-1,-1,-1,-1,-1,-1,-1,-1,-1,-1,-1,-1,-1,-1,-1,-1,-1,-1,-1,-1],"split_conditions":[-9.3632466E-1,-4.8070568E-1,-1.0348407E0,-6.136475E-1,1.034746E0,-7.9237896E-1,8.5322917E-1,-1.1598033E0,-6.7231655E-1,-1.350961E0,1.3069341E0,-9.239525E-1,-1.3453435E0,7.198379E-1,3.7347984E0,-1.7399079E-1,-9.9420637E-1,6.0650325E-1,2.646692E-1,-1.7503887E-1,-1.2895381E0,-9.9420637E-1,-1.7480688E-1,-1.7213751E-1,-1.5696857E0,-1.7366129E-1,-1.2811295E0,-3.3806038E-1,1.2861844E0,9.0122186E-2,1.28318835E-2,2.3812336E-1,-1.7886516E-1,-2.0291628E-1,-1.0235656E0,3.216955E-1,-1.8804537E-1,-1.7113535E-1,2.3742609E-1,-8.193063E-1,-1.1665199E0,-4.3536326E-1,-5.873972E-1,7.6621974E-1,1.4045801E0,-4.569154E-1,3.0877465E-1,5.4386795E-1,2.2663616E-1,-1.725893E-1,-4.5416825E-2,-1.7495039E-1,-1.5693246E-1,-1.7632203E-1,-5.32943E-3,-1.7533062E-1,-1.3164902E-1,2.6653208E-2,2.1519028E-1,-7.285123E-2,9.2687464E-4,2.0040224E-1,7.830422E-2,-5.6868162E-2,3.8320445E-2,-4.7735836E-2,-1.1909932E-1,2.5174847E-1,-6.907897E-2],"split_indices":[0,12,24,12,36,12,12,0,24,0,36,12,24,36,12,0,0,0,0,0,0,0,0,0,24,0,24,12,36,24,0,0,0,36,0,0,0,0,0,36,24,12,36,36,36,24,24,0,0,0,0,0,0,0,0,0,0,0,0,0,0,0,0,0,0,0,0,0,0],"split_type":[0,0,0,0,0,0,0,0,0,0,0,0,0,0,0,0,0,0,0,0,0,0,0,0,0,0,0,0,0,0,0,0,0,0,0,0,0,0,0,0,0,0,0,0,0,0,0,0,0,0,0,0,0,0,0,0,0,0,0,0,0,0,0,0,0,0,0,0,0],"sum_hessian":[8.1744086E4,2.7774468E3,7.896664E4,1.8059457E2,2.596852E3,2.2454033E3,7.6721234E4,1.5143239E2,2.916219E1,2.5060884E3,9.0763794E1,2.3584323E2,2.00956E3,7.2351195E4,4.37004E3,8.647835E1,6.495404E1,2.166219E1,7.5E0,1.4979216E3,1.0081667E3,2.1824368E1,6.893942E1,1.2079614E2,1.1504709E2,1.0379434E3,9.7161664E2,6.1735543E4,1.0615653E4,4.3190835E3,5.0956547E1,3.929673E1,2.565731E1,1.5151228E2,8.566544E2,1.3254116E1,8.570251E0,4.3790726E1,7.125636E1,1.7511607E2,7.9650055E2,1.2793018E4,4.8942527E4,6.5159604E3,4.099693E3,3.0504265E3,1.268657E3,1.5350528E1,3.560602E1,6.301908E1,8.8493195E1,5.08789E2,3.4786542E2,9.30159E1,8.2100174E1,4.8050616E2,3.159944E2,1.2017994E4,7.7502374E2,3.5300483E3,4.5412477E4,6.5589734E2,5.860063E3,1.3536453E3,2.7460476E3,6.8746985E2,2.3629565E3,2.5679013E2,1.0118668E3],"tree_param":{"num_deleted":"0","num_feature":"48","num_nodes":"69","size_leaf_vector":"1"}},{"base_weights":[-3.5777846E-1,-2.3113763E-2,-3.9883345E-1,3.1059945E-2,-1.6983339E-1,-3.4460685E-1,-5.49108E-1,-1.605367E-2,4.4204423E-1,-1.4776911E-2,-3.706696E-1,-5.547016E-1,-2.0427106E-1,1.2451189E-2,-7.1367997E-1,7.5832814E-1,1.1712517E-1,-4.9402186E-1,7.981705E-2,-3.3386317E-1,-5.245947E-1,-2.2868462E-1,-5.5816966E-1,-1.7094499E-1,1.6566315E-1,2.3488814E-1,-7.5048335E-2,-2.4883316E-1,-1.880744E-1,6.370516E-1,4.338952E-1,1.138157E0,-2.2744179E-2,1.6007265E-1,-1.7459445E-1,6.9497246E-1,6.731076E-3,-3.4577265E-1,1.7679276E-1,2.0661753E-1,-5.453692E-1,-1.6883788E-1,2.3429559E-1,-1.6958648E-1,-5.4165024E-1,2.9560307E-1,-1.7970255E-1,-1.1777589E-2,1.4077148E-1,1.2666259E-2,-7.171588E-2,2.4641104E-1,-2.0115454E-1,-1.6569218E-1,4.7660714E-1,-1.8826832E-1,7.2120555E-2,-1.6754332E-1,2.1369183E-1,2.934829E-1,7.276499E-2,9.867448E-2,-2.014626E-2,-5.63288E-3,-1.0875511E-1,1.17812775E-1,-1.7884225E-1,-1.7460327E-1,1.5850449E-1,-1.0149963E-1,-1.6651669E-1,-1.6500536E-1,2.108116E-1,-1.0804959E-1,-1.6529621E-1],"categories":[],"categories_nodes":[],"categories_segments":[],"categories_sizes":[],"default_left":[0,0,0,0,0,0,0,0,0,0,0,0,0,0,0,0,0,0,0,0,0,0,0,0,0,0,0,0,0,0,0,0,0,0,0,0,0,0,0,0,0,0,0,0,0,0,0,0,0,0,0,0,0,0,0,0,0,0,0,0,0,0,0,0,0,0,0,0,0,0,0,0,0,0,0],"id":15,"left_children":[1,3,5,7,-1,9,11,13,15,17,19,21,23,25,27,29,31,33,35,37,39,41,43,-1,45,47,49,-1,-1,51,-1,53,55,57,-1,59,61,63,65,67,69,-1,71,-1,73,-1,-1,-1,-1,-1,-1,-1,-1,-1,-1,-1,-1,-1,-1,-1,-1,-1,-1,-1,-1,-1,-1,-1,-1,-1,-1,-1,-1,-1,-1],"loss_changes":[6.797827E2,1.5908228E2,3.589336E2,9.523006E1,0E0,2.7840234E2,2.242456E1,8.776425E1,5.1891693E1,1.0760762E2,1.6987402E2,1.2871338E1,2.5529148E1,8.255545E1,1.2202072E0,2.0449219E1,3.5826088E1,2.2605186E1,8.9128204E1,1.4739355E2,8.8072876E1,1.9112938E1,1.0314941E0,0E0,5.9669655E1,7.695087E1,5.8559525E1,0E0,0E0,5.345999E1,0E0,2.3895336E1,3.5397305E1,1.9113274E1,0E0,2.6745644E1,4.22279E1,1.2961719E2,9.248654E1,4.1079494E1,1.1104492E1,0E0,1.954179E1,0E0,5.647217E0,0E0,0E0,0E0,0E0,0E0,0E0,0E0,0E0,0E0,0E0,0E0,0E0,0E0,0E0,0E0,0E0,0E0,0E0,0E0,0E0,0E0,0E0,0E0,0E0,0E0,0E0,0E0,0E0,0E0,0E0],"parents":[2147483647,0,0,1,1,2,2,3,3,5,5,6,6,7,7,8,8,9,9,10,10,11,11,12,12,13,13,14,14,15,15,16,16,17,17,18,18,19,19,20,20,21,21,22,22,24,24,25,25,26,26,29,29,31,31,32,32,33,33,35,35,36,36,37,37,38,38,39,39,40,40,42,42,44,44],"right_children":[2,4,6,8,-1,10,12,14,16,18,20,22,24,26,28,30,32,34,36,38,40,42,44,-1,46,48,50,-1,-1,52,-1,54,56,58,-1,60,62,64,66,68,70,-1,72,-1,74,-1,-1,-1,-1,-1,-1,-1,-1,-1,-1,-1,-1,-1,-1,-1,-1,-1,-1,-1,-1,-1,-1,-1,-1,-1,-1,-1,-1,-1,-1],"split_conditions":[-8.413861E-1,6.0154505E-2,1.5341413E-2,-9.080385E-1,-1.6983339E-1,-8.9473224E-1,2.322452E0,-9.218567E-1,-3.540311E-1,-3.2442337E-1,1.28318835E-2,-1.8092757E0,6.2334156E-1,-7.622289E-1,-7.622289E-1,1.2767829E0,-1.2172135E0,-1.9528017E0,-1.7323618E-1,1.7184914E0,-7.470973E-1,6.0383356E-1,9.956198E-1,-1.7094499E-1,1.0517054E0,-1.1598033E0,-1.2429264E0,-2.4883316E-1,-1.880744E-1,1.0776608E0,4.338952E-1,-2.113115E0,-8.4005606E-1,-2.3926766E0,-1.7459445E-1,-1.350961E0,-1.9528017E0,-1.1232293E0,2.2660437E0,3.3398184E-1,-1.0023924E0,-1.6883788E-1,-2.3926766E0,-1.6958648E-1,1.0517054E0,2.9560307E-1,-1.7970255E-1,-1.1777589E-2,1.4077148E-1,1.2666259E-2,-7.171588E-2,2.4641104E-1,-2.0115454E-1,-1.6569218E-1,4.7660714E-1,-1.8826832E-1,7.2120555E-2,-1.6754332E-1,2.1369183E-1,2.934829E-1,7.276499E-2,9.867448E-2,-2.014626E-2,-5.63288E-3,-1.0875511E-1,1.17812775E-1,-1.7884225E-1,-1.7460327E-1,1.5850449E-1,-1.0149963E-1,-1.6651669E-1,-1.6500536E-1,2.108116E-1,-1.0804959E-1,-1.6529621E-1],"split_indices":[24,0,24,24,0,0,36,24,0,24,0,0,24,0,0,12,36,0,24,12,24,24,24,0,24,0,24,0,0,12,0,36,36,0,0,0,0,36,12,0,36,0,0,0,24,0,0,0,0,0,0,0,0,0,0,0,0,0,0,0,0,0,0,0,0,0,0,0,0,0,0,0,0,0,0],"split_type":[0,0,0,0,0,0,0,0,0,0,0,0,0,0,0,0,0,0,0,0,0,0,0,0,0,0,0,0,0,0,0,0,0,0,0,0,0,0,0,0,0,0,0,0,0,0,0,0,0,0,0,0,0,0,0,0,0,0,0,0,0,0,0,0,0,0,0,0,0,0,0,0,0,0,0],"sum_hessian":[4.9475617E4,5.406386E3,4.406923E4,4.916791E3,4.8959503E2,3.2386021E4,1.1683207E4,4.41198E3,5.0481104E2,2.3718096E3,3.0014213E4,1.1496119E4,1.8708818E2,4.239728E3,1.722522E2,2.5512875E2,2.4968227E2,3.9028278E2,1.9815269E3,2.4224775E4,5.7894375E3,1.2170753E2,1.1374412E4,9.3830505E1,9.3257675E1,1.1964607E3,3.0432673E3,7.0127396E1,1.02124794E2,2.185325E2,3.6596256E1,2.9222649E1,2.2045963E2,4.61651E1,3.4411768E2,2.0951942E2,1.7720074E3,2.3672998E4,5.517769E2,1.59693E2,5.6297446E3,7.0567276E1,5.114025E1,7.9258022E3,3.4486096E3,4.48706E1,4.8387074E1,5.517945E2,6.4466614E2,1.7748954E3,1.2683718E3,1.9185927E2,2.6673227E1,6.10183E0,2.312082E1,6.641835E1,1.5404128E2,2.0056652E1,2.610845E1,1.2812569E2,8.139373E1,3.299177E2,1.4420897E3,1.1532687E3,2.2519729E4,4.3168033E2,1.20096565E2,4.6037235E1,1.13655754E2,2.5322528E2,5.376519E3,1.9056871E1,3.2083378E1,1.7068127E2,3.2779282E3],"tree_param":{"num_deleted":"0","num_feature":"48","num_nodes":"75","size_leaf_vector":"1"}},{"base_weights":[1.7652397E-1,3.8493615E-1,1.713964E-1,9.921654E-2,4.5729268E-1,-1.4095365E-1,1.7494337E-1,4.8116496E-1,-3.6568475E-1,7.1195626E-1,4.0922678E-1,2.8977862E-1,-3.014821E-1,1.6525911E-1,2.9559574E-1,6.201435E-1,-1.866543E-1,-6.1327845E-1,1.9141732E-1,1.9845389E-1,2.4562632E-1,4.3554685E-1,-5.1156235E-1,-1.9657208E-1,5.3869003E-1,2.4186045E-1,-4.7558957E-1,2.2992773E-1,1.5001257E-1,5.882397E-1,2.5651404E-1,4.6106273E-1,7.041687E-1,-2.2683747E-1,1.7889392E-1,1.8505721E-1,-6.408243E-1,3.507829E-1,6.322035E-1,-7.917615E-1,1.9480185E-1,7.29446E-1,-2.6566017E-1,-9.350175E-1,4.4976845E-1,-7.743294E-2,-5.8985484E-1,1.8484399E-1,3.5733718E-1,1.47246E-1,5.9473765E-1,4.638367E-1,2.0730095E-1,-2.6458445E-1,3.0424806E-1,2.0866957E-1,-2.1264334E-1,1.8722874E-1,2.2661184E-1,-2.3077334E-1,-1.1125055E-1,5.8590304E-2,1.9404529E-1,2.0206884E-1,4.1701566E-2,-2.0198306E-1,-2.9437938E-1,2.4639903E-1,1.832891E-1,-4.8242846E-1,-1.5997717E-1,2.2246855E-1,4.6832845E-2,-2.5554156E-1,6.717151E-2,-2.571279E-1,-1.06174156E-1,6.53098E-2,-3.119314E-1,2.125381E-1,8.6222E-2,-1.5095309E-2,4.5823775E-2,2.167178E-1,-2.0593672E-1,2.0897771E-1,-1.4653502E-1,6.484238E-3,-3.4795055E-1,7.338794E-2,1.5961924E-1],"categories":[],"categories_nodes":[],"categories_segments":[],"categories_sizes":[],"default_left":[0,0,0,0,0,0,0,0,0,0,0,0,0,0,0,0,0,0,0,0,0,0,0,0,0,0,0,0,0,0,0,0,0,0,0,0,0,0,0,0,0,0,0,0,0,0,0,0,0,0,0,0,0,0,0,0,0,0,0,0,0,0,0,0,0,0,0,0,0,0,0,0,0,0,0,0,0,0,0,0,0,0,0,0,0,0,0,0,0,0,0],"id":16,"left_children":[1,3,5,7,9,11,13,15,17,19,21,23,25,27,29,31,33,35,-1,-1,-1,37,39,-1,41,43,45,47,49,51,53,55,57,-1,-1,-1,59,61,63,65,-1,67,-1,69,71,73,75,77,79,81,83,85,-1,87,89,-1,-1,-1,-1,-1,-1,-1,-1,-1,-1,-1,-1,-1,-1,-1,-1,-1,-1,-1,-1,-1,-1,-1,-1,-1,-1,-1,-1,-1,-1,-1,-1,-1,-1,-1,-1],"loss_changes":[1.0424927E2,4.8395966E1,1.05576904E2,8.447752E1,2.2591095E1,7.40927E1,1.1002051E2,2.434557E1,5.3747063E1,1.0501099E0,3.839148E1,6.882658E1,7.392176E1,8.594824E1,7.988782E1,2.5668716E0,2.084486E1,6.2480774E0,0E0,0E0,0E0,2.53107E1,1.4900395E1,0E0,6.3392403E1,4.6909637E1,2.6851242E1,9.549054E1,8.674036E1,1.0209839E1,1.5369073E2,2.1799427E1,1.0118103E-1,0E0,0E0,0E0,5.5892563E0,4.924315E1,9.291641E0,1.4941025E-1,0E0,1.7215347E0,0E0,6.944111E0,1.3778263E1,3.1222057E1,2.8651413E1,4.9470493E2,1.0653125E2,7.6216675E1,7.179886E1,8.3606064E1,0E0,1.3294066E2,7.671753E1,0E0,0E0,0E0,0E0,0E0,0E0,0E0,0E0,0E0,0E0,0E0,0E0,0E0,0E0,0E0,0E0,0E0,0E0,0E0,0E0,0E0,0E0,0E0,0E0,0E0,0E0,0E0,0E0,0E0,0E0,0E0,0E0,0E0,0E0,0E0,0E0],"parents":[2147483647,0,0,1,1,2,2,3,3,4,4,5,5,6,6,7,7,8,8,9,9,10,10,11,11,12,12,13,13,14,14,15,15,16,16,17,17,21,21,22,22,24,24,25,25,26,26,27,27,28,28,29,29,30,30,31,31,32,32,36,36,37,37,38,38,39,39,41,41,43,43,44,44,45,45,46,46,47,47,48,48,49,49,50,50,51,51,53,53,54,54],"right_children":[2,4,6,8,10,12,14,16,18,20,22,24,26,28,30,32,34,36,-1,-1,-1,38,40,-1,42,44,46,48,50,52,54,56,58,-1,-1,-1,60,62,64,66,-1,68,-1,70,72,74,76,78,80,82,84,86,-1,88,90,-1,-1,-1,-1,-1,-1,-1,-1,-1,-1,-1,-1,-1,-1,-1,-1,-1,-1,-1,-1,-1,-1,-1,-1,-1,-1,-1,-1,-1,-1,-1,-1,-1,-1,-1,-1],"split_conditions":[-1.4125054E0,-8.9473224E-1,-1.2550514E0,-1.1598033E0,-4.6205896E-1,-6.670686E-1,7.675078E-1,1.5646316E-2,1.5646316E-2,-6.7231655E-1,9.146658E-1,-1.9528017E0,-1.3453739E0,-0E0,-6.1302924E-1,-1.8092757E0,-1.8092757E0,-1.7948409E0,1.9141732E-1,1.9845389E-1,2.4562632E-1,-1.5809447E0,1.7378218E0,-1.9657208E-1,1.064206E-1,-1.514413E0,-9.998888E-1,-2.4225958E-1,2.2895327E0,-8.009977E-1,-3.4084117E-1,-1.7005609E0,-1.5696857E0,-2.2683747E-1,1.7889392E-1,1.8505721E-1,-9.3632466E-1,3.3080748E-1,8.256391E-1,-6.7231655E-1,1.9480185E-1,-1.0856967E0,-2.6566017E-1,-1.7948409E0,-3.4474424E-1,-2.0086164E0,-3.8457313E-1,-2.550721E-1,-8.8076544E-1,-1.1007433E0,1.5646316E-2,-8.193063E-1,2.0730095E-1,-4.0553162E-1,4.1347376E-1,2.0866957E-1,-2.1264334E-1,1.8722874E-1,2.2661184E-1,-2.3077334E-1,-1.1125055E-1,5.8590304E-2,1.9404529E-1,2.0206884E-1,4.1701566E-2,-2.0198306E-1,-2.9437938E-1,2.4639903E-1,1.832891E-1,-4.8242846E-1,-1.5997717E-1,2.2246855E-1,4.6832845E-2,-2.5554156E-1,6.717151E-2,-2.571279E-1,-1.06174156E-1,6.53098E-2,-3.119314E-1,2.125381E-1,8.6222E-2,-1.5095309E-2,4.5823775E-2,2.167178E-1,-2.0593672E-1,2.0897771E-1,-1.4653502E-1,6.484238E-3,-3.4795055E-1,7.338794E-2,1.5961924E-1],"split_indices":[36,0,36,0,12,0,12,12,12,24,0,0,36,0,36,0,0,24,0,0,0,36,0,0,12,24,24,0,0,36,36,36,24,0,0,0,0,12,12,24,0,0,0,24,24,24,24,0,12,12,12,36,0,36,36,0,0,0,0,0,0,0,0,0,0,0,0,0,0,0,0,0,0,0,0,0,0,0,0,0,0,0,0,0,0,0,0,0,0,0,0],"split_type":[0,0,0,0,0,0,0,0,0,0,0,0,0,0,0,0,0,0,0,0,0,0,0,0,0,0,0,0,0,0,0,0,0,0,0,0,0,0,0,0,0,0,0,0,0,0,0,0,0,0,0,0,0,0,0,0,0,0,0,0,0,0,0,0,0,0,0,0,0,0,0,0,0,0,0,0,0,0,0,0,0,0,0,0,0,0,0,0,0,0,0],"sum_hessian":[9.761353E4,2.3421394E3,9.527139E4,4.7375574E2,1.8683835E3,1.0692952E3,9.420209E4,2.6006195E2,2.1369379E2,2.9445978E2,1.5739238E3,2.9009717E2,7.79198E2,8.720489E4,6.997207E3,2.1532294E2,4.4739025E1,1.7172363E2,4.197015E1,2.0488272E2,8.957706E1,1.530697E3,4.3226852E1,6.0139328E1,2.2995784E2,1.8899776E2,5.9020026E2,1.663462E4,7.057027E4,8.227088E2,6.174498E3,7.66647E1,1.3865823E2,2.5920626E1,1.8818398E1,3.2925441E0,1.6843109E2,1.071596E3,4.5910098E2,3.507823E1,8.1486225E0,2.032262E2,2.673164E1,2.785054E1,1.6114722E2,1.3198322E2,4.5821707E2,1.2288715E4,4.3459033E3,7.0135305E4,4.349684E2,3.7466336E2,4.4804544E2,5.177568E2,5.656741E3,6.420098E1,1.2463719E1,5.9227234E1,7.9431E1,1.12887215E2,5.5543873E1,7.0367505E2,3.6792096E2,4.232425E2,3.5858505E1,2.4384775E1,1.0693456E1,1.11119774E2,9.210643E1,9.287829E0,1.856271E1,8.0065315E1,8.10819E1,3.646064E1,9.5522575E1,2.136238E2,2.4459326E2,1.1968436E4,3.2028018E2,7.2027094E2,3.625632E3,1.899372E3,6.823593E4,3.959528E2,3.901562E1,3.0129105E2,7.337234E1,3.9307294E2,1.2468383E2,4.4850386E3,1.1717028E3],"tree_param":{"num_deleted":"0","num_feature":"48","num_nodes":"91","size_leaf_vector":"1"}},{"base_weights":[5.8768485E-3,-4.8605096E-1,2.081199E-2,9.658967E-2,-5.310215E-1,-4.738133E-1,3.3306498E-2,-2.13088E-1,1.253329E0,-1.7000587E-1,-4.827693E-1,-1.4551453E-1,-5.123343E-1,1.6493609E-3,1.22719824E-1,-1.68623E-1,2.2201887E-1,4.0351915E-1,2.3760618E-1,-2.9024884E-1,-5.151075E-1,-1.6696212E-1,2.6427466E-1,-1.6881087E-1,-4.6002403E-1,-2.2397313E-1,1.8181695E-2,1.3335474E-1,-3.9605197E-1,2.180034E-1,-1.7280385E-1,-1.6643897E-1,-1.2280092E-1,-5.364176E-1,-3.18937E-1,-1.6533223E-1,2.1835579E-1,-2.7308965E-1,-5.015591E-1,8.432298E-2,-2.7334112E-1,2.9938867E-2,-1.9145711E-1,1.4278717E-1,-2.9992977E-1,-5.66626E-1,4.3674594E-1,6.584239E-1,-9.069729E-2,-1.6974081E-1,-1.4795147E-1,1.03798024E-1,-1.6896628E-1,-1.693519E-1,2.503456E-3,-1.7025313E-1,-1.21528395E-1,-1.6182713E-1,2.5278172E-1,-9.004541E-2,4.0865052E-2,8.210447E-3,2.9266813E-1,2.1213603E-1,-6.744397E-2,4.0368244E-2,2.0510823E-1,-1.3559748E-1,4.1735205E-1,-7.17629E-2,-1.8416542E-1,2.5977555E-1,-1.6637577E-1],"categories":[],"categories_nodes":[],"categories_segments":[],"categories_sizes":[],"default_left":[0,0,0,0,0,0,0,0,0,0,0,0,0,0,0,0,0,0,0,0,0,0,0,0,0,0,0,0,0,0,0,0,0,0,0,0,0,0,0,0,0,0,0,0,0,0,0,0,0,0,0,0,0,0,0,0,0,0,0,0,0,0,0,0,0,0,0,0,0,0,0,0,0],"id":17,"left_children":[1,3,5,7,9,11,13,15,17,-1,19,21,23,25,27,-1,29,-1,-1,31,33,-1,35,-1,37,39,41,43,45,-1,-1,-1,47,49,51,-1,-1,53,55,57,59,61,63,65,67,69,71,-1,-1,-1,-1,-1,-1,-1,-1,-1,-1,-1,-1,-1,-1,-1,-1,-1,-1,-1,-1,-1,-1,-1,-1,-1,-1],"loss_changes":[5.880404E2,6.184491E1,4.8008148E2,6.1103954E1,3.4944458E0,2.4129913E1,2.1446172E2,2.0597189E1,4.585762E-1,0E0,5.6859894E0,3.4235794E1,4.2533875E0,2.0872441E2,1.0935269E2,0E0,2.4874237E1,0E0,0E0,6.0047493E0,3.1783752E0,0E0,3.896535E1,0E0,6.4282837E0,5.8167908E1,1.2851064E2,7.938617E1,5.6816837E1,0E0,0E0,0E0,3.6126766E1,6.3752747E-1,1.3347834E1,0E0,0E0,1.279217E1,4.163986E0,2.5022223E2,3.6201614E1,1.19985596E2,8.314986E1,8.445648E1,1.07077354E2,4.974205E0,2.9523018E1,0E0,0E0,0E0,0E0,0E0,0E0,0E0,0E0,0E0,0E0,0E0,0E0,0E0,0E0,0E0,0E0,0E0,0E0,0E0,0E0,0E0,0E0,0E0,0E0,0E0,0E0],"parents":[2147483647,0,0,1,1,2,2,3,3,4,4,5,5,6,6,7,7,8,8,10,10,11,11,12,12,13,13,14,14,16,16,19,19,20,20,22,22,24,24,25,25,26,26,27,27,28,28,32,32,33,33,34,34,37,37,38,38,39,39,40,40,41,41,42,42,43,43,44,44,45,45,46,46],"right_children":[2,4,6,8,10,12,14,16,18,-1,20,22,24,26,28,-1,30,-1,-1,32,34,-1,36,-1,38,40,42,44,46,-1,-1,-1,48,50,52,-1,-1,54,56,58,60,62,64,66,68,70,72,-1,-1,-1,-1,-1,-1,-1,-1,-1,-1,-1,-1,-1,-1,-1,-1,-1,-1,-1,-1,-1,-1,-1,-1,-1,-1],"split_conditions":[-9.3632466E-1,-4.8070568E-1,-1.0348407E0,-6.136475E-1,-1.350961E0,-7.9237896E-1,2.164801E-1,-1.1598033E0,-6.7231655E-1,-1.7000587E-1,-1.2895381E0,-9.239525E-1,-1.3453435E0,-5.873972E-1,2.2895327E0,-1.68623E-1,-9.9420637E-1,4.0351915E-1,2.3760618E-1,-2.0291628E-1,1.0127758E0,-1.6696212E-1,-1.5696857E0,-1.6881087E-1,-1.2811295E0,-6.9655174E-1,7.675078E-1,1.4247047E0,1.5646316E-2,2.180034E-1,-1.7280385E-1,-1.6643897E-1,-1.7388977E-2,-1.0235656E0,1.3069341E0,-1.6533223E-1,2.1835579E-1,-8.193063E-1,-1.1665199E0,-8.38258E-1,2.91596E-2,7.432715E-1,-5.202656E-1,1.1839516E0,8.606892E-1,-7.0819035E-2,3.0437331E0,6.584239E-1,-9.069729E-2,-1.6974081E-1,-1.4795147E-1,1.03798024E-1,-1.6896628E-1,-1.693519E-1,2.503456E-3,-1.7025313E-1,-1.21528395E-1,-1.6182713E-1,2.5278172E-1,-9.004541E-2,4.0865052E-2,8.210447E-3,2.9266813E-1,2.1213603E-1,-6.744397E-2,4.0368244E-2,2.0510823E-1,-1.3559748E-1,4.1735205E-1,-7.17629E-2,-1.8416542E-1,2.5977555E-1,-1.6637577E-1],"split_indices":[0,12,24,12,0,12,0,0,24,0,0,12,24,36,0,0,0,0,0,36,36,0,24,0,24,12,12,12,12,0,0,0,36,0,36,0,0,36,24,12,24,12,36,12,24,24,0,0,0,0,0,0,0,0,0,0,0,0,0,0,0,0,0,0,0,0,0,0,0,0,0,0,0],"split_type":[0,0,0,0,0,0,0,0,0,0,0,0,0,0,0,0,0,0,0,0,0,0,0,0,0,0,0,0,0,0,0,0,0,0,0,0,0,0,0,0,0,0,0,0,0,0,0,0,0,0,0,0,0,0,0,0,0,0,0,0,0,0,0,0,0,0,0,0,0,0,0,0,0],"sum_hessian":[8.003567E4,2.3573884E3,7.767828E4,1.6883278E2,2.1885557E3,1.9129418E3,7.5765336E4,1.3382222E2,3.5010567E1,1.2522399E3,9.3631586E2,2.0138625E2,1.7115555E3,5.59552E4,1.9810139E4,7.4098114E1,5.9724106E1,2.7605284E1,7.405282E0,1.3609163E2,8.0022424E2,1.00362625E2,1.0102361E2,8.669897E2,8.4456586E2,3.819303E3,5.21359E4,1.9412914E4,3.972252E2,3.664191E1,2.3082195E1,5.18545E1,8.423714E1,7.202489E2,7.9975296E1,3.654906E1,6.447455E1,1.5491661E2,6.8964923E2,5.2707654E2,3.2922263E3,4.9368047E4,2.7678508E3,1.899996E4,4.1295148E2,3.2996188E2,6.726333E1,5.249076E0,7.898806E1,4.2165628E2,2.9859265E2,2.1375565E1,5.8599735E1,7.561441E1,7.93022E1,4.067067E2,2.8294257E2,2.893512E2,2.3772534E2,3.0902046E3,2.0202193E2,4.9235227E4,1.3281915E2,9.834499E1,2.6695056E3,1.871656E4,2.834015E2,3.795551E2,3.3396378E1,4.2383446E1,2.8757843E2,4.7029556E1,2.023377E1],"tree_param":{"num_deleted":"0","num_feature":"48","num_nodes":"73","size_leaf_vector":"1"}},{"base_weights":[-3.2463914E-1,-1.4260926E-2,-3.679054E-1,2.6995331E-2,-4.5043755E-1,-3.1056532E-1,-5.347649E-1,4.8393857E-2,-1.8746543E-1,-1.6605885E-1,3.1590325E-1,-7.420925E-2,-3.497951E-1,-5.4076624E-1,-1.7816465E-1,1.1998788E-2,8.201565E-1,2.3484677E-1,-1.6431013E-1,-1.1573529E-1,5.010915E-1,-3.1010374E-1,-5.217313E-1,-2.1040778E-1,-5.4439515E-1,-1.6640487E-1,1.7457613E-1,2.1900296E-1,-5.6261137E-2,4.660038E-2,1.4204671E0,2.9980466E-1,-1.629938E-1,1.029046E0,-5.7396166E-2,-5.130284E-1,-2.7984515E-1,9.849709E-2,-5.3576994E-1,-1.6468182E-1,2.3570366E-1,-1.6588621E-1,-5.247319E-1,2.6095578E-1,-1.7222802E-1,1.638856E-2,1.5840714E-1,2.1112226E-2,-5.6155432E-2,3.4216627E-1,-1.7524835E-1,7.334946E-1,3.3077347E-1,6.714012E-2,2.693751E-1,3.3157593E-1,-5.396178E-2,-1.522308E-1,3.4425896E-1,-4.7127787E-2,4.1908738E-1,3.244461E-2,-1.5912406E-1,-2.0818342E-2,-9.2665225E-2,-1.8030977E-1,2.0044594E-1,-9.8214015E-2,-1.6341625E-1,-1.597562E-1,1.9932303E-1,-9.725486E-2,-1.6065972E-1],"categories":[],"categories_nodes":[],"categories_segments":[],"categories_sizes":[],"default_left":[0,0,0,0,0,0,0,0,0,0,0,0,0,0,0,0,0,0,0,0,0,0,0,0,0,0,0,0,0,0,0,0,0,0,0,0,0,0,0,0,0,0,0,0,0,0,0,0,0,0,0,0,0,0,0,0,0,0,0,0,0,0,0,0,0,0,0,0,0,0,0,0,0],"id":18,"left_children":[1,3,5,7,9,11,13,15,-1,-1,17,19,21,23,25,27,29,-1,-1,31,33,35,37,39,41,-1,43,45,47,49,51,53,55,57,59,61,63,65,67,-1,69,-1,71,-1,-1,-1,-1,-1,-1,-1,-1,-1,-1,-1,-1,-1,-1,-1,-1,-1,-1,-1,-1,-1,-1,-1,-1,-1,-1,-1,-1,-1,-1],"loss_changes":[5.9361816E2,9.7351494E1,3.710293E2,6.897809E1,3.710775E1,2.6772314E2,2.1135742E1,1.3443762E2,0E0,0E0,2.3037224E1,9.829027E1,1.6884912E2,1.1581543E1,2.21031E1,6.46157E1,1.0002841E2,0E0,0E0,7.537666E1,8.173623E1,1.2341785E2,4.0483765E1,1.6384945E1,1.3337402E0,0E0,4.5425686E1,5.757173E1,5.7031292E1,6.6368484E1,3.6819244E1,1.7621258E1,7.394002E1,2.6514786E1,1.9874556E1,2.8244019E1,1.07012695E2,4.1693348E1,8.291504E0,0E0,1.5878692E1,0E0,6.2075195E0,0E0,0E0,0E0,0E0,0E0,0E0,0E0,0E0,0E0,0E0,0E0,0E0,0E0,0E0,0E0,0E0,0E0,0E0,0E0,0E0,0E0,0E0,0E0,0E0,0E0,0E0,0E0,0E0,0E0,0E0],"parents":[2147483647,0,0,1,1,2,2,3,3,4,4,5,5,6,6,7,7,10,10,11,11,12,12,13,13,14,14,15,15,16,16,19,19,20,20,21,21,22,22,23,23,24,24,26,26,27,27,28,28,29,29,30,30,31,31,32,32,33,33,34,34,35,35,36,36,37,37,38,38,40,40,42,42],"right_children":[2,4,6,8,10,12,14,16,-1,-1,18,20,22,24,26,28,30,-1,-1,32,34,36,38,40,42,-1,44,46,48,50,52,54,56,58,60,62,64,66,68,-1,70,-1,72,-1,-1,-1,-1,-1,-1,-1,-1,-1,-1,-1,-1,-1,-1,-1,-1,-1,-1,-1,-1,-1,-1,-1,-1,-1,-1,-1,-1,-1,-1],"split_conditions":[-8.121241E-1,6.0154505E-2,1.5341413E-2,1.4247047E0,-8.413861E-1,-4.6863553E-1,2.322452E0,1.2767829E0,-1.8746543E-1,-1.6605885E-1,3.8214147E-1,1.7184914E0,6.0154505E-2,-1.8092757E0,6.2334156E-1,-8.9473224E-1,-1.2047231E0,2.3484677E-1,-1.6431013E-1,-1.9528017E0,-7.0819035E-2,0E0,-7.470973E-1,6.0383356E-1,9.956198E-1,-1.6640487E-1,1.0517054E0,-1.2429264E0,-1.2429264E0,-1.514413E0,1.3446623E0,3.1488969E-3,-1.3760666E0,-6.072898E-1,-4.9522632E-1,-3.7077108E-1,-2.3465121E-1,-7.820492E-1,-1.1232293E0,-1.6468182E-1,-2.3926766E0,-1.6588621E-1,1.0517054E0,2.6095578E-1,-1.7222802E-1,1.638856E-2,1.5840714E-1,2.1112226E-2,-5.6155432E-2,3.4216627E-1,-1.7524835E-1,7.334946E-1,3.3077347E-1,6.714012E-2,2.693751E-1,3.3157593E-1,-5.396178E-2,-1.522308E-1,3.4425896E-1,-4.7127787E-2,4.1908738E-1,3.244461E-2,-1.5912406E-1,-2.0818342E-2,-9.2665225E-2,-1.8030977E-1,2.0044594E-1,-9.8214015E-2,-1.6341625E-1,-1.597562E-1,1.9932303E-1,-9.725486E-2,-1.6065972E-1],"split_indices":[24,0,24,12,24,0,36,12,0,0,0,12,0,0,24,0,24,0,0,0,24,12,24,24,24,0,24,24,24,24,12,24,12,24,0,0,36,24,36,0,0,0,24,0,0,0,0,0,0,0,0,0,0,0,0,0,0,0,0,0,0,0,0,0,0,0,0,0,0,0,0,0,0],"split_type":[0,0,0,0,0,0,0,0,0,0,0,0,0,0,0,0,0,0,0,0,0,0,0,0,0,0,0,0,0,0,0,0,0,0,0,0,0,0,0,0,0,0,0,0,0,0,0,0,0,0,0,0,0,0,0,0,0,0,0,0,0,0,0,0,0,0,0,0,0,0,0,0,0],"sum_hessian":[4.420386E4,5.4082393E3,3.8795617E4,4.941756E3,4.664835E2,2.8875588E4,9.92003E3,4.785591E3,1.5616536E2,4.114155E2,5.5067974E1,4.1108647E3,2.4764725E4,9.755337E3,1.6469318E2,4.571043E3,2.145474E2,3.580373E1,1.9264244E1,3.8348577E3,2.7600674E2,2.0122307E4,4.6424175E3,1.0663643E2,9.6487E3,7.9384766E1,8.530841E1,1.1329786E3,3.4380647E3,9.4217285E1,1.2033011E2,3.9104953E2,3.4438083E3,1.4144865E2,1.345581E2,2.6090635E3,1.7513244E4,1.0262025E2,4.539797E3,6.0497448E1,4.613898E1,6.7036733E3,2.9450273E3,4.414752E1,4.1160896E1,7.403488E2,3.9262976E2,1.7478895E3,1.690175E3,3.416149E1,6.0055798E1,2.6910334E1,9.341978E1,3.4817932E2,4.2870224E1,4.4383938E1,3.3994243E3,9.89169E0,1.3155698E2,1.267606E2,7.7974973E0,7.089069E1,2.5381729E3,2.1239504E3,1.5389293E4,4.6034924E1,5.6585323E1,1.8851346E2,4.3512837E3,1.643893E1,2.9700048E1,1.5208316E2,2.792944E3],"tree_param":{"num_deleted":"0","num_feature":"48","num_nodes":"73","size_leaf_vector":"1"}},{"base_weights":[1.3811283E-1,3.3977622E-1,1.3350384E-1,1.8873997E-1,2.7934667E-1,-3.6587738E-2,1.3871635E-1,8.767472E-2,4.2054433E-1,-4.0440422E-1,1.1433728E-2,5.258479E-1,1.3602582E-1,