{"learner":{"attributes":{"scikit_learn":"{\"_estimator_type\": \"classifier\"}"},"feature_names":[],"feature_types":[],"gradient_booster":{"model":{"gbtree_model_param":{"num_parallel_tree":"1","num_trees":"450"},"iteration_indptr":[0,3,6,9,12,15,18,21,24,27,30,33,36,39,42,45,48,51,54,57,60,63,66,69,72,75,78,81,84,87,90,93,96,99,102,105,108,111,114,117,120,123,126,129,132,135,138,141,144,147,150,153,156,159,162,165,168,171,174,177,180,183,186,189,192,195,198,201,204,207,210,213,216,219,222,225,228,231,234,237,240,243,246,249,252,255,258,261,264,267,270,273,276,279,282,285,288,291,294,297,300,303,306,309,312,315,318,321,324,327,330,333,336,339,342,345,348,351,354,357,360,363,366,369,372,375,378,381,384,387,390,393,396,399,402,405,408,411,414,417,420,423,426,429,432,435,438,441,444,447,450],"tree_info":[0,1,2,0,1,2,0,1,2,0,1,2,0,1,2,0,1,2,0,1,2,0,1,2,0,1,2,0,1,2,0,1,2,0,1,2,0,1,2,0,1,2,0,1,2,0,1,2,0,1,2,0,1,2,0,1,2,0,1,2,0,1,2,0,1,2,0,1,2,0,1,2,0,1,2,0,1,2,0,1,2,0,1,2,0,1,2,0,1,2,0,1,2,0,1,2,0,1,2,0,1,2,0,1,2,0,1,2,0,1,2,0,1,2,0,1,2,0,1,2,0,1,2,0,1,2,0,1,2,0,1,2,0,1,2,0,1,2,0,1,2,0,1,2,0,1,2,0,1,2,0,1,2,0,1,2,0,1,2,0,1,2,0,1,2,0,1,2,0,1,2,0,1,2,0,1,2,0,1,2,0,1,2,0,1,2,0,1,2,0,1,2,0,1,2,0,1,2,0,1,2,0,1,2,0,1,2,0,1,2,0,1,2,0,1,2,0,1,2,0,1,2,0,1,2,0,1,2,0,1,2,0,1,2,0,1,2,0,1,2,0,1,2,0,1,2,0,1,2,0,1,2,0,1,2,0,1,2,0,1,2,0,1,2,0,1,2,0,1,2,0,1,2,0,1,2,0,1,2,0,1,2,0,1,2,0,1,2,0,1,2,0,1,2,0,1,2,0,1,2,0,1,2,0,1,2,0,1,2,0,1,2,0,1,2,0,1,2,0,1,2,0,1,2,0,1,2,0,1,2,0,1,2,0,1,2,0,1,2,0,1,2,0,1,2,0,1,2,0,1,2,0,1,2,0,1,2,0,1,2,0,1,2,0,1,2,0,1,2,0,1,2,0,1,2,0,1,2,0,1,2,0,1,2,0,1,2,0,1,2,0,1,2,0,1,2,0,1,2,0,1,2,0,1,2,0,1,2,0,1,2,0,1,2,0,1,2,0,1,2,0,1,2,0,1,2,0,1,2,0,1,2,0,1,2,0,1,2,0,1,2,0,1,2,0,1,2,0,1,2],"trees":[{"base_weights":[-3.8041615E-1,4.195409E-1,-4.8253912E-1,8.691421E-1,2.4100311E-1,3.943831E-1,-5.1881E-1,6.284923E-1,1.0743288E0,5.8849996E-1,-5.6111857E-2,8.113163E-1,2.0726751E-1,7.234841E-2,-5.532822E-1,7.584477E-1,-2.229851E-1,1.2933242E0,9.059038E-1,-3.895945E-1,6.777857E-1,8.253447E-1,-1.9262981E-1,8.939146E-1,-3.455498E-1,1.260355E0,1.1536474E-1,-1.5930204E-2,9.778393E-1,3.6647466E-1,-5.680236E-1,1.1970528E0,5.440742E-1,1.3797073E0,6.801619E-1,-2.1735851E-1,9.630578E-1,4.397985E-1,-2.2401367E-1,7.634574E-1,-3.823089E-1,-4.3027893E-1,1.0705882E0,-2.5495726E-1,1.3989218E0,9.2601156E-1,-2.1242239E-1,-2.2071885E-1,4.1284406E-1,1.4093959E0,1.428571E-1,2.3369556E-2,8.5714287E-1,1.0869973E-1,-4.8618475E-1,1.177137E0,-2.1913046E-1,9.0425164E-1,1.441608E-1,4.242585E-2,-5.8675826E-1,1.5529412E-1,4.155638E-1,-2.2217576E-1,2.0613584E-1,4.4247493E-1,2.1078582E-1,-2.1512198E-1,3.5834864E-1,2.6144758E-1,4.1252816E-1,2.0391989E-1,4.483986E-1,-2.2354214E-1,1.3043478E-1,-2.2187985E-1,4.141593E-1,4.1841716E-1,2.1254794E-1,-1.1372175E-1,1.0132086E-1,-1.5517244E-1,4.3147305E-1,-2.10219E-1,2.862087E-1,4.3833467E-1,1.1688311E-1,-2.0769234E-1,4.0000004E-1,4.408989E-1,-5.782619E-3,2.8580078E-1,-2.0769234E-1,2.2555064E-2,4.4356123E-1,-2.2458206E-1,3.2247547E-2,-2.1699609E-1,4.0599477E-1,2.8757587E-1,-2.0495051E-1,7.615721E-2,-1.9144511E-1,-1.9400049E-2,3.2959244E-1,-1.597216E-1,-2.1656199E-1],"categories":[],"categories_nodes":[],"categories_segments":[],"categories_sizes":[],"default_left":[0,0,0,0,0,0,0,0,0,0,0,0,0,0,0,0,0,0,0,0,0,0,0,0,0,0,0,0,0,0,0,0,0,0,0,0,0,0,0,0,0,0,0,0,0,0,0,0,0,0,0,0,0,0,0,0,0,0,0,0,0,0,0,0,0,0,0,0,0,0,0,0,0,0,0,0,0,0,0,0,0,0,0,0,0,0,0,0,0,0,0,0,0,0,0,0,0,0,0,0,0,0,0,0,0,0,0],"id":0,"left_children":[1,3,5,7,9,11,13,15,17,19,21,23,25,27,29,31,-1,33,35,37,39,41,43,45,47,49,51,53,55,57,59,61,63,65,67,-1,69,-1,-1,71,73,75,77,79,81,83,-1,-1,-1,85,87,89,91,93,95,97,-1,99,101,103,105,-1,-1,-1,-1,-1,-1,-1,-1,-1,-1,-1,-1,-1,-1,-1,-1,-1,-1,-1,-1,-1,-1,-1,-1,-1,-1,-1,-1,-1,-1,-1,-1,-1,-1,-1,-1,-1,-1,-1,-1,-1,-1,-1,-1,-1,-1],"loss_changes":[7.073749E3,7.8666724E2,2.442455E3,1.3688696E2,7.246055E2,2.378027E2,1.5026445E3,2.29561E2,5.4240845E1,2.827567E2,4.5551862E2,9.056604E1,2.0375201E2,3.2484674E2,9.4486523E2,1.0972388E2,0E0,3.3531372E1,8.014374E1,1.8082384E2,2.6953308E2,1.5678827E2,3.2547046E2,4.6001465E1,4.3781887E1,2.7946106E1,1.3228217E2,2.1711658E2,1.2376407E2,1.3134058E2,7.842656E2,4.844336E1,1.4574406E2,3.567273E1,6.0024956E1,0E0,2.9894165E1,0E0,0E0,1.6692334E2,6.623837E1,4.788446E1,4.8893127E1,2.3220067E2,1.0061783E1,4.0092773E1,0E0,0E0,0E0,7.289398E0,2.1802197E1,1.0647616E2,3.2317978E1,1.3434389E2,1.2099382E2,1.0934909E2,0E0,2.8380035E1,6.703238E1,2.3113568E2,4.882168E2,0E0,0E0,0E0,0E0,0E0,0E0,0E0,0E0,0E0,0E0,0E0,0E0,0E0,0E0,0E0,0E0,0E0,0E0,0E0,0E0,0E0,0E0,0E0,0E0,0E0,0E0,0E0,0E0,0E0,0E0,0E0,0E0,0E0,0E0,0E0,0E0,0E0,0E0,0E0,0E0,0E0,0E0,0E0,0E0,0E0,0E0],"parents":[2147483647,0,0,1,1,2,2,3,3,4,4,5,5,6,6,7,7,8,8,9,9,10,10,11,11,12,12,13,13,14,14,15,15,17,17,18,18,19,19,20,20,21,21,22,22,23,23,24,24,25,25,26,26,27,27,28,28,29,29,30,30,31,31,32,32,33,33,34,34,36,36,39,39,40,40,41,41,42,42,43,43,44,44,45,45,49,49,50,50,51,51,52,52,53,53,54,54,55,55,57,57,58,58,59,59,60,60],"right_children":[2,4,6,8,10,12,14,16,18,20,22,24,26,28,30,32,-1,34,36,38,40,42,44,46,48,50,52,54,56,58,60,62,64,66,68,-1,70,-1,-1,72,74,76,78,80,82,84,-1,-1,-1,86,88,90,92,94,96,98,-1,100,102,104,106,-1,-1,-1,-1,-1,-1,-1,-1,-1,-1,-1,-1,-1,-1,-1,-1,-1,-1,-1,-1,-1,-1,-1,-1,-1,-1,-1,-1,-1,-1,-1,-1,-1,-1,-1,-1,-1,-1,-1,-1,-1,-1,-1,-1,-1,-1],"split_conditions":[-7.4709857E-1,-6.8504316E-1,-7.631303E-1,-9.695471E-1,-1.3827668E0,-1.5633783E0,-1.0543487E0,-1.0584621E0,-4.4764617E-1,-4.2750195E-1,-9.031615E-1,7.942929E-1,-1.5965093E0,1.3306214E0,-8.1856537E-1,-1.9043072E0,-2.229851E-1,-7.748483E-1,-4.0727708E-1,-6.6063166E-1,7.833078E-1,-1.3322895E0,2.071885E0,8.7288177E-1,-1.6000003E0,5.891788E-1,-8.4026295E-1,1.7295618E-1,2.2660437E0,-1.5801183E0,-8.121241E-1,-1.7777714E0,-1.8787853E0,1.5054178E0,-1.4430197E0,-2.1735851E-1,-9.8796105E-1,4.397985E-1,-2.2401367E-1,3.9028284E-1,-1.6319221E0,-1.2965734E0,-6.109253E-1,-8.4026295E-1,-1.0348407E0,-2.1541138E0,-2.1242239E-1,-2.2071885E-1,4.1284406E-1,5.7598746E-1,9.657356E-1,-2.0862625E0,3.4036607E-2,1.1455942E-1,-1.3372151E0,-2.0533223E0,-2.1913046E-1,7.833078E-1,2.7676943E-1,1.2987386E0,6.2407963E-2,1.5529412E-1,4.155638E-1,-2.2217576E-1,2.0613584E-1,4.4247493E-1,2.1078582E-1,-2.1512198E-1,3.5834864E-1,2.6144758E-1,4.1252816E-1,2.0391989E-1,4.483986E-1,-2.2354214E-1,1.3043478E-1,-2.2187985E-1,4.141593E-1,4.1841716E-1,2.1254794E-1,-1.1372175E-1,1.0132086E-1,-1.5517244E-1,4.3147305E-1,-2.10219E-1,2.862087E-1,4.3833467E-1,1.1688311E-1,-2.0769234E-1,4.0000004E-1,4.408989E-1,-5.782619E-3,2.8580078E-1,-2.0769234E-1,2.2555064E-2,4.4356123E-1,-2.2458206E-1,3.2247547E-2,-2.1699609E-1,4.0599477E-1,2.8757587E-1,-2.0495051E-1,7.615721E-2,-1.9144511E-1,-1.9400049E-2,3.2959244E-1,-1.597216E-1,-2.1656199E-1],"split_indices":[4,38,3,3,4,3,28,3,3,38,26,38,26,12,1,3,0,4,3,38,36,4,15,26,3,14,3,0,12,1,25,28,4,12,40,0,4,0,0,36,4,26,2,4,24,28,0,0,0,12,14,40,25,0,28,27,0,36,40,16,4,0,0,0,0,0,0,0,0,0,0,0,0,0,0,0,0,0,0,0,0,0,0,0,0,0,0,0,0,0,0,0,0,0,0,0,0,0,0,0,0,0,0,0,0,0,0],"split_type":[0,0,0,0,0,0,0,0,0,0,0,0,0,0,0,0,0,0,0,0,0,0,0,0,0,0,0,0,0,0,0,0,0,0,0,0,0,0,0,0,0,0,0,0,0,0,0,0,0,0,0,0,0,0,0,0,0,0,0,0,0,0,0,0,0,0,0,0,0,0,0,0,0,0,0,0,0,0,0,0,0,0,0,0,0,0,0,0,0,0,0,0,0,0,0,0,0,0,0,0,0,0,0,0,0,0,0],"sum_hessian":[8.658488E4,9.801777E3,7.678311E4,2.7848887E3,7.0168887E3,3.0493333E3,7.373377E4,1.2835554E3,1.5013333E3,3.2337776E3,3.7831108E3,9.435555E2,2.1057776E3,4.0626665E3,6.967111E4,1.1728888E3,1.1066666E2,6.497777E2,8.515555E2,2.702222E2,2.9635554E3,5.0666663E2,3.2764443E3,8.8088885E2,6.2666664E1,1.6799998E2,1.9377777E3,3.7026665E3,3.5999997E2,1.0986666E3,6.857244E4,3.8355554E2,7.893333E2,5.684444E2,8.133333E1,2.8444443E1,8.231111E2,4.3111107E1,2.271111E2,2.7422222E3,2.2133331E2,8.2666664E1,4.2399997E2,3.1537776E3,1.2266666E2,8.6399994E2,1.6888887E1,5.1555553E1,1.1111111E1,1.4799998E2,1.9999998E1,1.7248888E3,2.1288887E2,2.9275554E3,7.751111E2,3.2266666E2,3.7333332E1,3.2044443E2,7.7822217E2,2.0417777E3,6.6530664E4,8.399999E1,2.9955554E2,7.8666664E1,7.106666E2,4.973333E2,7.111111E1,2.1777777E1,5.9555553E1,6.7599994E2,1.471111E2,2.4622222E3,2.7999997E2,1.5333333E2,6.799999E1,7.111111E1,1.1555555E1,2.2222221E2,2.0177777E2,2.6079998E3,5.457778E2,2.222222E0,1.20444435E2,1.4222221E1,8.497777E2,1.4044444E2,7.5555553E0,1.1999999E1,7.9999995E0,4.8444443E1,1.6764443E3,2.0088887E2,1.1999999E1,2.8586665E3,6.8888885E1,5.373333E2,2.3777777E2,2.7111109E1,2.9555554E2,3.102222E2,1.0222221E1,6.831111E2,9.511111E1,1.8546665E3,1.871111E2,4.744844E4,1.908222E4],"tree_param":{"num_deleted":"0","num_feature":"48","num_nodes":"107","size_leaf_vector":"1"}},{"base_weights":[4.976946E-1,1.6376726E-1,5.4380393E-1,-1.5839614E-1,2.7679446E-1,-6.1812513E-2,5.5938363E-1,-2.3318449E-1,4.4621143E-1,3.8828087E-1,-2.6299113E-1,-2.2387064E-1,1.7925525E-2,5.2689296E-1,7.686553E-1,-2.67167E-1,4.4121477E-1,-4.770104E-1,4.6867052E-1,4.4405288E-1,-3.67677E-1,-3.8855277E-2,7.980861E-1,7.8997844E-1,5.0414085E-1,9.228554E-1,5.4454494E-1,-2.999603E-1,4.4055948E-1,-6.7370176E-1,6.666666E-1,3.9956534E-1,1.0979234E0,4.4038007E-1,-4.382394E-1,1.2543822E-2,-2.2292736E-1,-2.1758245E-1,1.3213829E0,9.0000725E-1,-1.7426336E-1,4.978327E-1,4.487936E-1,8.1312233E-1,1.4044693E0,-1.8084864E-1,6.413235E-1,1.6748229E-1,-1.08909875E-1,-2.178316E-1,1.6779661E-1,4.4129035E-1,-2.1758245E-1,1.7857334E-1,4.9326397E-2,-2.1673472E-1,3.5547578E-1,-1.4905056E-1,4.3769E-1,1.691274E-2,-2.2225241E-1,-1.8E-1,4.2644295E-1,2.2793049E-1,3.3938694E-1,-9.478043E-2,4.392573E-1,1.570131E-1,8.8451184E-2,5.3487636E-2,2.5906676E-1,-2.1063831E-1,4.301246E-1,2.2723176E-1,-1.5126054E-1,-3.8403063E-3,2.1453543E-1],"categories":[],"categories_nodes":[],"categories_segments":[],"categories_sizes":[],"default_left":[0,0,0,0,0,0,0,0,0,0,0,0,0,0,0,0,0,0,0,0,0,0,0,0,0,0,0,0,0,0,0,0,0,0,0,0,0,0,0,0,0,0,0,0,0,0,0,0,0,0,0,0,0,0,0,0,0,0,0,0,0,0,0,0,0,0,0,0,0,0,0,0,0,0,0,0,0],"id":1,"left_children":[1,3,5,7,9,11,13,15,-1,17,19,-1,21,23,25,27,-1,29,31,-1,33,35,37,39,41,43,45,47,-1,49,51,53,55,-1,57,59,-1,-1,61,63,65,67,-1,69,71,73,75,-1,-1,-1,-1,-1,-1,-1,-1,-1,-1,-1,-1,-1,-1,-1,-1,-1,-1,-1,-1,-1,-1,-1,-1,-1,-1,-1,-1,-1,-1],"loss_changes":[1.3330879E3,3.8262955E2,7.17875E2,3.3629834E2,4.681925E2,1.0419617E2,5.0391797E2,1.5161588E2,0E0,4.486952E2,2.436345E2,0E0,7.5815285E1,3.839297E2,3.4389697E2,1.4623595E2,0E0,1.2384747E2,2.561062E2,0E0,1.6351384E2,5.7767807E1,9.351862E1,5.421929E2,3.6901953E2,3.1079053E2,2.8545813E2,1.3633038E2,0E0,3.0681747E1,9.174959E1,2.4457251E2,9.3217896E1,0E0,1.3542381E2,4.91827E1,0E0,0E0,1.754184E1,1.4788306E2,1.2212037E2,3.043672E2,0E0,1.5382861E2,6.8477295E1,1.4577708E2,1.7312439E2,0E0,0E0,0E0,0E0,0E0,0E0,0E0,0E0,0E0,0E0,0E0,0E0,0E0,0E0,0E0,0E0,0E0,0E0,0E0,0E0,0E0,0E0,0E0,0E0,0E0,0E0,0E0,0E0,0E0,0E0],"parents":[2147483647,0,0,1,1,2,2,3,3,4,4,5,5,6,6,7,7,9,9,10,10,12,12,13,13,14,14,15,15,17,17,18,18,20,20,21,21,22,22,23,23,24,24,25,25,26,26,27,27,29,29,30,30,31,31,32,32,34,34,35,35,38,38,39,39,40,40,41,41,43,43,44,44,45,45,46,46],"right_children":[2,4,6,8,10,12,14,16,-1,18,20,-1,22,24,26,28,-1,30,32,-1,34,36,38,40,42,44,46,48,-1,50,52,54,56,-1,58,60,-1,-1,62,64,66,68,-1,70,72,74,76,-1,-1,-1,-1,-1,-1,-1,-1,-1,-1,-1,-1,-1,-1,-1,-1,-1,-1,-1,-1,-1,-1,-1,-1,-1,-1,-1,-1,-1,-1],"split_conditions":[-5.6501913E-1,-1.5633783E0,-1.3827668E0,1.015217E0,-6.6661793E-1,-3.5428864E-1,2.6744434E-1,8.7288177E-1,4.4621143E-1,-1.5965093E0,-7.8193057E-1,-2.2387064E-1,4.9403167E-1,-8.825181E-2,1.1726831E0,1.3508749E0,4.4121477E-1,5.7598746E-1,4.5752335E-1,4.4405288E-1,-1.3832116E0,-1.410903E0,-1.9413669E0,4.719435E-3,2.2895327E0,1.003834E0,-6.313379E-1,-1.9056175E0,4.4055948E-1,5.891788E-1,9.657356E-1,-9.695471E-1,-1.813744E0,4.4038007E-1,5.041357E-3,1.6059402E0,-2.2292736E-1,-2.1758245E-1,-1.7085783E0,-2.3401836E-1,4.717647E-1,7.1373504E-1,4.487936E-1,-3.5081187E-1,-2.0411012E0,-1.4867766E0,-6.276761E-1,1.6748229E-1,-1.08909875E-1,-2.178316E-1,1.6779661E-1,4.4129035E-1,-2.1758245E-1,1.7857334E-1,4.9326397E-2,-2.1673472E-1,3.5547578E-1,-1.4905056E-1,4.3769E-1,1.691274E-2,-2.2225241E-1,-1.8E-1,4.2644295E-1,2.2793049E-1,3.3938694E-1,-9.478043E-2,4.392573E-1,1.570131E-1,8.8451184E-2,5.3487636E-2,2.5906676E-1,-2.1063831E-1,4.301246E-1,2.2723176E-1,-1.5126054E-1,-3.8403063E-3,2.1453543E-1],"split_indices":[3,3,4,38,3,3,16,26,0,26,2,0,40,3,16,37,0,12,25,0,37,4,4,0,2,16,36,39,0,14,12,3,4,0,2,15,0,0,2,3,1,39,0,3,39,27,39,0,0,0,0,0,0,0,0,0,0,0,0,0,0,0,0,0,0,0,0,0,0,0,0,0,0,0,0,0,0],"split_type":[0,0,0,0,0,0,0,0,0,0,0,0,0,0,0,0,0,0,0,0,0,0,0,0,0,0,0,0,0,0,0,0,0,0,0,0,0,0,0,0,0,0,0,0,0,0,0,0,0,0,0,0,0,0,0,0,0,0,0,0,0,0,0,0,0,0,0,0,0,0,0,0,0,0,0,0,0],"sum_hessian":[8.658488E4,1.0505777E4,7.607911E4,2.7284443E3,7.777333E3,1.9079999E3,7.417111E4,2.6106665E3,1.1777777E2,6.4462217E3,1.3311111E3,1.9822221E2,1.7097777E3,6.420622E4,9.964889E3,2.5604443E3,5.0222218E1,5.4755554E2,5.8986665E3,7.4666664E1,1.2564443E3,1.5946666E3,1.1511111E2,5.1079995E3,5.909822E4,5.901333E3,4.0635554E3,2.5137776E3,4.6666664E1,4.6755554E2,7.999999E1,5.3164443E3,5.8222217E2,4.5777775E1,1.2106666E3,1.487111E3,1.0755555E2,2.9333332E1,8.577777E1,4.5848887E3,5.231111E2,5.872622E4,3.7199997E2,4.8084443E3,1.0928888E3,4.782222E2,3.585333E3,1.7155554E2,2.3422222E3,4.4888885E2,1.8666666E1,5.0666664E1,2.9333332E1,2.9008887E3,2.4155554E3,2.6222221E1,5.5599994E2,1.1751111E3,3.5555553E1,1.4062222E3,8.0888885E1,3.9999998E0,8.177777E1,2.8568887E3,1.7279999E3,4.822222E2,4.0888885E1,5.2160887E4,6.565333E3,3.542222E2,4.454222E3,1.4666666E1,1.0782222E3,1.2222221E2,3.5599997E2,3.6355554E2,3.2217776E3],"tree_param":{"num_deleted":"0","num_feature":"48","num_nodes":"77","size_leaf_vector":"1"}},{"base_weights":[-1.1727859E-1,-5.697147E-1,-4.0855158E-2,1.5879564E-1,-6.271544E-1,2.460241E-1,-1.1774187E-1,-2.8260466E-1,9.6468973E-1,-6.3361365E-1,4.3753847E-1,-5.7056105E-1,2.8394902E-1,-6.3794625E-1,-7.770857E-2,-4.5473823E-1,1.0289855E0,1.192801E0,-1.3555998E-1,8.844849E-2,-6.482036E-1,-2.2444446E-1,-3.21633E-1,2.2731589E-1,7.8576136E-1,-7.343786E-1,-4.96427E-1,-1.3457933E-1,1.804104E-1,4.3424127E-1,-5.632133E-1,1.2333932E0,-1.972603E-1,-2.1600004E-1,1.3834621E0,-2.1957107E-1,4.2206898E-1,-2.3323448E-1,4.3969467E-1,-6.917845E-1,-4.7383115E-1,4.370607E-1,-5.6063884E-1,2.796078E-1,-3.1985614E-1,4.4843572E-1,6.1934435E-1,-4.2359772E-1,-7.4144024E-1,7.0670825E-1,-5.488681E-1,-5.10137E-1,-1.0267742E-1,2.5224525E-1,-1.8957946E-1,-1.8399172E-1,2.7785236E-1,-1.956522E-1,4.418511E-1,-1.8679248E-1,4.280946E-1,-1.24567494E-1,2.4939759E-1,-2.1341376E-1,-1.211837E-1,-2.2122668E-1,-1.0712624E-1,4.0235296E-1,-1.8915665E-1,-5.1861417E-2,1.0227672E-1,4.4256884E-1,-1.2514716E-1,2.677153E-1,7.2602436E-2,-2.2044946E-1,4.0000004E-1,-1.8787026E-1,-2.2349769E-1,-3.1230299E-2,4.3783784E-1,-5.906156E-2,-1.9110277E-1,-1.6084218E-1,4.400978E-1,-1.3180642E-1,-2.0945199E-2,9.137917E-2,-1.0106155E-1,1.17295206E-1,-1.7167151E-1],"categories":[],"categories_nodes":[],"categories_segments":[],"categories_sizes":[],"default_left":[0,0,0,0,0,0,0,0,0,0,0,0,0,0,0,0,0,0,0,0,0,0,0,0,0,0,0,0,0,0,0,0,0,0,0,0,0,0,0,0,0,0,0,0,0,0,0,0,0,0,0,0,0,0,0,0,0,0,0,0,0,0,0,0,0,0,0,0,0,0,0,0,0,0,0,0,0,0,0,0,0,0,0,0,0,0,0,0,0,0,0],"id":2,"left_children":[1,3,5,7,9,11,13,15,17,19,-1,21,23,25,27,29,31,33,35,37,39,-1,41,43,45,47,49,51,53,-1,55,57,-1,-1,59,-1,-1,61,-1,63,65,-1,67,69,71,-1,73,75,77,79,81,83,85,87,89,-1,-1,-1,-1,-1,-1,-1,-1,-1,-1,-1,-1,-1,-1,-1,-1,-1,-1,-1,-1,-1,-1,-1,-1,-1,-1,-1,-1,-1,-1,-1,-1,-1,-1,-1,-1],"loss_changes":[2.993833E3,5.236738E2,1.6339114E3,3.2583722E2,1.5716504E2,4.8504236E2,1.2165505E3,1.3414807E2,8.150687E1,1.2186914E2,0E0,3.049266E1,4.2505164E2,5.660266E1,7.963161E2,1.089615E2,2.4597878E1,9.893741E1,5.3051434E1,1.02187645E2,8.580176E1,0E0,1.24607285E2,3.8483777E2,1.7807068E2,5.1297607E0,1.0731778E2,5.325288E2,2.6036322E2,0E0,3.7614517E1,2.890261E1,0E0,0E0,2.2239502E1,0E0,0E0,3.6617577E1,0E0,5.0842773E1,6.9573425E1,0E0,3.506134E1,3.4059247E2,2.0557352E2,0E0,1.2654263E2,3.239133E1,5.253906E-1,4.362154E1,5.0276947E1,1.7970703E2,4.532638E2,2.5307446E2,3.5412106E2,0E0,0E0,0E0,0E0,0E0,0E0,0E0,0E0,0E0,0E0,0E0,0E0,0E0,0E0,0E0,0E0,0E0,0E0,0E0,0E0,0E0,0E0,0E0,0E0,0E0,0E0,0E0,0E0,0E0,0E0,0E0,0E0,0E0,0E0,0E0,0E0],"parents":[2147483647,0,0,1,1,2,2,3,3,4,4,5,5,6,6,7,7,8,8,9,9,11,11,12,12,13,13,14,14,15,15,16,16,17,17,18,18,19,19,20,20,22,22,23,23,24,24,25,25,26,26,27,27,28,28,30,30,31,31,34,34,37,37,39,39,40,40,42,42,43,43,44,44,46,46,47,47,48,48,49,49,50,50,51,51,52,52,53,53,54,54],"right_children":[2,4,6,8,10,12,14,16,18,20,-1,22,24,26,28,30,32,34,36,38,40,-1,42,44,46,48,50,52,54,-1,56,58,-1,-1,60,-1,-1,62,-1,64,66,-1,68,70,72,-1,74,76,78,80,82,84,86,88,90,-1,-1,-1,-1,-1,-1,-1,-1,-1,-1,-1,-1,-1,-1,-1,-1,-1,-1,-1,-1,-1,-1,-1,-1,-1,-1,-1,-1,-1,-1,-1,-1,-1,-1,-1,-1],"split_conditions":[-5.3256935E-1,-3.9239082E-1,-2.737135E-1,1.4738856E-1,2.6031842E0,-1.0080172E0,-8.088727E-1,1.4616798E-1,1.295949E0,-3.9239082E-1,4.3753847E-1,-1.2965734E0,-4.6277443E-1,-1.1632686E0,9.9786155E-2,-8.1564456E-1,1.0188786E0,-6.349996E-1,-8.6279756E-1,-5.712117E-1,-7.4709857E-1,-2.2444446E-1,-1.2811295E0,-5.712117E-1,-1.3920627E-2,-9.915458E-1,-6.936899E-1,-7.826891E-1,5.2331156E-1,4.3424127E-1,3.646508E-1,-1.4518515E0,-1.972603E-1,-2.1600004E-1,-1.4518515E0,-2.1957107E-1,4.2206898E-1,2.9873976E-1,4.3969467E-1,6.4660347E-1,-1.3503295E-1,4.370607E-1,-5.914812E-1,-8.825181E-2,-3.5428864E-1,4.4843572E-1,-3.5371113E-1,-1.0033152E0,-7.9582214E-1,-1.1198819E0,-8.592684E-1,1.4278104E0,-2.5359124E-1,1.2318239E0,5.416341E-1,-1.8399172E-1,2.7785236E-1,-1.956522E-1,4.418511E-1,-1.8679248E-1,4.280946E-1,-1.24567494E-1,2.4939759E-1,-2.1341376E-1,-1.211837E-1,-2.2122668E-1,-1.0712624E-1,4.0235296E-1,-1.8915665E-1,-5.1861417E-2,1.0227672E-1,4.4256884E-1,-1.2514716E-1,2.677153E-1,7.2602436E-2,-2.2044946E-1,4.0000004E-1,-1.8787026E-1,-2.2349769E-1,-3.1230299E-2,4.3783784E-1,-5.906156E-2,-1.9110277E-1,-1.6084218E-1,4.400978E-1,-1.3180642E-1,-2.0945199E-2,9.137917E-2,-1.0106155E-1,1.17295206E-1,-1.7167151E-1],"split_indices":[4,16,15,37,37,26,26,39,36,15,0,26,15,26,39,39,39,40,4,15,4,0,27,15,26,16,14,40,14,0,38,4,0,0,4,0,0,37,0,36,26,0,0,3,3,0,15,16,13,14,24,1,1,1,39,0,0,0,0,0,0,0,0,0,0,0,0,0,0,0,0,0,0,0,0,0,0,0,0,0,0,0,0,0,0,0,0,0,0,0,0],"split_type":[0,0,0,0,0,0,0,0,0,0,0,0,0,0,0,0,0,0,0,0,0,0,0,0,0,0,0,0,0,0,0,0,0,0,0,0,0,0,0,0,0,0,0,0,0,0,0,0,0,0,0,0,0,0,0,0,0,0,0,0,0,0,0,0,0,0,0,0,0,0,0,0,0,0,0,0,0,0,0,0,0,0,0,0,0,0,0,0,0,0,0],"sum_hessian":[8.658488E4,1.251111E4,7.407377E4,9.1422217E2,1.1596889E4,1.5655999E4,5.8417773E4,5.911111E2,3.2311108E2,1.1561777E4,3.511111E1,6.9422217E2,1.4961777E4,4.173333E3,5.424444E4,5.231111E2,6.799999E1,2.6755554E2,5.5555553E1,2.2888887E2,1.1332889E4,4.0399997E2,2.902222E2,1.3445777E4,1.5159999E3,2.4795554E3,1.6937777E3,4.445111E4,9.793333E3,2.7555553E1,4.955555E2,6.0888885E1,7.1111107E0,2.3999998E1,2.4355554E2,4.0444443E1,1.5111111E1,1.8622221E2,4.2666664E1,9.064444E3,2.2684443E3,3.3777775E1,2.5644443E2,1.2273333E4,1.1724443E3,2.8666666E2,1.2293333E3,5.6444443E1,2.423111E3,7.022222E1,1.6235554E3,3.4791108E3,4.0971996E4,8.201333E3,1.5919999E3,4.7999997E2,1.5555554E1,6.666666E0,5.4222218E1,4.8888884E0,2.3866666E2,1.5955554E2,2.6666664E1,8.485333E3,5.791111E2,6.946666E2,1.5737777E3,8.444444E0,2.4799998E2,1.4644443E3,1.0808889E4,5.9555553E1,1.1128888E3,7.124444E2,5.1688885E2,4.8444443E1,7.9999995E0,7.777777E1,2.3453333E3,3.422222E1,3.5999996E1,3.2577777E2,1.2977777E3,3.4346665E3,4.4444443E1,3.642222E3,3.7329777E4,7.532444E3,6.6888885E2,6.324444E2,9.595555E2],"tree_param":{"num_deleted":"0","num_feature":"48","num_nodes":"91","size_leaf_vector":"1"}},{"base_weights":[-3.202683E-1,3.2833743E-1,-4.1036943E-1,4.0281373E-1,-2.9914984E-1,1.9238886E-1,-4.5413366E-1,8.681464E-1,3.394764E-1,3.5966206E-2,-5.769014E-1,2.8250632E-1,-3.95204E-1,2.5293106E-1,-4.7608837E-1,9.523442E-1,-2.4458762E-1,2.8172323E-1,9.225108E-1,-3.152546E-1,8.042891E-1,-6.8735963E-1,3.6688244E-1,6.541248E-1,1.8609136E-1,4.019641E-1,-6.881127E-1,1.6628294E-1,1.1090362E0,-7.500742E-2,-5.091743E-1,1.7111401E-1,1.0186807E0,4.1877776E-1,-1.0271428E-2,-2.247737E-1,1.1211075E0,3.4964088E-1,-4.728423E-1,-2.1906574E-1,1.0962938E0,-2.1339579E-1,3.0562106E-1,-2.0058744E-1,6.7615634E-1,7.2055924E-1,7.185396E-2,7.278778E-1,-2.674068E-1,-7.071408E-1,3.6777E-1,5.157515E-1,-1.14110224E-1,5.5734956E-1,1.3993499E0,-1.5615425E-1,8.4327877E-1,3.6436063E-1,-5.197655E-1,-2.5295058E-1,3.2132834E-1,3.1405765E-1,-2.2939388E-1,1.1056767E-1,3.5084915E-1,3.7186754E-1,-4.966422E-2,-2.1982785E-1,3.5471028E-1,-2.2699099E-2,-2.2324966E-1,-1.903101E-1,3.518501E-1,2.0883368E-1,-2.1327232E-1,-2.1837556E-1,2.542151E-1,-1.8283434E-4,2.6424396E-1,-2.2154409E-1,2.7489728E-1,-1.9678016E-1,3.1705275E-1,-2.1473224E-1,3.070354E-1,2.6320738E-1,9.529194E-2,-5.5081837E-2,4.498418E-1,2.4223037E-1,-2.0436549E-1,4.396827E-1,-1.6380426E-1,-2.1985603E-2,-2.0068294E-1,3.1720543E-1,-2.1309772E-1,2.285996E-1,5.6816783E-2,1.3150666E-2,-1.6036144E-1],"categories":[],"categories_nodes":[],"categories_segments":[],"categories_sizes":[],"default_left":[0,0,0,0,0,0,0,0,0,0,0,0,0,0,0,0,0,0,0,0,0,0,0,0,0,0,0,0,0,0,0,0,0,0,0,0,0,0,0,0,0,0,0,0,0,0,0,0,0,0,0,0,0,0,0,0,0,0,0,0,0,0,0,0,0,0,0,0,0,0,0,0,0,0,0,0,0,0,0,0,0,0,0,0,0,0,0,0,0,0,0,0,0,0,0,0,0,0,0,0,0],"id":3,"left_children":[1,3,5,7,9,11,13,15,17,19,21,23,25,27,29,31,-1,33,35,37,39,41,-1,43,45,47,49,51,53,55,57,59,61,63,65,-1,67,-1,69,-1,71,-1,-1,-1,73,75,77,79,81,83,-1,85,87,89,91,93,95,97,99,-1,-1,-1,-1,-1,-1,-1,-1,-1,-1,-1,-1,-1,-1,-1,-1,-1,-1,-1,-1,-1,-1,-1,-1,-1,-1,-1,-1,-1,-1,-1,-1,-1,-1,-1,-1,-1,-1,-1,-1,-1,-1],"loss_changes":[4.703201E3,4.5887048E2,1.8640801E3,2.5834045E2,9.701531E1,2.5342995E2,1.0227783E3,1.4970288E2,2.5987903E2,1.279487E2,1.14133255E2,1.4851166E2,1.4890869E2,1.4703381E2,8.4785547E2,5.170685E1,0E0,2.8137103E2,2.3186981E2,7.649783E1,6.744615E1,2.2698364E1,0E0,2.5344269E1,2.0113951E2,3.764663E1,1.7834E1,1.767697E2,2.8406204E1,3.6304785E2,5.462793E2,7.352378E1,4.715924E1,1.7996185E2,4.3625366E2,0E0,7.154834E1,0E0,3.1720634E1,0E0,1.7349243E1,0E0,0E0,0E0,2.3764526E1,1.0719586E2,1.5921275E2,3.265552E1,2.9993053E1,7.634018E0,0E0,5.7245987E1,1.12569244E2,2.0526428E1,1.6105057E1,1.9014334E2,1.323182E2,4.909202E1,4.8557812E2,0E0,0E0,0E0,0E0,0E0,0E0,0E0,0E0,0E0,0E0,0E0,0E0,0E0,0E0,0E0,0E0,0E0,0E0,0E0,0E0,0E0,0E0,0E0,0E0,0E0,0E0,0E0,0E0,0E0,0E0,0E0,0E0,0E0,0E0,0E0,0E0,0E0,0E0,0E0,0E0,0E0,0E0],"parents":[2147483647,0,0,1,1,2,2,3,3,4,4,5,5,6,6,7,7,8,8,9,9,10,10,11,11,12,12,13,13,14,14,15,15,17,17,18,18,19,19,20,20,21,21,23,23,24,24,25,25,26,26,27,27,28,28,29,29,30,30,31,31,32,32,33,33,34,34,36,36,38,38,40,40,44,44,45,45,46,46,47,47,48,48,49,49,51,51,52,52,53,53,54,54,55,55,56,56,57,57,58,58],"right_children":[2,4,6,8,10,12,14,16,18,20,22,24,26,28,30,32,-1,34,36,38,40,42,-1,44,46,48,50,52,54,56,58,60,62,64,66,-1,68,-1,70,-1,72,-1,-1,-1,74,76,78,80,82,84,-1,86,88,90,92,94,96,98,100,-1,-1,-1,-1,-1,-1,-1,-1,-1,-1,-1,-1,-1,-1,-1,-1,-1,-1,-1,-1,-1,-1,-1,-1,-1,-1,-1,-1,-1,-1,-1,-1,-1,-1,-1,-1,-1,-1,-1,-1,-1,-1],"split_conditions":[-7.748483E-1,3.829594E-1,-5.9070855E-1,-2.2902281E0,-1.410903E0,2.3282877E-1,-5.914812E-1,1.16132885E-1,-8.4026295E-1,-1.6319221E0,1.9480654E0,-1.5633783E0,-1.3760065E0,1.0849495E0,-8.153754E-1,-1.2550514E0,-2.4458762E-1,-1.2102164E0,-7.9913116E-1,-5.1904505E-1,-9.9218524E-1,2.071885E0,3.6688244E-1,-2.1541138E0,-1.2169156E0,7.942929E-1,1.9480654E0,-8.967926E-1,-9.6555525E-1,1.2987386E0,-8.0581725E-1,-2.6334748E0,1.4214359E-1,1.6059402E0,-1.2778782E0,-2.247737E-1,-5.679474E-1,3.4964088E-1,-2.1302712E0,-2.1906574E-1,-7.7265906E-1,-2.1339579E-1,3.0562106E-1,-2.0058744E-1,1.3508749E0,-1.4493405E0,1.0201107E0,-3.7989956E-1,-1.6000003E0,2.071885E0,3.6777E-1,-1.5987126E0,9.123442E-1,4.9403167E-1,7.05191E-1,3.2651326E-1,1.9035726E0,-1.5801183E0,-8.413861E-1,-2.5295058E-1,3.2132834E-1,3.1405765E-1,-2.2939388E-1,1.1056767E-1,3.5084915E-1,3.7186754E-1,-4.966422E-2,-2.1982785E-1,3.5471028E-1,-2.2699099E-2,-2.2324966E-1,-1.903101E-1,3.518501E-1,2.0883368E-1,-2.1327232E-1,-2.1837556E-1,2.542151E-1,-1.8283434E-4,2.6424396E-1,-2.2154409E-1,2.7489728E-1,-1.9678016E-1,3.1705275E-1,-2.1473224E-1,3.070354E-1,2.6320738E-1,9.529194E-2,-5.5081837E-2,4.498418E-1,2.4223037E-1,-2.0436549E-1,4.396827E-1,-1.6380426E-1,-2.1985603E-2,-2.0068294E-1,3.1720543E-1,-2.1309772E-1,2.285996E-1,5.6816783E-2,1.3150666E-2,-1.6036144E-1],"split_indices":[4,38,3,4,4,38,0,28,4,4,14,3,3,12,28,38,0,4,15,39,12,15,0,28,28,38,14,0,0,16,1,4,27,15,25,0,14,0,4,0,16,0,0,0,37,3,14,37,3,15,0,0,14,40,38,2,16,1,26,0,0,0,0,0,0,0,0,0,0,0,0,0,0,0,0,0,0,0,0,0,0,0,0,0,0,0,0,0,0,0,0,0,0,0,0,0,0,0,0,0,0],"split_type":[0,0,0,0,0,0,0,0,0,0,0,0,0,0,0,0,0,0,0,0,0,0,0,0,0,0,0,0,0,0,0,0,0,0,0,0,0,0,0,0,0,0,0,0,0,0,0,0,0,0,0,0,0,0,0,0,0,0,0,0,0,0,0,0,0,0,0,0,0,0,0,0,0,0,0,0,0,0,0,0,0,0,0,0,0,0,0,0,0,0,0,0,0,0,0,0,0,0,0,0,0],"sum_hessian":[8.047572E4,9.815414E3,7.0660305E4,8.774347E3,1.0410673E3,4.7828887E3,6.5877414E4,1.0496887E3,7.724658E3,4.722061E2,5.6886115E2,4.147342E3,6.35547E2,1.9836104E3,6.3893805E4,1.00010254E3,4.9586185E1,7.0297964E3,6.948617E2,3.244713E2,1.4773477E2,5.3655054E2,3.2310566E1,8.5316156E2,3.2941804E3,1.7067436E2,4.6487262E2,1.802382E3,1.8122849E2,4.8693105E3,5.9024492E4,7.855514E1,9.215474E2,4.7839185E3,2.2458784E3,7.348697E1,6.213747E2,3.05954E1,2.9387592E2,2.3378448E1,1.2435632E2,5.296948E2,6.855724E0,1.3496531E1,8.39665E2,5.7917255E2,2.7150078E3,1.1472693E2,5.5947433E1,4.6092093E2,3.9516947E0,8.019859E2,1.00039606E3,6.3492577E1,1.177359E2,4.47472E3,3.9459073E2,7.0667017E2,5.8317824E4,3.6961952E1,4.1593185E1,9.076192E2,1.3928206E1,4.485364E3,2.9855457E2,2.474167E2,1.9984617E3,1.952559E1,6.018491E2,1.1979374E2,1.7408218E2,4.9581513E0,1.1939818E2,8.282471E2,1.1417954E1,4.6246426E1,5.329261E2,2.492719E3,2.2228877E2,1.2732533E1,1.0199439E2,4.3646484E1,1.2300951E1,4.5921646E2,1.7044692E0,2.826486E2,5.193373E2,9.5993835E2,4.045767E1,5.311581E1,1.0376767E1,1.140964E2,3.6395028E0,3.8531733E3,6.2154663E2,3.47085E2,4.7505722E1,2.1491095E2,4.917592E2,1.4894813E3,5.682834E4],"tree_param":{"num_deleted":"0","num_feature":"48","num_nodes":"101","size_leaf_vector":"1"}},{"base_weights":[3.628144E-1,-2.540156E-1,3.767075E-1,-3.2032073E-1,3.4136027E-1,1.8245792E-1,3.9932197E-1,8.253287E-1,-4.070812E-1,2.5393564E-1,-2.58318E-1,3.9454097E-1,1.1853566E0,2.186588E-1,4.3241248E-1,-2.1780714E-1,-2.6309252E-1,-4.918069E-2,3.5818598E-1,3.259285E-1,-3.5081622E-1,3.750391E-1,5.815164E-1,3.848629E-1,3.3219942E-1,-2.0882298E-1,3.7460706E-1,4.6772167E-1,-3.1836233E-1,3.1593835E-1,-3.273563E-1,5.102552E-2,4.4827437E-1,-2.164543E-1,-5.9952702E-2,3.9616632E-1,2.3421288E-1,6.4055127E-1,-3.7056368E-2,5.1708736E-2,-1.3784601E-1,-1.0164841E-1,1.6960312E-1,3.829591E-1,-1.12501755E-1,2.3017545E-1,-2.5093598E-2,-6.326899E-2,1.505007E-1,1.7284572E-1,-1.11196525E-1,1.10459216E-1,1.6799295E-1,-6.972075E-2,1.136707E-1,1.6540441E-1,3.3897185E-1,2.1907847E-1,-8.669823E-2],"categories":[],"categories_nodes":[],"categories_segments":[],"categories_sizes":[],"default_left":[0,0,0,0,0,0,0,0,0,0,0,0,0,0,0,0,0,0,0,0,0,0,0,0,0,0,0,0,0,0,0,0,0,0,0,0,0,0,0,0,0,0,0,0,0,0,0,0,0,0,0,0,0,0,0,0,0,0,0],"id":4,"left_children":[1,3,5,7,-1,9,11,13,15,17,19,21,23,25,-1,-1,27,29,31,-1,33,35,37,-1,-1,-1,-1,-1,39,41,43,45,47,-1,49,51,53,55,57,-1,-1,-1,-1,-1,-1,-1,-1,-1,-1,-1,-1,-1,-1,-1,-1,-1,-1,-1,-1],"loss_changes":[7.859531E2,1.8683846E2,3.9388965E2,1.9211755E2,0E0,2.9476605E2,3.0141504E2,5.0573425E1,8.221005E1,2.5437201E2,1.6279254E2,2.9092773E2,2.270935E0,6.661796E1,0E0,0E0,1.25152626E2,2.0941016E2,1.6571393E2,0E0,1.3176138E2,2.1503906E2,2.7535107E2,0E0,0E0,0E0,0E0,0E0,8.3332535E1,1.4579742E2,8.990573E1,1.3118613E2,1.6309961E2,0E0,1.3580603E2,2.8785254E2,6.3708984E2,2.9982568E2,1.2737769E2,0E0,0E0,0E0,0E0,0E0,0E0,0E0,0E0,0E0,0E0,0E0,0E0,0E0,0E0,0E0,0E0,0E0,0E0,0E0,0E0],"parents":[2147483647,0,0,1,1,2,2,3,3,5,5,6,6,7,7,8,8,9,9,10,10,11,11,12,12,13,13,16,16,17,17,18,18,20,20,21,21,22,22,28,28,29,29,30,30,31,31,32,32,34,34,35,35,36,36,37,37,38,38],"right_children":[2,4,6,8,-1,10,12,14,16,18,20,22,24,26,-1,-1,28,30,32,-1,34,36,38,-1,-1,-1,-1,-1,40,42,44,46,48,-1,50,52,54,56,58,-1,-1,-1,-1,-1,-1,-1,-1,-1,-1,-1,-1,-1,-1,-1,-1,-1,-1,-1,-1],"split_conditions":[-1.5801183E0,1.1983031E0,-5.6501913E-1,-1.2550514E0,3.4136027E-1,-6.6661793E-1,2.2895327E0,-1.6285471E0,-1.5287273E-1,-8.413861E-1,-7.8193057E-1,5.127138E-1,2.2895327E0,-2.4159067E0,4.3241248E-1,-2.1780714E-1,-0E0,-1.3155495E0,-1.5094756E0,3.259285E-1,-5.6128484E-1,7.542079E-1,2.071885E0,3.848629E-1,3.3219942E-1,-2.0882298E-1,3.7460706E-1,4.6772167E-1,-5.999743E-1,-1.9043072E0,-1.3155495E0,-7.4140745E-1,-1.1697712E0,-2.164543E-1,-1.7973885E-1,4.053928E-2,8.834486E-1,5.916776E-1,-2.6150385E-1,5.1708736E-2,-1.3784601E-1,-1.0164841E-1,1.6960312E-1,3.829591E-1,-1.12501755E-1,2.3017545E-1,-2.5093598E-2,-6.326899E-2,1.505007E-1,1.7284572E-1,-1.11196525E-1,1.10459216E-1,1.6799295E-1,-6.972075E-2,1.136707E-1,1.6540441E-1,3.3897185E-1,2.1907847E-1,-8.669823E-2],"split_indices":[1,37,3,38,0,3,0,38,38,26,2,15,2,1,0,0,38,3,3,0,2,28,15,0,0,0,0,0,25,3,2,28,28,0,25,28,28,37,40,0,0,0,0,0,0,0,0,0,0,0,0,0,0,0,0,0,0,0,0],"split_type":[0,0,0,0,0,0,0,0,0,0,0,0,0,0,0,0,0,0,0,0,0,0,0,0,0,0,0,0,0,0,0,0,0,0,0,0,0,0,0,0,0,0,0,0,0,0,0,0,0,0,0,0,0,0,0,0,0,0,0],"sum_hessian":[9.170113E4,2.0195446E3,8.9681586E4,1.9284489E3,9.109563E1,9.352891E3,8.0328695E4,1.3516165E2,1.7932872E3,8.0481924E3,1.3046984E3,7.984455E4,4.8414862E2,6.878173E1,6.637992E1,5.565211E2,1.2367661E3,2.0597705E3,5.988422E3,8.327625E1,1.2214221E3,7.230592E4,7.5386245E3,2.083283E2,2.7582034E2,3.6601456E1,3.2180275E1,3.5608185E1,1.201158E3,8.906341E2,1.1691364E3,1.3584141E3,4.630008E3,5.36362E2,6.850601E2,6.2871863E4,9.4340625E3,6.881808E3,6.5681647E2,2.6823087E2,9.329271E2,2.4557228E2,6.450618E2,3.2987423E1,1.1361489E3,2.1425182E2,1.1441622E3,3.46719E2,4.2832886E3,2.2452754E2,4.6053256E2,5.370544E4,9.16642E3,2.2328003E3,7.2012617E3,5.822556E3,1.059252E3,1.618814E2,4.9493506E2],"tree_param":{"num_deleted":"0","num_feature":"48","num_nodes":"59","size_leaf_vector":"1"}},{"base_weights":[-8.8956445E-2,-4.9785218E-1,-2.6024217E-2,1.5925945E-1,-5.5433834E-1,-6.6056746E-1,1.195692E-3,-2.2613323E-1,7.7973646E-1,-5.605315E-1,3.1324455E-1,-2.3651074E-1,-6.8444943E-1,2.2845131E-1,-6.3265964E-2,-3.8643405E-1,8.275909E-1,-1.9888756E-1,8.798452E-1,1.0263644E-1,-5.752107E-1,-2.0965913E-1,3.895747E-1,-5.435032E-1,-6.923378E-1,1.8241921E-1,6.247929E-1,-4.0984112E-1,-2.735618E-2,3.5570022E-1,-4.8370972E-1,9.7338676E-1,-1.7943259E-1,1.0626588E0,-7.340676E-2,-1.7946571E-1,3.4267685E-1,-6.764888E-1,-4.9979815E-1,-2.0797046E-1,4.164577E-1,-5.72985E-1,-2.082824E-1,2.2526574E-1,-2.8616545E-1,1.1838912E0,4.7827524E-1,-4.484448E-1,8.972954E-1,-6.8809666E-2,2.5016055E-1,-1.5927705E-1,4.0089712E-1,-1.6971523E-1,3.3725673E-1,-1.5939096E-1,3.267423E-1,-1.96902E-1,3.3524054E-1,-1.0549859E-1,2.0392928E-1,-1.0932062E-1,-2.0400523E-1,1.4829017E-1,-1.6074575E-1,-2.079372E-1,3.342025E-1,4.2572625E-2,1.4757432E-1,-1.0830714E-1,4.7353995E-1,3.3789128E-1,3.8269606E-1,1.6720353E-1,-1.8644558E-1,4.808331E-2,-1.5036434E-1,4.1761294E-1,-2.0922762E-1,-1.9946593E-1,-1.5607855E-2,1.558448E-1,1.1667644E-3],"categories":[],"categories_nodes":[],"categories_segments":[],"categories_sizes":[],"default_left":[0,0,0,0,0,0,0,0,0,0,0,0,0,0,0,0,0,0,0,0,0,0,0,0,0,0,0,0,0,0,0,0,0,0,0,0,0,0,0,0,0,0,0,0,0,0,0,0,0,0,0,0,0,0,0,0,0,0,0,0,0,0,0,0,0,0,0,0,0,0,0,0,0,0,0,0,0,0,0,0,0,0,0],"id":5,"left_children":[1,3,5,7,9,11,13,15,17,19,-1,21,23,25,27,29,31,-1,33,35,37,-1,-1,39,41,43,45,47,49,-1,51,53,-1,55,57,59,-1,61,63,-1,-1,65,-1,67,69,71,73,75,77,79,81,-1,-1,-1,-1,-1,-1,-1,-1,-1,-1,-1,-1,-1,-1,-1,-1,-1,-1,-1,-1,-1,-1,-1,-1,-1,-1,-1,-1,-1,-1,-1,-1],"loss_changes":[2.168586E3,4.1730542E2,1.2614698E3,2.1312631E2,1.03055176E2,3.026123E1,1.0259254E3,9.323945E1,4.989421E1,1.0043921E2,0E0,1.1566909E2,2.7851562E0,2.8222406E2,6.789774E2,7.369562E1,1.5746593E1,0E0,5.579149E1,6.594375E1,7.671338E1,0E0,0E0,4.5896416E1,2.2387695E-1,2.7846323E2,1.3131335E2,2.5886304E2,5.687325E2,0E0,3.9463974E1,1.6086136E1,0E0,1.1904877E1,3.7096443E1,2.6452942E1,0E0,4.491089E0,2.0746863E2,0E0,0E0,1.0634994E1,0E0,2.8233038E2,1.6278445E2,3.2608032E-1,1.1141693E2,1.5991333E2,1.1715968E2,4.3026996E2,4.2614163E2,0E0,0E0,0E0,0E0,0E0,0E0,0E0,0E0,0E0,0E0,0E0,0E0,0E0,0E0,0E0,0E0,0E0,0E0,0E0,0E0,0E0,0E0,0E0,0E0,0E0,0E0,0E0,0E0,0E0,0E0,0E0,0E0],"parents":[2147483647,0,0,1,1,2,2,3,3,4,4,5,5,6,6,7,7,8,8,9,9,11,11,12,12,13,13,14,14,15,15,16,16,18,18,19,19,20,20,23,23,24,24,25,25,26,26,27,27,28,28,30,30,31,31,33,33,34,34,35,35,37,37,38,38,41,41,43,43,44,44,45,45,46,46,47,47,48,48,49,49,50,50],"right_children":[2,4,6,8,10,12,14,16,18,20,-1,22,24,26,28,30,32,-1,34,36,38,-1,-1,40,42,44,46,48,50,-1,52,54,-1,56,58,60,-1,62,64,-1,-1,66,-1,68,70,72,74,76,78,80,82,-1,-1,-1,-1,-1,-1,-1,-1,-1,-1,-1,-1,-1,-1,-1,-1,-1,-1,-1,-1,-1,-1,-1,-1,-1,-1,-1,-1,-1,-1,-1,-1],"split_conditions":[-5.3256935E-1,-3.9239082E-1,-1.2169156E0,1.4738856E-1,2.6031842E0,-9.915458E-1,-2.737135E-1,1.4616798E-1,-6.349996E-1,-3.9239082E-1,3.1324455E-1,-1.0033152E0,-7.9582214E-1,-4.6277443E-1,-3.7379667E-1,-1.0548772E0,1.0188786E0,-1.9888756E-1,1.295949E0,-5.712117E-1,-3.1873354E-1,-2.0965913E-1,3.895747E-1,-8.488558E-1,-7.9237896E-1,-5.712117E-1,-1.2527895E-1,1.4278104E0,4.8245254E-1,3.5570022E-1,-5.5976427E-1,-1.4518515E0,-1.7943259E-1,-1.4518515E0,-8.6279756E-1,1.4616798E-1,3.4267685E-1,-4.7381938E-1,-1.805517E-1,-2.0797046E-1,4.164577E-1,-8.555946E-1,-2.082824E-1,7.712774E-1,3.9775507E0,-1.3920627E-2,1.6753689E0,-2.7787212E-1,2.3974411E0,-9.640744E-1,8.8537085E-1,-1.5927705E-1,4.0089712E-1,-1.6971523E-1,3.3725673E-1,-1.5939096E-1,3.267423E-1,-1.96902E-1,3.3524054E-1,-1.0549859E-1,2.0392928E-1,-1.0932062E-1,-2.0400523E-1,1.4829017E-1,-1.6074575E-1,-2.079372E-1,3.342025E-1,4.2572625E-2,1.4757432E-1,-1.0830714E-1,4.7353995E-1,3.3789128E-1,3.8269606E-1,1.6720353E-1,-1.8644558E-1,4.808331E-2,-1.5036434E-1,4.1761294E-1,-2.0922762E-1,-1.9946593E-1,-1.5607855E-2,1.558448E-1,1.1667644E-3],"split_indices":[4,16,28,37,37,16,15,39,40,15,0,16,13,15,38,36,39,0,36,15,28,0,0,13,15,15,28,1,3,0,16,4,0,4,4,39,0,13,28,0,0,15,0,28,37,26,4,16,1,2,3,0,0,0,0,0,0,0,0,0,0,0,0,0,0,0,0,0,0,0,0,0,0,0,0,0,0,0,0,0,0,0,0],"split_type":[0,0,0,0,0,0,0,0,0,0,0,0,0,0,0,0,0,0,0,0,0,0,0,0,0,0,0,0,0,0,0,0,0,0,0,0,0,0,0,0,0,0,0,0,0,0,0,0,0,0,0,0,0,0,0,0,0,0,0,0,0,0,0,0,0,0,0,0,0,0,0,0,0,0,0,0,0,0,0,0,0,0,0],"sum_hessian":[8.427298E4,1.1239375E4,7.30336E4,8.8952985E2,1.0349845E4,3.0030903E3,7.0030516E4,5.4910406E2,3.4042575E2,1.0310547E4,3.929773E1,1.6069182E2,2.8423987E3,1.5474294E4,5.455622E4,4.771496E2,7.195449E1,2.1724567E1,3.1870117E2,2.2315091E2,1.0087396E4,1.2391479E2,3.6777023E1,1.5435443E2,2.6880442E3,1.3865393E4,1.6089014E3,5.12106E3,4.943516E4,2.715184E1,4.4999774E2,6.556672E1,6.3877716E0,2.6732007E2,5.13811E1,1.761734E2,4.6977505E1,4.301953E3,5.7854434E3,1.4384564E2,1.0508787E1,4.7663715E1,2.6403804E3,1.2704258E4,1.1611351E3,3.326102E2,1.2762911E3,4.9747964E3,1.4626382E2,4.3011203E4,6.423957E3,4.3930984E2,1.0687907E1,5.605455E0,5.996126E1,4.057161E0,2.632629E2,3.4796886E1,1.6584211E1,1.4725342E2,2.8919983E1,4.9261448E1,4.2526914E3,2.0185942E2,5.583584E3,4.504498E1,2.6187334E0,9.679791E3,3.0244663E3,1.1170942E3,4.404098E1,2.1251617E2,1.2009403E2,1.1911443E3,8.514689E1,3.966953E2,4.578101E3,1.1172825E2,3.4535583E1,1.1768256E3,4.1834375E4,3.06785E3,3.3561072E3],"tree_param":{"num_deleted":"0","num_feature":"48","num_nodes":"83","size_leaf_vector":"1"}},{"base_weights":[-2.7434435E-1,2.6524907E-1,-3.5638827E-1,3.2319382E-1,-2.6690444E-1,2.0844555E-1,-3.9602906E-1,5.2862525E-1,2.2187984E-1,1.3844848E-2,-5.227032E-1,3.1075567E-1,-3.230647E-1,-3.2662368E-1,-5.976897E-1,3.4588704E-1,6.917873E-1,5.9427863E-1,1.1625542E-1,-3.035082E-1,6.721429E-1,-6.3369036E-1,3.0122554E-1,8.315855E-1,2.385279E-1,1.9612472E-1,-5.8383864E-1,2.0949261E-1,-3.5779357E-1,-6.1159605E-1,-1.5849364E-1,4.2895153E-1,-2.0830002E-1,9.560302E-1,6.0370606E-1,6.1819285E-1,-2.2848056E-1,-5.1839936E-1,1.8680568E-1,2.860155E-1,-4.4456357E-1,-2.0107968E-1,8.9843136E-1,-1.9746533E-1,2.602783E-1,9.020285E-1,-3.7472922E-1,1.6101225E-1,7.7056444E-1,3.7508294E-1,-2.0059301E-1,-6.260124E-1,7.141761E-1,1.2313953E-1,1.1603569E0,2.7048576E-1,-3.7826174E-1,-1.575063E-1,-6.225698E-1,-2.765006E-1,5.6196946E-1,-2.2999856E-1,1.4160812E-1,2.61249E-1,2.979566E-1,9.858986E-2,2.1377306E-1,-8.409491E-2,1.932741E-1,3.3005127E-1,-2.0414858E-1,3.2678854E-2,2.682015E-1,-2.9119616E-2,-2.1024258E-1,-1.7462991E-1,2.8727236E-1,2.7999076E-1,-2.1894331E-1,-2.4811047E-1,2.7595234E-1,7.1680985E-2,-1.399898E-1,6.821202E-2,3.3127043E-1,-6.0836073E-2,2.1525116E-1,-2.845806E-2,-1.9408731E-1,3.8345E-1,-1.6841775E-1,-9.027223E-2,8.0102004E-2,3.0867952E-1,4.395231E-1,1.978634E-1,3.2159235E-2,-9.7274035E-2,-1.7600207E-1,-1.9348966E-1,2.096358E-1,-1.8725108E-1,7.814573E-2,1.5293597E-1,-1.8053108E-1],"categories":[],"categories_nodes":[],"categories_segments":[],"categories_sizes":[],"default_left":[0,0,0,0,0,0,0,0,0,0,0,0,0,0,0,0,0,0,0,0,0,0,0,0,0,0,0,0,0,0,0,0,0,0,0,0,0,0,0,0,0,0,0,0,0,0,0,0,0,0,0,0,0,0,0,0,0,0,0,0,0,0,0,0,0,0,0,0,0,0,0,0,0,0,0,0,0,0,0,0,0,0,0,0,0,0,0,0,0,0,0,0,0,0,0,0,0,0,0,0,0,0,0,0,0],"id":6,"left_children":[1,3,5,7,9,11,13,15,17,19,21,23,25,27,29,31,33,35,37,39,41,43,-1,45,47,49,51,53,55,57,59,61,-1,63,65,67,-1,69,71,-1,73,-1,75,-1,-1,77,79,81,83,85,-1,87,89,91,93,95,97,99,101,103,-1,-1,-1,-1,-1,-1,-1,-1,-1,-1,-1,-1,-1,-1,-1,-1,-1,-1,-1,-1,-1,-1,-1,-1,-1,-1,-1,-1,-1,-1,-1,-1,-1,-1,-1,-1,-1,-1,-1,-1,-1,-1,-1,-1,-1],"loss_changes":[3.2877524E3,3.0233118E2,1.4434243E3,1.8386646E2,6.9168335E1,2.3001573E2,8.428789E2,8.679193E1,2.3286392E2,9.6325485E1,8.6030624E1,1.3319855E2,9.258261E1,7.4895654E2,9.409375E1,1.19440186E2,3.5291138E1,4.289084E1,2.067161E2,5.558507E1,4.615889E1,1.7892426E1,0E0,3.7002563E1,1.2836638E2,3.5704746E1,2.5348007E1,2.020936E2,5.4474316E2,7.439014E1,1.1432319E2,6.61568E1,0E0,3.4936523E-1,3.446045E1,3.0288696E1,0E0,1.2193968E2,2.2866261E2,0E0,2.4901974E1,0E0,1.1832405E1,0E0,0E0,2.1500793E1,1.5113539E1,1.3317523E2,7.151169E1,3.7831482E1,0E0,4.845886E0,1.1351408E1,1.3789731E2,6.699829E0,8.485558E1,4.6154932E2,1.4823734E2,2.0789062E1,1.1526437E2,0E0,0E0,0E0,0E0,0E0,0E0,0E0,0E0,0E0,0E0,0E0,0E0,0E0,0E0,0E0,0E0,0E0,0E0,0E0,0E0,0E0,0E0,0E0,0E0,0E0,0E0,0E0,0E0,0E0,0E0,0E0,0E0,0E0,0E0,0E0,0E0,0E0,0E0,0E0,0E0,0E0,0E0,0E0,0E0,0E0],"parents":[2147483647,0,0,1,1,2,2,3,3,4,4,5,5,6,6,7,7,8,8,9,9,10,10,11,11,12,12,13,13,14,14,15,15,16,16,17,17,18,18,19,19,20,20,21,21,23,23,24,24,25,25,26,26,27,27,28,28,29,29,30,30,31,31,33,33,34,34,35,35,37,37,38,38,40,40,42,42,45,45,46,46,47,47,48,48,49,49,51,51,52,52,53,53,54,54,55,55,56,56,57,57,58,58,59,59],"right_children":[2,4,6,8,10,12,14,16,18,20,22,24,26,28,30,32,34,36,38,40,42,44,-1,46,48,50,52,54,56,58,60,62,-1,64,66,68,-1,70,72,-1,74,-1,76,-1,-1,78,80,82,84,86,-1,88,90,92,94,96,98,100,102,104,-1,-1,-1,-1,-1,-1,-1,-1,-1,-1,-1,-1,-1,-1,-1,-1,-1,-1,-1,-1,-1,-1,-1,-1,-1,-1,-1,-1,-1,-1,-1,-1,-1,-1,-1,-1,-1,-1,-1,-1,-1,-1,-1,-1,-1],"split_conditions":[-7.748483E-1,3.829594E-1,-6.109253E-1,-6.8504316E-1,-1.410903E0,3.1488969E-3,8.919192E-2,-9.695471E-1,-1.8787853E0,-1.6319221E0,1.9480654E0,-1.8884429E0,-1.2046794E0,-1.1037002E0,1.2961451E0,-1.0584621E0,-6.812332E-1,1.0387E0,-8.979495E-2,-5.397948E-1,-9.9218524E-1,2.071885E0,3.0122554E-1,7.686609E-1,9.123442E-1,1.195577E0,1.2356437E0,1.2984256E0,-7.385354E-1,-1.2082325E0,1.189759E0,-2.0671403E0,-2.0830002E-1,-1.2965734E0,-8.745799E-1,-1.8738825E0,-2.2848056E-1,-1.6319221E0,-8.4026295E-1,2.860155E-1,-2.1302712E0,-2.0107968E-1,-7.7265906E-1,-1.9746533E-1,2.602783E-1,1.0468283E0,-2.705727E0,2.5841653E-2,-8.745799E-1,1.6734146E-1,-2.0059301E-1,-5.67868E-1,1.7723299E0,-1.5553126E0,-4.219635E-1,-1.5801183E0,7.049237E-2,-1.2385726E0,2.2660437E0,1.5119464E0,5.6196946E-1,-2.2999856E-1,1.4160812E-1,2.61249E-1,2.979566E-1,9.858986E-2,2.1377306E-1,-8.409491E-2,1.932741E-1,3.3005127E-1,-2.0414858E-1,3.2678854E-2,2.682015E-1,-2.9119616E-2,-2.1024258E-1,-1.7462991E-1,2.8727236E-1,2.7999076E-1,-2.1894331E-1,-2.4811047E-1,2.7595234E-1,7.1680985E-2,-1.399898E-1,6.821202E-2,3.3127043E-1,-6.0836073E-2,2.1525116E-1,-2.845806E-2,-1.9408731E-1,3.8345E-1,-1.6841775E-1,-9.027223E-2,8.0102004E-2,3.0867952E-1,4.395231E-1,1.978634E-1,3.2159235E-2,-9.7274035E-2,-1.7600207E-1,-1.9348966E-1,2.096358E-1,-1.8725108E-1,7.814573E-2,1.5293597E-1,-1.8053108E-1],"split_indices":[4,38,2,38,4,26,4,3,4,4,14,2,2,40,15,3,3,28,14,40,12,15,0,37,14,27,16,13,1,16,40,24,0,26,2,37,0,4,4,0,4,0,16,0,0,27,2,14,2,26,0,39,16,39,28,1,37,16,12,15,0,0,0,0,0,0,0,0,0,0,0,0,0,0,0,0,0,0,0,0,0,0,0,0,0,0,0,0,0,0,0,0,0,0,0,0,0,0,0,0,0,0,0,0,0],"split_type":[0,0,0,0,0,0,0,0,0,0,0,0,0,0,0,0,0,0,0,0,0,0,0,0,0,0,0,0,0,0,0,0,0,0,0,0,0,0,0,0,0,0,0,0,0,0,0,0,0,0,0,0,0,0,0,0,0,0,0,0,0,0,0,0,0,0,0,0,0,0,0,0,0,0,0,0,0,0,0,0,0,0,0,0,0,0,0,0,0,0,0,0,0,0,0,0,0,0,0,0,0,0,0,0,0],"sum_hessian":[7.426219E4,9.8008545E3,6.4461336E4,8.838813E3,9.620413E2,4.2270264E3,6.023431E4,2.9179507E3,5.920863E3,4.5910315E2,5.0293817E2,3.5450557E3,6.819705E2,4.4813496E4,1.5420811E4,1.3778766E3,1.5400742E3,1.3072566E3,4.613606E3,3.101329E2,1.4897026E2,4.6940085E2,3.3537327E1,4.3046768E2,3.1145881E3,2.2809377E2,4.5387674E2,2.461993E3,4.2351504E4,1.4947143E4,4.7366763E2,1.2765298E3,1.0134681E2,3.8255588E2,1.1575183E3,1.2851342E3,2.2122362E1,4.609203E2,4.152686E3,3.0711847E1,2.7942105E2,2.1206308E1,1.27763954E2,4.6240778E2,6.993058E0,4.069557E2,2.3512009E1,2.7196487E3,3.9493948E2,1.8945378E2,3.863999E1,4.4009534E2,1.3781386E1,2.2580564E3,2.0393669E2,1.335816E3,4.1015688E4,3.5305838E2,1.4594084E4,4.484827E2,2.5184935E1,4.3807293E1,1.2327225E3,1.23596924E2,2.5895895E2,3.2936417E2,8.281541E2,3.593987E1,1.2491943E3,4.1431236E1,4.1948904E2,3.7417964E3,4.1088937E2,1.1917908E2,1.6024197E2,4.568119E0,1.2319583E2,3.997231E2,7.2325673E0,1.7691858E1,5.8201494E0,2.4198364E3,2.9981204E2,1.5092535E2,2.4401413E2,7.064351E1,1.1881028E2,1.6905968E1,4.2318936E2,9.554738E0,4.2266483E0,5.717468E2,1.6863094E3,1.4554158E2,5.839511E1,3.940038E2,9.418122E2,3.2575512E4,8.440177E3,2.2514021E2,1.27918175E2,1.4567975E4,2.6109533E1,1.310714E2,3.174113E2],"tree_param":{"num_deleted":"0","num_feature":"48","num_nodes":"105","size_leaf_vector":"1"}},{"base_weights":[2.7376056E-1,-2.0924734E-1,2.8362247E-1,-2.6696223E-1,2.7526942E-1,2.7826276E-1,8.668658E-1,6.688696E-1,-3.4560102E-1,2.933955E-1,1.04276955E-1,1.0060413E0,-2.4673752E-1,3.137057E-1,1.7251739E-1,-2.004292E-1,-2.1076603E-1,1.4430262E-1,3.1737944E-1,-1.4968282E-1,3.092246E-1,1.1008224E0,1.8212825E-1,-2.6188675E-1,3.0977184E-1,3.2788637E-1,-2.5904992E-1,1.8804558E-1,-2.577413E-1,5.702241E-1,2.9456052E-1,4.203926E-3,-4.6531862E-1,5.365221E-1,3.143927E-2,1.1368191E0,8.2152474E-1,-2.4216221E-1,3.3120978E-1,-1.9009721E-1,2.7189487E-1,-9.3899906E-2,2.9194403E-1,3.356951E-2,1.617975E-1,-1.04936406E-1,3.0698067E-1,2.5823054E-1,1.463889E-1,8.165699E-2,1.3248399E-1,-5.5442337E-2,1.1052043E-1,-2.516216E-1,-2.6713105E-2,1.3773882E-1,3.5214353E-1,1.1155095E-1,-1.3786152E-1,3.769733E-1,3.314418E-1,-2.3413698E-1,3.315297E-1],"categories":[],"categories_nodes":[],"categories_segments":[],"categories_sizes":[],"default_left":[0,0,0,0,0,0,0,0,0,0,0,0,0,0,0,0,0,0,0,0,0,0,0,0,0,0,0,0,0,0,0,0,0,0,0,0,0,0,0,0,0,0,0,0,0,0,0,0,0,0,0,0,0,0,0,0,0,0,0,0,0,0,0],"id":7,"left_children":[1,3,5,7,-1,9,11,13,15,17,19,21,-1,-1,23,-1,25,27,29,31,33,35,37,39,-1,-1,41,43,45,47,49,51,53,55,57,59,61,-1,-1,-1,-1,-1,-1,-1,-1,-1,-1,-1,-1,-1,-1,-1,-1,-1,-1,-1,-1,-1,-1,-1,-1,-1,-1],"loss_changes":[4.4729248E2,1.2245868E2,2.8738867E2,1.3184744E2,0E0,2.4002295E2,1.9770361E2,2.5812672E1,7.162776E1,2.9989258E2,3.79851E2,6.024872E1,0E0,0E0,2.3125174E1,0E0,7.363857E1,2.0449808E2,4.167168E2,1.5832626E2,2.5497794E2,6.043701E0,7.4823814E1,1.8572468E1,0E0,0E0,7.505849E1,2.8040643E2,1.3491513E2,1.4250623E2,2.1790381E2,1.5097598E2,1.5003596E2,1.0900769E2,3.04092E2,9.586792E-1,3.8495537E1,0E0,0E0,0E0,0E0,0E0,0E0,0E0,0E0,0E0,0E0,0E0,0E0,0E0,0E0,0E0,0E0,0E0,0E0,0E0,0E0,0E0,0E0,0E0,0E0,0E0,0E0],"parents":[2147483647,0,0,1,1,2,2,3,3,5,5,6,6,7,7,8,8,9,9,10,10,11,11,14,14,16,16,17,17,18,18,19,19,20,20,21,21,22,22,23,23,26,26,27,27,28,28,29,29,30,30,31,31,32,32,33,33,34,34,35,35,36,36],"right_children":[2,4,6,8,-1,10,12,14,16,18,20,22,-1,-1,24,-1,26,28,30,32,34,36,38,40,-1,-1,42,44,46,48,50,52,54,56,58,60,62,-1,-1,-1,-1,-1,-1,-1,-1,-1,-1,-1,-1,-1,-1,-1,-1,-1,-1,-1,-1,-1,-1,-1,-1,-1,-1],"split_conditions":[-1.5801183E0,1.1983031E0,1.9352564E0,-1.2550514E0,2.7526942E-1,9.6798337E-1,3.615385E0,-1.514413E0,-1.5287273E-1,-3.5100502E-1,1.2557268E0,1.2336997E0,-2.4673752E-1,3.137057E-1,-1.6285471E0,-2.004292E-1,-0E0,1.2356437E0,-0E0,3.5122448E-1,1.5385932E0,1.0351292E0,1.803708E0,-2.4159067E0,3.0977184E-1,3.2788637E-1,1.9595575E0,2.6744434E-1,1.0103346E0,-2.5359124E-1,2.5841653E-2,9.7448605E-1,9.8958486E-1,1.2072934E0,2.9636243E-2,-9.389146E-1,1.146772E0,-2.4216221E-1,3.3120978E-1,-1.9009721E-1,2.7189487E-1,-9.3899906E-2,2.9194403E-1,3.356951E-2,1.617975E-1,-1.04936406E-1,3.0698067E-1,2.5823054E-1,1.463889E-1,8.165699E-2,1.3248399E-1,-5.5442337E-2,1.1052043E-1,-2.516216E-1,-2.6713105E-2,1.3773882E-1,3.5214353E-1,1.1155095E-1,-1.3786152E-1,3.769733E-1,3.314418E-1,-2.3413698E-1,3.315297E-1],"split_indices":[1,37,25,38,0,25,25,24,38,0,25,36,0,0,38,0,38,16,0,39,25,3,36,1,0,0,16,16,37,1,14,28,39,4,3,15,3,0,0,0,0,0,0,0,0,0,0,0,0,0,0,0,0,0,0,0,0,0,0,0,0,0,0],"split_type":[0,0,0,0,0,0,0,0,0,0,0,0,0,0,0,0,0,0,0,0,0,0,0,0,0,0,0,0,0,0,0,0,0,0,0,0,0,0,0,0,0,0,0,0,0,0,0,0,0,0,0,0,0,0,0,0,0,0,0,0,0,0,0],"sum_hessian":[9.388888E4,1.8782323E3,9.201065E4,1.7874431E3,9.078912E1,9.117428E4,8.363697E2,1.3797551E2,1.6494677E3,8.387814E4,7.296137E3,7.7308344E2,6.328625E1,7.780301E1,6.01725E1,4.851465E2,1.164321E3,1.1624313E4,7.225383E4,3.2585688E3,4.0375684E3,6.9302344E2,8.006002E1,4.0441475E1,1.9731028E1,4.0808502E1,1.1235126E3,1.0484154E4,1.1401587E3,5.979054E3,6.627477E4,2.191231E3,1.0673378E3,2.2200688E3,1.8174998E3,6.1118243E2,8.184098E1,3.8677708E1,4.1382313E1,3.1025465E1,9.41601E0,1.0770995E3,4.6413094E1,8.617457E3,1.866697E3,1.0644032E3,7.575553E1,1.3172152E3,4.661839E3,5.7526363E4,8.74841E3,1.4428904E3,7.4834064E2,5.350843E2,5.322534E2,1.9811925E3,2.3887628E2,1.0734879E3,7.440118E2,1.2084785E2,4.903346E2,1.2044787E1,6.9796196E1],"tree_param":{"num_deleted":"0","num_feature":"48","num_nodes":"63","size_leaf_vector":"1"}},{"base_weights":[-6.512565E-2,-4.8206642E-1,-1.7037427E-2,1.814927E-1,-5.320648E-1,-6.1500585E-1,7.4287327E-3,-4.5203704E-2,1.1028221E0,-5.4003274E-1,1.0422204E0,-2.5566134E-1,-6.374468E-1,2.0661241E-1,-5.1080175E-2,-3.902859E-1,6.3895047E-1,3.0438095E-1,1.3591675E0,3.183694E-2,-5.538085E-1,4.4111964E-1,2.5357533E-1,-1.9573702E-1,3.2153866E-1,-5.0273603E-1,-6.4479816E-1,1.684066E-1,6.038437E-1,-8.927339E-2,2.2683491E-1,-5.2813035E-1,5.8461106E-1,9.3245524E-1,-2.0019622E-1,2.9507264E-1,5.298262E-1,-1.874794E-1,3.518527E-1,-5.737795E-1,-2.9571125E-1,-1.9515122E-1,3.3565226E-1,-5.29387E-1,-1.9399928E-1,1.3371898E-1,5.223884E-1,8.552939E-1,2.7359098E-1,-5.625875E-1,-6.7298815E-2,3.0645326E-1,-1.15471974E-1,-1.7282598E-1,2.2058061E-1,2.7105018E-1,-1.8007268E-1,-1.593731E-1,3.0014524E-1,-1.857721E-1,1.6232996E-1,-1.8654603E-1,-1.4865656E-1,4.65731E-1,-1.3400012E-1,-1.942219E-1,2.8540465E-1,-2.1171857E-1,4.4086277E-2,1.9045012E-1,-2.1925095E-1,2.7996835E-1,6.454216E-3,-2.2736499E-1,1.2380104E-1,1.0631817E-1,-1.765559E-1,-1.2388617E-2,-1.17770456E-1,6.307547E-2,1.9759633E-1,1.633849E-2,-2.1168546E-1],"categories":[],"categories_nodes":[],"categories_segments":[],"categories_sizes":[],"default_left":[0,0,0,0,0,0,0,0,0,0,0,0,0,0,0,0,0,0,0,0,0,0,0,0,0,0,0,0,0,0,0,0,0,0,0,0,0,0,0,0,0,0,0,0,0,0,0,0,0,0,0,0,0,0,0,0,0,0,0,0,0,0,0,0,0,0,0,0,0,0,0,0,0,0,0,0,0,0,0,0,0,0,0],"id":8,"left_children":[1,3,5,7,9,11,13,15,17,19,21,23,25,27,29,31,33,-1,35,37,39,-1,-1,-1,-1,41,43,45,47,49,51,53,55,57,-1,-1,-1,-1,59,61,63,-1,-1,65,-1,67,69,71,73,75,77,79,81,-1,-1,-1,-1,-1,-1,-1,-1,-1,-1,-1,-1,-1,-1,-1,-1,-1,-1,-1,-1,-1,-1,-1,-1,-1,-1,-1,-1,-1,-1],"loss_changes":[1.6408104E3,2.8085925E2,1.0734796E3,1.2405407E2,9.928174E1,2.3095215E1,8.215232E2,1.12966896E2,1.2731628E0,6.170923E1,2.1283646E0,9.0874596E1,2.3634033E0,2.428034E2,5.783761E2,4.3040466E1,6.213971E1,0E0,2.4020348E0,3.9133526E1,3.9245605E1,0E0,0E0,0E0,0E0,3.5467327E1,2.1130371E-1,1.7922949E2,1.1635211E2,4.9821466E2,1.7946515E2,1.7334633E1,1.5605053E1,1.3618782E1,0E0,0E0,0E0,0E0,2.3330868E1,2.6371338E1,1.5448862E2,0E0,0E0,8.725788E0,0E0,1.4787634E2,1.8406424E2,5.174231E1,8.758385E1,5.0746033E1,3.8720132E2,1.8084616E2,1.2470107E2,0E0,0E0,0E0,0E0,0E0,0E0,0E0,0E0,0E0,0E0,0E0,0E0,0E0,0E0,0E0,0E0,0E0,0E0,0E0,0E0,0E0,0E0,0E0,0E0,0E0,0E0,0E0,0E0,0E0,0E0],"parents":[2147483647,0,0,1,1,2,2,3,3,4,4,5,5,6,6,7,7,8,8,9,9,10,10,11,11,12,12,13,13,14,14,15,15,16,16,18,18,19,19,20,20,25,25,26,26,27,27,28,28,29,29,30,30,31,31,32,32,33,33,38,38,39,39,40,40,43,43,45,45,46,46,47,47,48,48,49,49,50,50,51,51,52,52],"right_children":[2,4,6,8,10,12,14,16,18,20,22,24,26,28,30,32,34,-1,36,38,40,-1,-1,-1,-1,42,44,46,48,50,52,54,56,58,-1,-1,-1,-1,60,62,64,-1,-1,66,-1,68,70,72,74,76,78,80,82,-1,-1,-1,-1,-1,-1,-1,-1,-1,-1,-1,-1,-1,-1,-1,-1,-1,-1,-1,-1,-1,-1,-1,-1,-1,-1,-1,-1,-1,-1],"split_conditions":[-6.371942E-1,-3.6779678E-1,-1.2169156E0,-5.7277673E-1,1.7011796E0,-9.915458E-1,-3.2209665E-1,3.5732734E-1,-3.9239082E-1,-3.9239082E-1,3.1433996E-2,-1.0033152E0,-7.9582214E-1,-4.7381938E-1,6.8186563E-1,1.4616798E-1,1.4214359E-1,3.0438095E-1,-3.9239082E-1,-1.410903E0,6.4660347E-1,4.4111964E-1,2.5357533E-1,-1.9573702E-1,3.2153866E-1,-8.488558E-1,-7.9237896E-1,1.2459054E0,1.556653E-2,-7.1432686E-1,1.3288819E0,3.646508E-1,1.4214359E-1,-1.4518515E0,-2.0019622E-1,2.9507264E-1,5.298262E-1,-1.874794E-1,-5.522678E-2,-1.1268384E0,6.79559E-1,-1.9515122E-1,3.3565226E-1,-8.555946E-1,-1.9399928E-1,-1.3063154E0,2.322452E0,8.455571E-1,1.8888809E-1,-3.9239082E-1,8.460745E-1,9.6798337E-1,2.6744434E-1,-1.7282598E-1,2.2058061E-1,2.7105018E-1,-1.8007268E-1,-1.593731E-1,3.0014524E-1,-1.857721E-1,1.6232996E-1,-1.8654603E-1,-1.4865656E-1,4.65731E-1,-1.3400012E-1,-1.942219E-1,2.8540465E-1,-2.1171857E-1,4.4086277E-2,1.9045012E-1,-2.1925095E-1,2.7996835E-1,6.454216E-3,-2.2736499E-1,1.2380104E-1,1.0631817E-1,-1.765559E-1,-1.2388617E-2,-1.17770456E-1,6.307547E-2,1.9759633E-1,1.633849E-2,-2.1168546E-1],"split_indices":[4,13,28,13,36,16,13,37,15,16,37,16,13,13,26,39,27,0,16,4,36,0,0,0,0,13,15,38,38,2,25,38,27,4,0,0,0,0,38,4,36,0,0,15,0,36,39,37,38,16,13,25,16,0,0,0,0,0,0,0,0,0,0,0,0,0,0,0,0,0,0,0,0,0,0,0,0,0,0,0,0,0,0],"split_type":[0,0,0,0,0,0,0,0,0,0,0,0,0,0,0,0,0,0,0,0,0,0,0,0,0,0,0,0,0,0,0,0,0,0,0,0,0,0,0,0,0,0,0,0,0,0,0,0,0,0,0,0,0,0,0,0,0,0,0,0,0,0,0,0,0,0,0,0,0,0,0,0,0,0,0,0,0,0,0,0,0,0,0],"sum_hessian":[8.183558E4,8.461609E3,7.337397E4,5.9271344E2,7.8688965E3,2.8831763E3,7.049079E4,4.7643567E2,1.1627776E2,7.8299233E3,3.897274E1,1.7019875E2,2.7129775E3,1.6004306E4,5.4486484E4,3.169819E2,1.5945375E2,9.019567E1,2.6082094E1,1.8414772E2,7.645776E3,1.024239E1,2.8730352E1,1.3142305E2,3.8775696E1,1.4397925E2,2.5689983E3,1.4601367E4,1.402939E3,4.7903848E4,6.5826353E3,2.7811624E2,3.8865658E1,1.3043304E2,2.9020699E1,1.5340109E1,1.0741986E1,6.0018642E1,1.24129074E2,7.095516E3,5.502597E2,1.3250356E2,1.1475692E1,4.540704E1,2.523591E3,1.3299492E4,1.3018754E3,7.955939E2,6.073451E2,2.1242688E3,4.577958E4,5.3405605E3,1.242075E3,2.6846967E2,9.646577E0,3.0810759E1,8.054901E0,5.490533E0,1.2494252E2,1.9874414E1,1.0425466E2,4.392263E3,2.703253E3,4.0850018E1,5.0940967E2,4.257635E1,2.8306875E0,2.0562137E2,1.309387E4,1.1951355E3,1.0673982E2,7.274769E2,6.8116974E1,7.163297E1,5.357121E2,5.8073635E1,2.0661953E3,4.239173E4,3.3878499E3,4.1960347E3,1.1445258E3,9.650849E2,2.7699008E2],"tree_param":{"num_deleted":"0","num_feature":"48","num_nodes":"83","size_leaf_vector":"1"}},{"base_weights":[-2.3637727E-1,1.7606874E-1,-3.1869403E-1,4.3249872E-1,7.347973E-2,-2.4115643E-1,-5.5674654E-1,2.0769124E-1,5.101077E-1,2.7951354E-1,-7.609027E-2,2.0280266E-1,-2.8291276E-1,-1.8768191E-1,-5.844139E-1,-2.4320185E-1,3.521888E-1,5.4253036E-1,-2.9970217E-1,-4.712427E-1,3.4471318E-1,5.923812E-1,-1.6655467E-1,-1.5667441E-1,3.5388315E-1,3.3390245E-1,-3.083184E-1,-3.831905E-1,1.0069364E0,-5.9004384E-1,1.6848558E-1,4.8839974E-1,-3.512955E-1,4.5134655E-1,8.0915856E-1,2.9562876E-1,-8.047362E-1,2.5556016E-1,-2.2458464E-1,3.8817975E-1,-3.4391215E-1,9.396541E-1,2.58178E-1,-2.5481555E-1,4.5665303E-1,3.9929768E-1,-3.4335238E-1,4.011584E-1,-1.9855586E-1,2.825864E-1,1.230328E0,3.3695525E-1,-3.321273E-1,5.7778705E-2,-5.6248015E-1,-1.8991096E-1,1.3827027E0,-2.7113575E-1,-5.953366E-1,-4.2195743E-1,4.685833E-1,-2.7285206E-1,1.6358513E-1,1.5317568E-1,-2.2029106E-1,1.7452368E-1,6.59475E-2,-1.9479558E-1,2.5930202E-1,-2.9432234E-1,-2.0063041E-1,9.895303E-2,2.6825103E-1,-2.001964E-1,6.6316664E-2,2.9140523E-1,-2.1379228E-1,-2.3017727E-1,1.6127744E-1,1.10770844E-1,-9.1279775E-2,1.7869353E-1,-1.8884668E-1,-2.1053769E-1,2.3529862E-1,-2.1124898E-1,-1.2165745E-2,9.07954E-2,2.2285515E-1,9.8517954E-2,-1.8722689E-1,-1.8489723E-1,4.0163377E-1,-1.3373622E-1,1.1946068E-1,1.02574445E-1,-1.0462069E-1,-2.0176083E-1,3.0924258E-1,-4.511361E-2,-1.8206239E-1,-1.596311E-1,4.391857E-1,-1.03323154E-1,4.1613352E-1,-1.8099009E-1,-1.5530068E-1,-1.7157057E-1,4.5283702E-1],"categories":[],"categories_nodes":[],"categories_segments":[],"categories_sizes":[],"default_left":[0,0,0,0,0,0,0,0,0,0,0,0,0,0,0,0,0,0,0,0,0,0,0,0,0,0,0,0,0,0,0,0,0,0,0,0,0,0,0,0,0,0,0,0,0,0,0,0,0,0,0,0,0,0,0,0,0,0,0,0,0,0,0,0,0,0,0,0,0,0,0,0,0,0,0,0,0,0,0,0,0,0,0,0,0,0,0,0,0,0,0,0,0,0,0,0,0,0,0,0,0,0,0,0,0,0,0,0,0],"id":9,"left_children":[1,3,5,7,9,11,13,15,17,19,21,23,25,27,29,-1,31,33,35,37,39,41,43,45,47,49,51,53,55,57,59,61,63,65,67,-1,69,-1,-1,71,73,75,77,79,81,83,85,87,-1,89,91,93,95,97,99,-1,101,103,105,107,-1,-1,-1,-1,-1,-1,-1,-1,-1,-1,-1,-1,-1,-1,-1,-1,-1,-1,-1,-1,-1,-1,-1,-1,-1,-1,-1,-1,-1,-1,-1,-1,-1,-1,-1,-1,-1,-1,-1,-1,-1,-1,-1,-1,-1,-1,-1,-1,-1],"loss_changes":[2.3287307E3,3.0018777E2,1.0552515E3,5.6785706E1,2.5124916E2,7.996316E2,1.4332812E2,1.2367267E2,6.3789307E1,1.680174E2,2.857852E2,2.0146579E2,6.1789795E2,2.295308E2,5.548828E1,0E0,7.060195E1,5.62912E1,6.1758144E1,1.01353455E2,9.45918E1,6.5138565E1,2.2903943E2,1.1410595E2,1.2566458E2,7.1416214E1,5.8183887E2,6.674794E1,8.607689E1,2.1730957E1,8.1095474E1,4.949521E1,3.9925488E1,5.2365845E1,4.8254486E1,0E0,9.738655E-1,0E0,0E0,8.733835E1,3.4479168E1,1.5141159E1,8.3059654E1,1.12632965E2,7.8372086E1,1.1776841E2,8.984421E1,8.3785614E1,0E0,6.154251E1,1.7682358E1,6.479631E1,4.0892627E2,1.7467075E2,1.0886124E1,0E0,1.8328018E1,2.6429958E1,7.5786133E0,2.097786E1,0E0,0E0,0E0,0E0,0E0,0E0,0E0,0E0,0E0,0E0,0E0,0E0,0E0,0E0,0E0,0E0,0E0,0E0,0E0,0E0,0E0,0E0,0E0,0E0,0E0,0E0,0E0,0E0,0E0,0E0,0E0,0E0,0E0,0E0,0E0,0E0,0E0,0E0,0E0,0E0,0E0,0E0,0E0,0E0,0E0,0E0,0E0,0E0,0E0],"parents":[2147483647,0,0,1,1,2,2,3,3,4,4,5,5,6,6,7,7,8,8,9,9,10,10,11,11,12,12,13,13,14,14,16,16,17,17,18,18,19,19,20,20,21,21,22,22,23,23,24,24,25,25,26,26,27,27,28,28,29,29,30,30,31,31,32,32,33,33,34,34,36,36,39,39,40,40,41,41,42,42,43,43,44,44,45,45,46,46,47,47,49,49,50,50,51,51,52,52,53,53,54,54,56,56,57,57,58,58,59,59],"right_children":[2,4,6,8,10,12,14,16,18,20,22,24,26,28,30,-1,32,34,36,38,40,42,44,46,48,50,52,54,56,58,60,62,64,66,68,-1,70,-1,-1,72,74,76,78,80,82,84,86,88,-1,90,92,94,96,98,100,-1,102,104,106,108,-1,-1,-1,-1,-1,-1,-1,-1,-1,-1,-1,-1,-1,-1,-1,-1,-1,-1,-1,-1,-1,-1,-1,-1,-1,-1,-1,-1,-1,-1,-1,-1,-1,-1,-1,-1,-1,-1,-1,-1,-1,-1,-1,-1,-1,-1,-1,-1,-1],"split_conditions":[-5.94121E-1,-6.8504316E-1,7.998493E-2,-1.3832116E0,-1.3827668E0,-9.031615E-1,-8.552043E-1,-1.5293833E0,3.241094E-2,-4.2750195E-1,-1.1697712E0,-1.7042533E-2,-8.552043E-1,-9.088513E-1,2.2660437E0,-2.4320185E-1,-1.5577538E0,-9.8796105E-1,-1.567383E0,-6.6063166E-1,7.833078E-1,-6.109253E-1,1.2356437E0,-1.6469051E0,3.2651326E-1,-8.787765E-1,-1.0584621E0,-1.0194805E0,-2.3360288E-1,-8.552043E-1,3.4036607E-2,-1.7085783E0,-1.3827668E0,-1.3827668E0,-6.9655174E-1,2.9562876E-1,-1.3322895E0,2.5556016E-1,-2.2458464E-1,3.9028284E-1,-1.6319221E0,1.7681266E0,-5.1885545E-1,-1.0133777E0,7.222791E-1,-1.7457222E0,-1.3762312E0,-1.1023059E0,-1.9855586E-1,2.506039E-1,-1.9654256E0,-7.259636E-1,-1.0543487E0,-1.4534504E0,-1.5247983E0,-1.8991096E-1,-3.8053172E-3,-8.787765E-1,1.2616984E0,4.774566E-3,4.685833E-1,-2.7285206E-1,1.6358513E-1,1.5317568E-1,-2.2029106E-1,1.7452368E-1,6.59475E-2,-1.9479558E-1,2.5930202E-1,-2.9432234E-1,-2.0063041E-1,9.895303E-2,2.6825103E-1,-2.001964E-1,6.6316664E-2,2.9140523E-1,-2.1379228E-1,-2.3017727E-1,1.6127744E-1,1.10770844E-1,-9.1279775E-2,1.7869353E-1,-1.8884668E-1,-2.1053769E-1,2.3529862E-1,-2.1124898E-1,-1.2165745E-2,9.07954E-2,2.2285515E-1,9.8517954E-2,-1.8722689E-1,-1.8489723E-1,4.0163377E-1,-1.3373622E-1,1.1946068E-1,1.02574445E-1,-1.0462069E-1,-2.0176083E-1,3.0924258E-1,-4.511361E-2,-1.8206239E-1,-1.596311E-1,4.391857E-1,-1.03323154E-1,4.1613352E-1,-1.8099009E-1,-1.5530068E-1,-1.7157057E-1,4.5283702E-1],"split_indices":[4,38,3,37,4,26,28,1,27,38,28,4,25,28,12,0,37,4,4,38,36,2,16,26,2,25,3,38,15,25,25,2,4,4,12,0,4,0,0,36,4,14,2,40,37,39,26,26,0,2,36,26,28,28,40,0,16,25,4,28,0,0,0,0,0,0,0,0,0,0,0,0,0,0,0,0,0,0,0,0,0,0,0,0,0,0,0,0,0,0,0,0,0,0,0,0,0,0,0,0,0,0,0,0,0,0,0,0,0],"split_type":[0,0,0,0,0,0,0,0,0,0,0,0,0,0,0,0,0,0,0,0,0,0,0,0,0,0,0,0,0,0,0,0,0,0,0,0,0,0,0,0,0,0,0,0,0,0,0,0,0,0,0,0,0,0,0,0,0,0,0,0,0,0,0,0,0,0,0,0,0,0,0,0,0,0,0,0,0,0,0,0,0,0,0,0,0,0,0,0,0,0,0,0,0,0,0,0,0,0,0,0,0,0,0,0,0,0,0,0,0],"sum_hessian":[6.858785E4,1.1411197E4,5.7176656E4,3.2598096E3,8.151388E3,4.3130395E4,1.4046263E4,8.3750653E2,2.422303E3,3.428178E3,4.72321E3,3.7075332E3,3.9422863E4,9.8010443E2,1.3066158E4,1.0349594E2,7.340106E2,2.329371E3,9.293195E1,2.7343384E2,3.1547441E3,5.623406E2,4.1608696E3,1.0970955E3,2.610438E3,1.5590508E3,3.7863812E4,8.4284546E2,1.3725899E2,1.2969394E4,9.676436E1,6.151994E2,1.188112E2,1.7377672E3,5.9160394E2,2.5949224E1,6.698273E1,4.7028687E1,2.2640515E2,2.9678477E3,1.8689655E2,2.7488937E2,2.874512E2,3.6452126E3,5.156568E2,2.7548764E2,8.216078E2,2.494922E3,1.1551574E2,1.475879E3,8.317172E1,1.346892E3,3.6516918E4,2.4382556E2,5.990199E2,2.5459654E1,1.1179934E2,2.1258502E2,1.2756809E4,6.845533E1,2.8309034E1,2.3468925E1,5.9173047E2,3.6451492E1,8.235971E1,1.1106865E3,6.270806E2,2.1174793E1,5.7042914E2,2.645612E1,4.052661E1,2.6625325E3,3.0531512E2,1.1874258E2,6.815397E1,2.701197E2,4.7696915E0,6.1179417E1,2.2627179E2,2.671667E2,3.378046E3,4.5755563E2,5.8101147E1,7.116145E1,2.043262E2,3.7428778E2,4.4732E2,1.9380762E3,5.56846E2,1.4055083E3,7.037079E1,4.3538413E0,7.881788E1,9.728619E1,1.2496057E3,8.776636E2,3.5639254E4,1.3946094E2,1.0436462E2,5.868165E1,5.403382E2,4.32493E0,1.074744E2,2.0434761E2,8.237424E0,1.1564296E4,1.192513E3,6.417688E1,4.2784476E0],"tree_param":{"num_deleted":"0","num_feature":"48","num_nodes":"109","size_leaf_vector":"1"}},{"base_weights":[2.1039404E-1,-1.7008036E-1,2.1747129E-1,6.049156E-1,-2.3453984E-1,2.1406269E-1,9.234144E-1,1.8992345E-1,2.79303E-1,-3.2612476E-1,4.736672E-1,2.1844283E-1,-2.602083E-1,3.0084863E-1,2.628976E-1,-1.7845896E-1,2.4979512E-1,-1.8849222E-1,-1.9850089E-1,1.1749625E0,-7.2441824E-2,2.1394098E-1,7.0900786E-1,2.8402737E-1,-2.4892084E-1,4.773163E-1,2.4256389E-1,-1.9165382E-1,2.3434494E-1,1.9497696E-1,3.2517785E-1,8.205359E-1,-2.239557E-1,-9.166433E-2,2.3754513E-1,1.388452E-2,6.300958E-2,1.2692428E-1,3.8456827E-2,2.6893938E-1,3.9468177E-2],"categories":[],"categories_nodes":[],"categories_segments":[],"categories_sizes":[],"default_left":[0,0,0,0,0,0,0,0,0,0,0,0,0,0,0,0,0,0,0,0,0,0,0,0,0,0,0,0,0,0,0,0,0,0,0,0,0,0,0,0,0],"id":10,"left_children":[1,3,5,7,9,11,13,15,-1,17,19,21,-1,-1,-1,-1,-1,-1,23,25,27,29,31,-1,33,-1,-1,-1,-1,35,37,39,-1,-1,-1,-1,-1,-1,-1,-1,-1],"loss_changes":[2.545249E2,8.638811E1,2.230669E2,1.7801155E1,1.0358201E2,4.3758594E2,7.873535E-1,3.0614578E1,0E0,5.435295E1,7.01738E1,2.0295654E2,0E0,0E0,0E0,0E0,0E0,0E0,5.76683E1,1.0937698E1,5.0698105E1,1.9218262E2,1.3630219E2,0E0,5.643294E1,0E0,0E0,0E0,0E0,1.7429272E2,2.5591199E2,4.0522095E1,0E0,0E0,0E0,0E0,0E0,0E0,0E0,0E0,0E0],"parents":[2147483647,0,0,1,1,2,2,3,3,4,4,5,5,6,6,7,7,9,9,10,10,11,11,18,18,19,19,20,20,21,21,22,22,24,24,29,29,30,30,31,31],"right_children":[2,4,6,8,10,12,14,16,-1,18,20,22,-1,-1,-1,-1,-1,-1,24,26,28,30,32,-1,34,-1,-1,-1,-1,36,38,40,-1,-1,-1,-1,-1,-1,-1,-1,-1],"split_conditions":[-1.5801183E0,-1.2550514E0,2.2895327E0,-1.6285471E0,7.9063123E-1,1.8186244E0,5.041357E-3,-2.4159067E0,2.79303E-1,-1.5287273E-1,-2.705727E0,1.9352564E0,-2.602083E-1,3.0084863E-1,2.628976E-1,-1.7845896E-1,2.4979512E-1,-1.8849222E-1,-0E0,9.822614E-1,1.1983031E0,2.6744434E-1,3.615385E0,2.8402737E-1,1.9595575E0,4.773163E-1,2.4256389E-1,-1.9165382E-1,2.3434494E-1,-5.6501913E-1,1.2642623E0,1.2336997E0,-2.239557E-1,-9.166433E-2,2.3754513E-1,1.388452E-2,6.300958E-2,1.2692428E-1,3.8456827E-2,2.6893938E-1,3.9468177E-2],"split_indices":[1,38,4,38,37,4,2,1,0,38,1,25,0,0,0,0,0,0,38,37,37,16,25,0,16,0,0,0,0,3,16,36,0,0,0,0,0,0,0,0,0],"split_type":[0,0,0,0,0,0,0,0,0,0,0,0,0,0,0,0,0,0,0,0,0,0,0,0,0,0,0,0,0,0,0,0,0,0,0,0,0,0,0,0,0],"sum_hessian":[9.450915E4,1.7254495E3,9.2783695E4,1.3184872E2,1.5936007E3,9.233915E4,4.4454855E2,5.871264E1,7.313608E1,1.4115938E3,1.8200694E2,9.1967445E4,3.7170206E2,1.5792168E2,2.8662686E2,2.646844E1,3.2244198E1,4.1798428E2,9.936095E2,7.917784E1,1.028291E2,9.113257E4,8.34877E2,4.114936E1,9.5246014E2,3.5510708E1,4.366713E1,6.196413E1,4.0864975E1,7.786128E4,1.3271287E4,7.7586365E2,5.9013374E1,9.0398065E2,4.8479485E1,7.1588384E3,7.0702445E4,8.864495E3,4.406792E3,6.985758E2,7.728781E1],"tree_param":{"num_deleted":"0","num_feature":"48","num_nodes":"41","size_leaf_vector":"1"}},{"base_weights":[-4.612147E-2,-4.399728E-1,-5.8950037E-3,1.6403706E-1,-4.8929024E-1,-5.5157787E-1,1.689463E-2,-3.8097866E-2,2.7710232E-1,-4.9720433E-1,8.845761E-1,-6.311459E-1,-3.9929736E-1,-3.7337784E-2,1.8981355E-1,-3.529196E-1,5.3981745E-1,4.291282E-2,-5.112791E-1,3.3438098E-1,2.2462855E-1,-1.8304911E-1,-1.963304E-1,2.1074882E-1,-5.289789E-1,1.5960148E-1,-8.05797E-2,7.738687E-1,1.6901697E-1,-4.8615754E-1,4.8449627E-1,7.875455E-1,-1.9191211E-1,-2.5157782E-1,2.8973255E-1,-5.3363085E-1,-2.442842E-1,-1.8433136E-1,5.979804E-1,-2.1159677E-1,-5.701916E-1,1.0746963E0,1.4036843E-1,-4.0328142E-1,-5.4045845E-2,-2.2012413E-1,9.900526E-1,8.4527075E-1,1.5318353E-1,-1.6053236E-1,1.7205608E-1,2.3078766E-1,-1.8144357E-1,2.523027E-1,-2.1094808E-1,4.9275853E-2,-1.9034584E-1,-1.7641664E-1,-1.3436642E-1,4.672489E-1,-1.1242445E-1,3.6855617E-1,3.0938206E-2,2.9679033E-1,-1.1732069E-1,1.3656269E-1,-1.7406963E-1,4.1188222E-1,-1.90749E-1,3.289764E-2,2.1748392E-1,-1.2836224E-1,3.670526E-1,-1.7195427E-1,-1.1866665E-2,-2.298003E-1,3.31539E-1,3.5939935E-1,-2.044542E-1,4.8973616E-2,-2.1054672E-1],"categories":[],"categories_nodes":[],"categories_segments":[],"categories_sizes":[],"default_left":[0,0,0,0,0,0,0,0,0,0,0,0,0,0,0,0,0,0,0,0,0,0,0,0,0,0,0,0,0,0,0,0,0,0,0,0,0,0,0,0,0,0,0,0,0,0,0,0,0,0,0,0,0,0,0,0,0,0,0,0,0,0,0,0,0,0,0,0,0,0,0,0,0,0,0,0,0,0,0,0,0],"id":11,"left_children":[1,3,5,7,9,11,13,15,-1,17,19,21,23,25,27,29,31,33,35,-1,-1,-1,-1,37,39,41,43,45,47,49,51,53,-1,55,-1,57,59,-1,61,63,65,67,69,71,73,-1,75,77,79,-1,-1,-1,-1,-1,-1,-1,-1,-1,-1,-1,-1,-1,-1,-1,-1,-1,-1,-1,-1,-1,-1,-1,-1,-1,-1,-1,-1,-1,-1,-1,-1],"loss_changes":[1.2612072E3,2.1983154E2,8.9824774E2,8.565767E1,7.459851E1,3.483362E1,6.502153E2,8.049672E1,0E0,5.1579224E1,3.9706993E-1,5.291748E-1,7.894478E1,4.4950516E2,2.0093793E2,3.2183857E1,4.610172E1,4.730504E1,3.9316406E1,0E0,0E0,0E0,0E0,5.6416973E1,1.0632202E1,1.6710468E2,3.7056226E2,1.8614044E2,1.7103897E2,1.3146793E1,1.28141165E1,1.0905327E1,0E0,2.1132847E1,0E0,2.819519E1,1.2104466E2,0E0,3.7282433E1,2.1092524E1,7.7489624E0,1.005932E2,1.6703105E2,1.3207147E2,3.0081903E2,0E0,1.0147742E2,1.9765356E2,1.3450504E2,0E0,0E0,0E0,0E0,0E0,0E0,0E0,0E0,0E0,0E0,0E0,0E0,0E0,0E0,0E0,0E0,0E0,0E0,0E0,0E0,0E0,0E0,0E0,0E0,0E0,0E0,0E0,0E0,0E0,0E0,0E0,0E0],"parents":[2147483647,0,0,1,1,2,2,3,3,4,4,5,5,6,6,7,7,9,9,10,10,11,11,12,12,13,13,14,14,15,15,16,16,17,17,18,18,23,23,24,24,25,25,26,26,27,27,28,28,29,29,30,30,31,31,33,33,35,35,36,36,38,38,39,39,40,40,41,41,42,42,43,43,44,44,46,46,47,47,48,48],"right_children":[2,4,6,8,10,12,14,16,-1,18,20,22,24,26,28,30,32,34,36,-1,-1,-1,-1,38,40,42,44,46,48,50,52,54,-1,56,-1,58,60,-1,62,64,66,68,70,72,74,-1,76,78,80,-1,-1,-1,-1,-1,-1,-1,-1,-1,-1,-1,-1,-1,-1,-1,-1,-1,-1,-1,-1,-1,-1,-1,-1,-1,-1,-1,-1,-1,-1,-1,-1],"split_conditions":[-6.371942E-1,-3.6779678E-1,-1.0486588E0,-5.7277673E-1,1.7011796E0,-1.2965734E0,9.9786155E-2,3.5732734E-1,2.7710232E-1,-3.9239082E-1,3.1433996E-2,-1.1014931E0,-1.2811295E0,-2.737135E-1,0E0,1.4616798E-1,1.4214359E-1,-5.712117E-1,6.4660347E-1,3.3438098E-1,2.2462855E-1,-1.8304911E-1,-1.963304E-1,-1.1037002E0,-1.4820782E0,-9.031615E-1,-7.826891E-1,-2.6638615E-1,-1.687402E-1,3.646508E-1,1.295949E0,-6.007245E-1,-1.9191211E-1,-8.89816E-1,2.8973255E-1,-1.1268384E0,-3.7989956E-1,-1.8433136E-1,-7.578008E-3,-1.2819424E0,-1.3155495E0,-6.936899E-1,1.5431231E0,1.4655397E0,-8.552043E-1,-2.2012413E-1,-1.1922911E0,6.1242735E-1,2.25058E0,-1.6053236E-1,1.7205608E-1,2.3078766E-1,-1.8144357E-1,2.523027E-1,-2.1094808E-1,4.9275853E-2,-1.9034584E-1,-1.7641664E-1,-1.3436642E-1,4.672489E-1,-1.1242445E-1,3.6855617E-1,3.0938206E-2,2.9679033E-1,-1.1732069E-1,1.3656269E-1,-1.7406963E-1,4.1188222E-1,-1.90749E-1,3.289764E-2,2.1748392E-1,-1.2836224E-1,3.670526E-1,-1.7195427E-1,-1.1866665E-2,-2.298003E-1,3.31539E-1,3.5939935E-1,-2.044542E-1,4.8973616E-2,-2.1054672E-1],"split_indices":[4,13,26,13,36,26,39,37,0,15,37,28,27,14,36,39,27,15,36,0,0,0,0,38,37,26,40,37,40,38,36,13,0,15,0,4,37,0,4,26,0,14,3,0,25,0,14,39,3,0,0,0,0,0,0,0,0,0,0,0,0,0,0,0,0,0,0,0,0,0,0,0,0,0,0,0,0,0,0,0,0],"split_type":[0,0,0,0,0,0,0,0,0,0,0,0,0,0,0,0,0,0,0,0,0,0,0,0,0,0,0,0,0,0,0,0,0,0,0,0,0,0,0,0,0,0,0,0,0,0,0,0,0,0,0,0,0,0,0,0,0,0,0,0,0,0,0,0,0,0,0,0,0,0,0,0,0,0,0,0,0,0,0,0,0],"sum_hessian":[7.9604516E4,7.3761167E3,7.22284E4,5.566223E2,6.8194946E3,2.8946519E3,6.933374E4,4.4038766E2,1.1623466E2,6.781071E3,3.8423973E1,1.8991715E3,9.954803E2,5.2780902E4,1.6552844E4,2.8533795E2,1.550497E2,1.72166E2,6.608905E3,1.1588989E1,2.6834986E1,1.0133671E3,8.858043E2,1.744079E2,8.210724E2,9.502122E3,4.3278777E4,5.6789026E2,1.5984954E4,2.4653258E2,3.880537E1,1.2841238E2,2.6637321E1,1.3106865E2,4.1097363E1,6.0974517E3,5.1145306E2,5.5516354E1,1.1889155E2,9.5069496E1,7.2600287E2,1.9447058E2,9.307651E3,3.2871108E3,3.9991668E4,7.09196E1,4.9697067E2,3.645025E2,1.5620452E4,2.3612036E2,1.041222E1,3.0995485E1,7.8098845E0,1.2438712E2,4.025259E0,6.3106884E1,6.796176E1,3.726332E3,2.3711194E3,3.379446E1,4.776586E2,5.162656E1,6.726499E1,1.1774015E1,8.329548E1,6.609968E0,7.1939294E2,1.6576538E2,2.8705196E1,8.844226E3,4.6342612E2,3.2388848E3,4.8226254E1,1.0849042E3,3.890676E4,3.0216566E1,4.6675412E2,2.9627142E2,6.823107E1,1.5439565E4,1.8088632E2],"tree_param":{"num_deleted":"0","num_feature":"48","num_nodes":"81","size_leaf_vector":"1"}},{"base_weights":[-2.0482832E-1,1.344002E-1,-2.8265908E-1,3.8081813E-1,4.7805555E-2,-2.0722444E-1,-5.360127E-1,8.214711E-2,4.5761895E-1,2.7884993E-1,-1.02910236E-1,-1.4594214E-1,-4.9585328E-1,-5.5146736E-1,-1.1216074E-1,4.375028E-1,-2.5322098E-1,6.2463228E-2,5.233607E-1,-6.146722E-1,3.133059E-1,5.098906E-1,-1.5775126E-1,-1.0295548E-1,-5.6540334E-1,8.428969E-1,-5.08246E-1,-5.9999496E-2,-5.647514E-1,-2.176273E-1,3.6465305E-1,-2.2286741E-1,5.013458E-1,6.0004485E-1,-8.000676E-1,7.48832E-1,4.151255E-1,2.7457112E-1,-2.3379572E-1,1.9943254E-1,5.5910164E-1,6.1667204E-1,-2.1444514E-1,-1.941101E-1,9.100989E-1,-4.8844254E-1,-5.797286E-2,4.40671E-2,-5.7534915E-1,-9.073034E-2,7.397759E-1,3.0297813E-1,-5.2495843E-1,-1.7748353E-1,6.368896E-1,-5.666944E-1,2.479958E-1,4.1827327E-1,-5.3656447E-1,1.6638525E-1,-1.8598828E-1,-1.22589864E-1,2.1447794E-1,-2.2102451E-1,-2.7362996E-1,-1.9059445E-1,2.3763591E-1,-6.322769E-2,1.8366766E-1,-5.9451286E-2,9.8352015E-2,-2.3735775E-1,1.829451E-1,7.9473E-2,2.305662E-1,-3.296325E-2,-1.7387128E-1,-1.7893505E-1,2.8694314E-1,4.335808E-1,-1.534422E-1,1.2319997E-1,-2.7367067E-2,-1.7962189E-1,4.122826E-1,-1.7593946E-1,-8.006445E-2,-1.4394596E-1,6.5757215E-1,3.785643E-2,3.574366E-1,-1.6093467E-1,1.102149E-1,4.8526612E-1,-1.865889E-1,-1.7117208E-1,-8.755704E-2,-1.0897697E-1,5.1314116E-1,3.366235E-1,-1.8809508E-1,-1.7468366E-1,3.9819172E-1],"categories":[],"categories_nodes":[],"categories_segments":[],"categories_sizes":[],"default_left":[0,0,0,0,0,0,0,0,0,0,0,0,0,0,0,0,0,0,0,0,0,0,0,0,0,0,0,0,0,0,0,0,0,0,0,0,0,0,0,0,0,0,0,0,0,0,0,0,0,0,0,0,0,0,0,0,0,0,0,0,0,0,0,0,0,0,0,0,0,0,0,0,0,0,0,0,0,0,0,0,0,0,0,0,0,0,0,0,0,0,0,0,0,0,0,0,0,0,0,0,0,0,0],"id":12,"left_children":[1,3,5,7,9,11,13,15,17,19,21,23,25,27,29,31,-1,33,35,37,39,41,43,45,47,49,51,53,55,57,-1,-1,59,61,63,65,67,-1,-1,69,71,73,-1,75,77,79,81,83,85,87,-1,89,91,-1,93,95,97,99,101,-1,-1,-1,-1,-1,-1,-1,-1,-1,-1,-1,-1,-1,-1,-1,-1,-1,-1,-1,-1,-1,-1,-1,-1,-1,-1,-1,-1,-1,-1,-1,-1,-1,-1,-1,-1,-1,-1,-1,-1,-1,-1,-1,-1],"loss_changes":[1.6769673E3,2.5291899E2,9.8722754E2,7.066223E1,3.055009E2,7.0408813E2,7.7576416E1,2.0827332E2,6.3653625E1,1.0682507E2,1.7852649E2,5.9207965E2,1.1609668E2,7.462134E1,5.8824715E1,3.482515E1,0E0,1.6314743E2,5.0979065E1,3.3192387E1,9.325043E1,5.7510742E1,1.8943115E2,5.165057E2,1.8527771E1,9.769106E1,9.382178E1,1.1228418E2,1.7722412E1,7.897322E1,0E0,0E0,2.6287086E1,2.5401901E1,2.8657532E-1,4.1272278E1,1.7558397E2,0E0,0E0,1.1652616E2,7.276486E1,2.1270248E1,0E0,1.5301735E2,1.1797348E1,1.3936395E2,4.1572748E2,4.3524834E1,1.0141724E1,3.8174442E1,0E0,2.1853727E1,6.960693E1,0E0,1.6296753E2,1.1676025E1,2.4980274E1,9.652837E1,2.2843369E1,0E0,0E0,0E0,0E0,0E0,0E0,0E0,0E0,0E0,0E0,0E0,0E0,0E0,0E0,0E0,0E0,0E0,0E0,0E0,0E0,0E0,0E0,0E0,0E0,0E0,0E0,0E0,0E0,0E0,0E0,0E0,0E0,0E0,0E0,0E0,0E0,0E0,0E0,0E0,0E0,0E0,0E0,0E0,0E0],"parents":[2147483647,0,0,1,1,2,2,3,3,4,4,5,5,6,6,7,7,8,8,9,9,10,10,11,11,12,12,13,13,14,14,15,15,17,17,18,18,19,19,20,20,21,21,22,22,23,23,24,24,25,25,26,26,27,27,28,28,29,29,32,32,33,33,34,34,35,35,36,36,39,39,40,40,41,41,43,43,44,44,45,45,46,46,47,47,48,48,49,49,51,51,52,52,54,54,55,55,56,56,57,57,58,58],"right_children":[2,4,6,8,10,12,14,16,18,20,22,24,26,28,30,32,-1,34,36,38,40,42,44,46,48,50,52,54,56,58,-1,-1,60,62,64,66,68,-1,-1,70,72,74,-1,76,78,80,82,84,86,88,-1,90,92,-1,94,96,98,100,102,-1,-1,-1,-1,-1,-1,-1,-1,-1,-1,-1,-1,-1,-1,-1,-1,-1,-1,-1,-1,-1,-1,-1,-1,-1,-1,-1,-1,-1,-1,-1,-1,-1,-1,-1,-1,-1,-1,-1,-1,-1,-1,-1,-1],"split_conditions":[-5.3256935E-1,-9.031615E-1,8.919192E-2,-1.4493405E0,-1.3827668E0,4.774566E-3,1.2961451E0,-1.6000003E0,-1.6665224E0,-6.936899E-1,-1.1697712E0,2.506039E-1,-1.3200996E0,-1.2082325E0,1.1934208E0,-2.1906912E0,-2.5322098E-1,-1.9413669E0,-1.6469051E0,-2.1302712E0,-1.6319221E0,1.850539E0,2.071885E0,-3.1315336E-1,-1.2082325E0,9.4564414E-1,-1.0998614E0,-1.2385726E0,2.2660437E0,1.5119464E0,3.6465305E-1,-2.2286741E-1,-1.6319221E0,-1.8738825E0,-4.2750195E-1,-1.7085783E0,-1.4176857E0,2.7457112E-1,-2.3379572E-1,-4.3984586E-1,-4.8298624E-1,-1.4867766E0,-2.1444514E-1,2.499168E-1,-6.2279385E-1,-1.9654256E0,-1.0548772E0,-1.2385726E0,1.2984256E0,9.505265E-1,7.397759E-1,6.6913176E-1,2.322452E0,-1.7748353E-1,5.8469516E-1,1.2984256E0,3.4036607E-2,4.086679E-1,1.2056265E0,1.6638525E-1,-1.8598828E-1,-1.22589864E-1,2.1447794E-1,-2.2102451E-1,-2.7362996E-1,-1.9059445E-1,2.3763591E-1,-6.322769E-2,1.8366766E-1,-5.9451286E-2,9.8352015E-2,-2.3735775E-1,1.829451E-1,7.9473E-2,2.305662E-1,-3.296325E-2,-1.7387128E-1,-1.7893505E-1,2.8694314E-1,4.335808E-1,-1.534422E-1,1.2319997E-1,-2.7367067E-2,-1.7962189E-1,4.122826E-1,-1.7593946E-1,-8.006445E-2,-1.4394596E-1,6.5757215E-1,3.785643E-2,3.574366E-1,-1.6093467E-1,1.102149E-1,4.8526612E-1,-1.865889E-1,-1.7117208E-1,-8.755704E-2,-1.0897697E-1,5.1314116E-1,3.366235E-1,-1.8809508E-1,-1.7468366E-1,3.9819172E-1],"split_indices":[4,26,4,3,4,28,15,3,4,14,28,2,14,16,38,26,0,4,26,4,4,12,12,12,16,39,1,16,12,15,0,0,4,37,38,2,26,0,0,25,16,27,0,36,37,36,36,16,13,40,0,14,36,0,4,13,25,4,39,0,0,0,0,0,0,0,0,0,0,0,0,0,0,0,0,0,0,0,0,0,0,0,0,0,0,0,0,0,0,0,0,0,0,0,0,0,0,0,0,0,0,0,0],"split_type":[0,0,0,0,0,0,0,0,0,0,0,0,0,0,0,0,0,0,0,0,0,0,0,0,0,0,0,0,0,0,0,0,0,0,0,0,0,0,0,0,0,0,0,0,0,0,0,0,0,0,0,0,0,0,0,0,0,0,0,0,0,0,0,0,0,0,0,0,0,0,0,0,0,0,0,0,0,0,0,0,0,0,0,0,0,0,0,0,0,0,0,0,0,0,0,0,0,0,0,0,0,0,0],"sum_hessian":[6.3513223E4,1.1852573E4,5.166065E4,3.081191E3,8.771383E3,3.9809426E4,1.1851221E4,6.3066516E2,2.450526E3,3.4625347E3,5.308848E3,3.2838574E4,6.9708535E3,1.1434008E4,4.1721274E2,4.5617505E2,1.744901E2,3.498176E2,2.1007083E3,1.2793926E2,3.3345955E3,4.3539447E2,4.8734536E3,2.9787207E4,3.0513665E3,6.3322205E1,6.9075312E3,3.0106482E2,1.1132943E4,3.8728403E2,2.9928703E1,2.2861042E1,4.33314E2,2.1569049E2,1.3412709E2,6.794295E2,1.4212787E3,1.1987924E1,1.1595134E2,2.2800806E3,1.0545149E3,4.009338E2,3.446067E1,4.7137744E3,1.5967934E2,3.1116318E3,2.6675574E4,4.8939957E1,3.0024265E3,4.079779E1,2.2524416E1,1.3908742E2,6.768444E3,1.7087004E2,1.301948E2,1.1106694E4,2.624893E1,1.2925749E2,2.5802652E2,4.14144E2,1.916999E1,2.1792454E1,1.9389804E2,9.05344E1,4.3592697E1,2.0189316E1,6.592402E2,3.403715E2,1.0809072E3,5.564707E2,1.7236099E3,3.7644024E1,1.01687085E3,1.21735565E2,2.7919824E2,3.869483E3,8.442914E2,4.41461E0,1.5526472E2,3.5898003E1,3.075734E3,1.76653E3,2.4909045E4,3.3366093E1,1.5573864E1,2.8971265E3,1.0529998E2,3.5531094E1,5.266696E0,1.1695719E2,2.213023E1,6.68279E3,8.565372E1,7.30235E1,5.717129E1,1.095105E4,1.5564424E2,1.9041857E1,7.207073E0,7.7201645E1,5.205585E1,2.5252066E2,5.5058703E0],"tree_param":{"num_deleted":"0","num_feature":"48","num_nodes":"103","size_leaf_vector":"1"}},{"base_weights":[1.6347425E-1,1.6030915E-1,8.089061E-1,1.5638007E-1,6.142971E-1,2.573133E-1,2.2948268E-1,1.3905083E-1,2.5137824E-1,7.1088094E-1,-2.0946994E-1,-2.2733356E-1,1.4697361E-1,7.903303E-1,2.2201994E-1,7.97676E-1,1.8530492E-1,9.962725E-1,-2.859688E-1,1.5971069E-1,4.805769E-3,8.824731E-1,-2.9705086E-1,2.4852198E-1,-1.8505065E-1,8.177186E-1,4.033127E-1,-2.3449133E-1,2.3841543E-1,2.195952E-1,3.2245082E-1,-1.0516005E-1,1.1491096E-1,4.338973E-2,9.4957106E-2,-8.256854E-2,3.8128622E-2,2.72991E-1,1.58604E-1,-1.5689859E-1,7.917849E-2,1.7203453E-1,-1.2468373E-1,2.4815774E-1,2.05213E-1,-2.4003191E-1,2.335165E-1],"categories":[],"categories_nodes":[],"categories_segments":[],"categories_sizes":[],"default_left":[0,0,0,0,0,0,0,0,0,0,0,0,0,0,0,0,0,0,0,0,0,0,0,0,0,0,0,0,0,0,0,0,0,0,0,0,0,0,0,0,0,0,0,0,0,0,0],"id":13,"left_children":[1,3,5,7,9,-1,-1,11,13,15,-1,17,19,21,23,25,27,29,31,33,35,37,-1,39,41,43,45,-1,-1,-1,-1,-1,-1,-1,-1,-1,-1,-1,-1,-1,-1,-1,-1,-1,-1,-1,-1],"loss_changes":[1.9242505E2,1.672185E2,3.3032227E-1,1.5305884E2,1.02480316E2,0E0,0E0,2.2833997E2,2.2681097E2,3.4057953E1,0E0,1.1975414E2,1.394071E2,1.2239114E2,1.4682935E2,4.7545776E0,6.401575E1,7.989197E-1,6.880385E1,1.6701929E2,2.168517E2,6.375E0,0E0,1.5198083E2,1.4577977E2,2.081604E-1,1.5556088E1,0E0,0E0,0E0,0E0,0E0,0E0,0E0,0E0,0E0,0E0,0E0,0E0,0E0,0E0,0E0,0E0,0E0,0E0,0E0,0E0],"parents":[2147483647,0,0,1,1,2,2,3,3,4,4,7,7,8,8,9,9,11,11,12,12,13,13,14,14,15,15,16,16,17,17,18,18,19,19,20,20,21,21,23,23,24,24,25,25,26,26],"right_children":[2,4,6,8,10,-1,-1,12,14,16,-1,18,20,22,24,26,28,30,32,34,36,38,-1,40,42,44,46,-1,-1,-1,-1,-1,-1,-1,-1,-1,-1,-1,-1,-1,-1,-1,-1,-1,-1,-1,-1],"split_conditions":[2.2895327E0,1.9352564E0,1.9009722E0,1.5646316E-2,3.615385E0,2.573133E-1,2.2948268E-1,-1.5287008E0,1.0221726E-1,1.0351292E0,-2.0946994E-1,-2.1541138E0,9.6798337E-1,1.064206E-1,2.071885E0,1.0417608E0,1.146772E0,-2.265687E0,3.8893878E-1,7.5685936E-1,1.1126679E0,5.850202E-1,-2.9705086E-1,-2.0862625E0,-2.3465121E-1,1.0733093E0,1.1212113E0,-2.3449133E-1,2.3841543E-1,2.195952E-1,3.2245082E-1,-1.0516005E-1,1.1491096E-1,4.338973E-2,9.4957106E-2,-8.256854E-2,3.8128622E-2,2.72991E-1,1.58604E-1,-1.5689859E-1,7.917849E-2,1.7203453E-1,-1.2468373E-1,2.4815774E-1,2.05213E-1,-2.4003191E-1,2.335165E-1],"split_indices":[2,25,0,12,25,0,0,2,12,3,0,28,25,14,12,0,3,38,14,2,25,16,0,40,36,1,0,0,0,0,0,0,0,0,0,0,0,0,0,0,0,0,0,0,0,0,0],"split_type":[0,0,0,0,0,0,0,0,0,0,0,0,0,0,0,0,0,0,0,0,0,0,0,0,0,0,0,0,0,0,0,0,0,0,0,0,0,0,0,0,0,0,0,0,0,0,0],"sum_hessian":[9.425682E4,9.37981E4,4.5872244E2,9.299462E4,8.034854E2,2.086204E2,2.5010205E2,7.8650016E4,1.4344602E4,7.488397E2,5.4645725E1,1.664159E3,7.698585E4,7.3968774E2,1.3604914E4,6.4225775E2,1.06581955E2,7.5368614E1,1.5887904E3,7.065557E4,6.3302876E3,7.037712E2,3.5916553E1,1.2773682E4,8.312319E2,6.101736E2,3.2084145E1,4.1094925E1,6.548703E1,1.9634638E1,5.5733974E1,1.4493882E3,1.3940219E2,6.4459434E4,6.1961353E3,1.9237626E3,4.406525E3,6.515599E2,5.221134E1,2.4943672E2,1.2524245E4,1.9342331E2,6.378086E2,5.6494666E2,4.5226963E1,7.3544436E0,2.4729702E1],"tree_param":{"num_deleted":"0","num_feature":"48","num_nodes":"47","size_leaf_vector":"1"}},{"base_weights":[-3.0899612E-2,-5.6824327E-1,-6.687919E-3,-2.3660414E-1,-5.8420557E-1,-3.9686406E-1,2.0875724E-2,-1.7914861E-1,2.6480564E-1,-4.632449E-1,-5.89325E-1,3.2059136E-1,-4.7332248E-1,4.308276E-2,-3.0523255E-1,-1.8077318E-1,2.8332788E-1,-4.807311E-1,-1.7718819E-1,-4.472285E-2,1.2474284E0,-4.86901E-1,4.048573E-1,-1.2099073E-2,1.7017658E-1,-4.373966E-1,7.335401E-2,-1.806458E-1,2.5120413E-1,-3.6238414E-1,4.4702843E-1,2.418996E-1,1.5318425E0,1.4669968E-1,-5.144993E-1,-5.770738E-1,-8.531307E-4,1.8449132E-1,-1.9858743E-1,-4.5817012E-1,5.3868616E-1,1.216423E0,-2.1333005E-2,-1.5064694E-1,1.5293595E-1,2.4333937E-1,-1.9304477E-1,3.0488276E-1,4.870224E-1,-8.148655E-3,4.361788E-1,-1.6516304E-1,-3.411552E-2,-1.7869356E-1,1.6474926E-1,-9.243816E-3,5.828025E-2,4.6091445E-2,1.5815543E-1,-1.5437396E-1,-6.767416E-2,4.457459E-1,4.150724E-2,-1.5731208E-1,4.0469888E-1,5.4921335E-1,-2.0459447E-2],"categories":[],"categories_nodes":[],"categories_segments":[],"categories_sizes":[],"default_left":[0,0,0,0,0,0,0,0,0,0,0,0,0,0,0,0,0,0,0,0,0,0,0,0,0,0,0,0,0,0,0,0,0,0,0,0,0,0,0,0,0,0,0,0,0,0,0,0,0,0,0,0,0,0,0,0,0,0,0,0,0,0,0,0,0,0,0],"id":14,"left_children":[1,3,5,7,9,11,13,-1,-1,15,17,19,21,23,25,-1,-1,27,-1,29,31,33,-1,35,37,39,41,-1,-1,43,45,-1,47,49,51,53,55,57,-1,59,61,63,65,-1,-1,-1,-1,-1,-1,-1,-1,-1,-1,-1,-1,-1,-1,-1,-1,-1,-1,-1,-1,-1,-1,-1,-1],"loss_changes":[1.0101633E3,1.7583618E1,7.9906726E2,6.324649E1,1.7044678E0,2.6908008E2,5.0258093E2,0E0,0E0,2.6917067E1,1.4880371E-1,1.6011716E2,1.1032501E2,4.5567993E2,2.2141849E2,0E0,0E0,7.1674643E0,0E0,5.3281143E1,1.5536133E1,7.699304E1,0E0,2.8785E2,2.3442834E2,6.675043E1,1.2403817E2,0E0,0E0,2.5508171E1,5.3689198E1,0E0,2.1346588E0,4.194493E1,6.083142E1,1.882071E1,2.5968155E2,2.0438556E2,0E0,4.2026306E1,2.5883827E1,2.0939713E1,9.2051926E1,0E0,0E0,0E0,0E0,0E0,0E0,0E0,0E0,0E0,0E0,0E0,0E0,0E0,0E0,0E0,0E0,0E0,0E0,0E0,0E0,0E0,0E0,0E0,0E0],"parents":[2147483647,0,0,1,1,2,2,3,3,4,4,5,5,6,6,9,9,10,10,11,11,12,12,13,13,14,14,17,17,19,19,20,20,21,21,23,23,24,24,25,25,26,26,29,29,30,30,32,32,33,33,34,34,35,35,36,36,37,37,39,39,40,40,41,41,42,42],"right_children":[2,4,6,8,10,12,14,-1,-1,16,18,20,22,24,26,-1,-1,28,-1,30,32,34,-1,36,38,40,42,-1,-1,44,46,-1,48,50,52,54,56,58,-1,60,62,64,66,-1,-1,-1,-1,-1,-1,-1,-1,-1,-1,-1,-1,-1,-1,-1,-1,-1,-1,-1,-1,-1,-1,-1,-1],"split_conditions":[-1.2169156E0,-9.915458E-1,-6.469163E-1,-1.0033152E0,-7.9582214E-1,-2.3780622E-1,7.699225E-1,-1.7914861E-1,2.6480564E-1,-8.488558E-1,-7.9237896E-1,-5.5976427E-1,1.7011796E0,5.081875E-2,1.196458E-1,-1.8077318E-1,2.8332788E-1,-8.555946E-1,-1.7718819E-1,3.646508E-1,-9.0561324E-1,-2.4227786E-1,4.048573E-1,-1.1632686E0,2.2895327E0,1.0942342E0,-8.437178E-1,-1.806458E-1,2.5120413E-1,8.1477545E-2,1.295949E0,2.418996E-1,-3.9239082E-1,-4.3035504E-1,6.4660347E-1,4.719435E-3,1.9207838E-1,1.2459054E0,-1.9858743E-1,3.8680676E-1,-7.00062E-2,-1.2778782E0,-4.4764617E-1,-1.5064694E-1,1.5293595E-1,2.4333937E-1,-1.9304477E-1,3.0488276E-1,4.870224E-1,-8.148655E-3,4.361788E-1,-1.6516304E-1,-3.411552E-2,-1.7869356E-1,1.6474926E-1,-9.243816E-3,5.828025E-2,4.6091445E-2,1.5815543E-1,-1.5437396E-1,-6.767416E-2,4.457459E-1,4.150724E-2,-1.5731208E-1,4.0469888E-1,5.4921335E-1,-2.0459447E-2],"split_indices":[28,16,2,16,13,16,13,0,0,13,15,16,36,0,4,0,0,15,0,38,4,12,0,26,0,2,39,0,0,39,36,0,15,12,36,0,3,38,0,25,26,25,3,0,0,0,0,0,0,0,0,0,0,0,0,0,0,0,0,0,0,0,0,0,0,0,0],"split_type":[0,0,0,0,0,0,0,0,0,0,0,0,0,0,0,0,0,0,0,0,0,0,0,0,0,0,0,0,0,0,0,0,0,0,0,0,0,0,0,0,0,0,0,0,0,0,0,0,0,0,0,0,0,0,0,0,0,0,0,0,0,0,0,0,0,0,0],"sum_hessian":[7.7644445E4,3.346704E3,7.429774E4,1.5441191E2,3.1922922E3,4.9014893E3,6.939625E4,1.17143E2,3.726891E1,1.333365E2,3.0589556E3,4.717337E2,4.429756E3,6.4972668E4,4.423584E3,1.2184784E2,1.1488662E1,4.0634113E1,3.0183215E3,3.3904883E2,1.3268486E2,4.3977295E3,3.2026077E1,4.5303582E4,1.9669088E4,3.278803E3,1.1447809E3,3.7703976E1,2.9301376E0,2.0614587E2,1.3290295E2,5.3518436E1,7.916643E1,1.8338017E2,4.2143496E3,8.831957E2,4.4420383E4,1.9337219E4,3.318692E2,3.2109954E3,6.780758E1,8.666825E1,1.0581127E3,1.780381E2,2.810778E1,9.9828224E1,3.3074734E1,1.3764307E1,6.540212E1,1.6271788E2,2.0662296E1,3.8662642E3,3.4808536E2,8.693318E2,1.3863903E1,3.8508484E4,5.911902E3,1.7741385E4,1.5958344E3,2.583266E3,6.277291E2,1.9339935E1,4.8467644E1,5.9241257E0,8.0744125E1,2.5174852E1,1.0329379E3],"tree_param":{"num_deleted":"0","num_feature":"48","num_nodes":"67","size_leaf_vector":"1"}},{"base_weights":[-1.7729121E-1,-1.04787305E-1,-5.0372034E-1,2.458098E-1,-1.5756862E-1,-1.5188313E-1,-5.351259E-1,1.9845156E-1,7.2433925E-1,-4.7036397E-1,-1.0523724E-1,-3.4147036E-1,8.6113715E-1,-5.411385E-1,1.0526837E-1,4.5437494E-1,8.45174E-2,8.8846695E-1,-6.54946E-2,6.9157696E-1,-4.95011E-1,-6.0071226E-2,-4.9009436E-1,-1.922863E-1,-9.973899E-2,-1.748303E-1,1.1150537E0,-2.0570786E-1,-5.4777265E-1,-3.8783777E-1,1.0633354E0,1.18409514E-1,6.251517E-1,-4.0559325E-2,4.2685118E-1,-1.8008931E-1,9.0955174E-1,3.0781707E-1,-2.264534E-1,-1.8852036E-1,8.9582825E-1,-3.5718247E-2,-5.3810763E-1,3.0387557E-1,-1.0536484E-1,4.0998448E-2,-5.14741E-1,7.5560206E-1,-1.8303338E-1,-1.432454E-1,1.1680503E0,9.444395E-1,-3.1080097E-1,-5.580279E-1,-4.445747E-1,-5.5193216E-1,2.9605073E-1,4.503177E-1,2.7632502E-1,1.2275002E-1,-7.353321E-2,1.9589932E-1,-1.978967E-1,-1.4620653E-1,2.5299974E-2,-1.9161557E-1,1.7703485E-1,2.3907642E-1,3.4057385E-1,4.799884E-1,2.1173775E-1,-8.773011E-2,2.9005745E-1,2.2909461E-1,-1.6469842E-1,8.600765E-2,6.50345E-1,1.4149112E-1,-3.8515173E-2,-5.5703122E-2,4.0979895E-1,3.737617E-1,-1.5619351E-1,-1.8865444E-1,3.309276E-1,2.8043345E-1,4.1220304E-1,-1.6769058E-1,4.928315E-1,-1.1668525E-1,3.0769077E-1,-1.2195932E-1,-1.6864271E-1,1.0289221E0,-1.671744E-1,-1.8036234E-1,2.7263814E-1],"categories":[],"categories_nodes":[],"categories_segments":[],"categories_sizes":[],"default_left":[0,0,0,0,0,0,0,0,0,0,0,0,0,0,0,0,0,0,0,0,0,0,0,0,0,0,0,0,0,0,0,0,0,0,0,0,0,0,0,0,0,0,0,0,0,0,0,0,0,0,0,0,0,0,0,0,0,0,0,0,0,0,0,0,0,0,0,0,0,0,0,0,0,0,0,0,0,0,0,0,0,0,0,0,0,0,0,0,0,0,0,0,0,0,0,0,0],"id":15,"left_children":[1,3,5,7,9,11,13,15,17,19,21,23,25,27,29,31,33,35,37,39,41,43,45,-1,47,-1,49,51,53,55,57,59,61,63,65,-1,67,-1,-1,-1,69,71,73,75,77,79,81,83,-1,-1,85,87,89,91,93,95,-1,-1,-1,-1,-1,-1,-1,-1,-1,-1,-1,-1,-1,-1,-1,-1,-1,-1,-1,-1,-1,-1,-1,-1,-1,-1,-1,-1,-1,-1,-1,-1,-1,-1,-1,-1,-1,-1,-1,-1,-1],"loss_changes":[1.4031261E3,8.9778033E2,1.1897754E2,1.4372324E2,6.9017017E2,1.7014165E2,3.81438E1,1.6843846E2,7.4119354E1,1.7340796E2,6.2789624E2,5.391823E1,5.186876E1,2.1694092E1,4.427466E1,1.0203482E2,1.7125978E2,1.5396301E1,7.5437195E1,3.4517605E1,1.1712549E2,5.329923E2,4.9683594E1,0E0,1.8110281E2,0E0,1.0614044E1,2.3459831E1,9.921387E0,1.453685E1,5.9846497E-1,6.3623608E1,4.263571E1,1.6354102E2,1.8657417E2,0E0,1.0963348E1,0E0,0E0,0E0,1.3519928E1,1.3122421E2,7.709778E1,1.13996124E2,3.8196576E2,5.1068554E1,3.8338196E1,7.5302765E1,0E0,0E0,4.2697754E0,1.8024927E1,1.8818893E1,5.217285E0,3.8322324E2,4.581127E0,0E0,0E0,0E0,0E0,0E0,0E0,0E0,0E0,0E0,0E0,0E0,0E0,0E0,0E0,0E0,0E0,0E0,0E0,0E0,0E0,0E0,0E0,0E0,0E0,0E0,0E0,0E0,0E0,0E0,0E0,0E0,0E0,0E0,0E0,0E0,0E0,0E0,0E0,0E0,0E0,0E0],"parents":[2147483647,0,0,1,1,2,2,3,3,4,4,5,5,6,6,7,7,8,8,9,9,10,10,11,11,12,12,13,13,14,14,15,15,16,16,17,17,18,18,19,19,20,20,21,21,22,22,24,24,26,26,27,27,28,28,29,29,30,30,31,31,32,32,33,33,34,34,36,36,40,40,41,41,42,42,43,43,44,44,45,45,46,46,47,47,50,50,51,51,52,52,53,53,54,54,55,55],"right_children":[2,4,6,8,10,12,14,16,18,20,22,24,26,28,30,32,34,36,38,40,42,44,46,-1,48,-1,50,52,54,56,58,60,62,64,66,-1,68,-1,-1,-1,70,72,74,76,78,80,82,84,-1,-1,86,88,90,92,94,96,-1,-1,-1,-1,-1,-1,-1,-1,-1,-1,-1,-1,-1,-1,-1,-1,-1,-1,-1,-1,-1,-1,-1,-1,-1,-1,-1,-1,-1,-1,-1,-1,-1,-1,-1,-1,-1,-1,-1,-1,-1],"split_conditions":[7.998493E-2,-9.031615E-1,-8.552043E-1,1.3306214E0,0E0,-9.088513E-1,2.2660437E0,-1.6469051E0,1.850539E0,-1.0811722E0,2.8799243E-2,-1.3372151E0,-2.3360288E-1,-8.552043E-1,1.8888809E-1,-1.9590335E0,-1.1023059E0,-2.0110548E0,-1.563996E0,-1.3063154E0,-1.2082325E0,-6.8504316E-1,-8.552043E-1,-1.922863E-1,-1.2169156E0,-1.748303E-1,-3.8053172E-3,-6.571723E-2,1.2616984E0,4.774566E-3,1.28318835E-2,-1.7777714E0,5.041357E-3,-1.2550514E0,-5.679474E-1,-1.8008931E-1,-9.974503E-1,3.0781707E-1,-2.264534E-1,-1.8852036E-1,-1.2082325E0,3.0037314E-1,-1.6319221E0,2.9636243E-2,-8.365091E-1,-9.088513E-1,-1.3200996E0,3.1196234E-1,-1.8303338E-1,-1.432454E-1,-5.999743E-1,-1.3982381E-1,-8.787765E-1,-6.072898E-1,5.699511E-1,1.8888809E-1,2.9605073E-1,4.503177E-1,2.7632502E-1,1.2275002E-1,-7.353321E-2,1.9589932E-1,-1.978967E-1,-1.4620653E-1,2.5299974E-2,-1.9161557E-1,1.7703485E-1,2.3907642E-1,3.4057385E-1,4.799884E-1,2.1173775E-1,-8.773011E-2,2.9005745E-1,2.2909461E-1,-1.6469842E-1,8.600765E-2,6.50345E-1,1.4149112E-1,-3.8515173E-2,-5.5703122E-2,4.0979895E-1,3.737617E-1,-1.5619351E-1,-1.8865444E-1,3.309276E-1,2.8043345E-1,4.1220304E-1,-1.6769058E-1,4.928315E-1,-1.1668525E-1,3.0769077E-1,-1.2195932E-1,-1.6864271E-1,1.0289221E0,-1.671744E-1,-1.8036234E-1,2.7263814E-1],"split_indices":[3,26,28,12,16,28,12,26,12,24,2,28,15,25,39,28,26,26,26,37,16,38,28,0,28,0,16,4,4,28,4,25,2,37,14,0,28,0,0,0,16,1,4,3,24,28,15,3,0,0,25,4,25,24,3,38,0,0,0,0,0,0,0,0,0,0,0,0,0,0,0,0,0,0,0,0,0,0,0,0,0,0,0,0,0,0,0,0,0,0,0,0,0,0,0,0,0],"split_type":[0,0,0,0,0,0,0,0,0,0,0,0,0,0,0,0,0,0,0,0,0,0,0,0,0,0,0,0,0,0,0,0,0,0,0,0,0,0,0,0,0,0,0,0,0,0,0,0,0,0,0,0,0,0,0,0,0,0,0,0,0,0,0,0,0,0,0,0,0,0,0,0,0,0,0,0,0,0,0,0,0,0,0,0,0,0,0,0,0,0,0,0,0,0,0,0,0],"sum_hessian":[5.9286434E4,4.851253E4,1.0773905E4,6.347295E3,4.2165234E4,8.8336633E2,9.890539E3,5.776984E3,5.703113E2,6.0421396E3,3.6123094E4,7.4466486E2,1.3870148E2,9.798694E3,9.1844185E1,1.7786724E3,3.9983115E3,4.7208664E2,9.822463E1,1.2494121E2,5.917198E3,3.2330064E4,3.7930315E3,3.3186356E2,4.1280133E2,2.0549717E1,1.1815176E2,1.9065889E2,9.608036E3,6.1028633E1,3.081555E1,5.999996E2,1.1786729E3,2.9290288E3,1.0692826E3,6.208986E0,4.6587766E2,3.783165E1,6.0392982E1,1.6464226E1,1.0847698E2,5.077539E2,5.4094443E3,3.5775713E3,2.8752492E4,1.6818872E2,3.6248428E3,1.5408588E2,2.5871545E2,3.5472665E0,1.14604485E2,1.5293955E1,1.7536494E2,8.735532E3,8.725035E2,5.5055206E1,5.9734244E0,5.215338E0,2.5600212E1,3.3329337E2,2.667062E2,1.1541503E3,2.452253E1,6.3924945E2,2.2897793E3,1.4167969E2,9.276029E2,3.138068E2,1.5207086E2,2.1477577E1,8.6999405E1,4.0480865E2,1.0294527E2,4.4292526E1,5.365152E3,3.5460347E3,3.1536592E1,1.1023065E3,2.7650186E4,1.443532E2,2.3835518E1,1.1412932E1,3.6134297E3,3.075275E1,1.2333312E2,5.6336185E1,5.82683E1,4.914124E0,1.037983E1,1.6634657E2,9.018367E0,2.3360934E2,8.501923E3,2.3825197E1,8.486783E2,5.3827816E1,1.2273921E0],"tree_param":{"num_deleted":"0","num_feature":"48","num_nodes":"97","size_leaf_vector":"1"}},{"base_weights":[1.2795167E-1,1.2529127E-1,7.269217E-1,1.2181084E-1,5.5744696E-1,2.3256262E-1,2.035187E-1,1.1326695E-1,2.932927E-1,6.4298016E-1,-1.956965E-1,1.1670933E-1,-5.982659E-1,4.5868695E-1,-3.029009E-2,7.1944904E-1,1.7487934E-1,-2.194063E-2,1.2785257E-1,-8.151863E-1,3.3546665E-1,5.8777314E-1,7.166261E-2,-2.580168E-1,8.0941105E-1,7.371103E-1,3.7052625E-1,-2.1381259E-1,2.1852696E-1,-2.3501968E-1,-8.139637E-4,3.4205496E-2,7.749966E-2,-2.638789E-1,-9.444473E-2,1.5458435E-1,3.211151E-1,-2.542431E-1,1.1663405E-1,2.643755E-1,-1.0247928E-1,2.806593E-1,-2.2411925E-1,2.2402486E-1,1.8063045E-1,-2.129914E-1,2.1339764E-1],"categories":[],"categories_nodes":[],"categories_segments":[],"categories_sizes":[],"default_left":[0,0,0,0,0,0,0,0,0,0,0,0,0,0,0,0,0,0,0,0,0,0,0,0,0,0,0,0,0,0,0,0,0,0,0,0,0,0,0,0,0,0,0,0,0,0,0],"id":16,"left_children":[1,3,5,7,9,-1,-1,11,13,15,-1,17,19,21,23,25,27,29,31,33,-1,35,37,39,41,43,45,-1,-1,-1,-1,-1,-1,-1,-1,-1,-1,-1,-1,-1,-1,-1,-1,-1,-1,-1,-1],"loss_changes":[1.4917188E2,1.4020007E2,4.441681E-1,1.355105E2,7.748633E1,0E0,0E0,2.1591895E2,2.3496088E2,2.4791504E1,0E0,1.3550208E2,1.5895355E2,1.4509827E2,2.8433356E2,3.4122314E0,4.9193703E1,9.5529915E1,1.4650269E2,1.1886597E1,0E0,7.566077E1,2.1245322E2,1.1167167E2,6.2972275E1,2.8988647E-1,1.1855085E1,0E0,0E0,0E0,0E0,0E0,0E0,0E0,0E0,0E0,0E0,0E0,0E0,0E0,0E0,0E0,0E0,0E0,0E0,0E0,0E0],"parents":[2147483647,0,0,1,1,2,2,3,3,4,4,7,7,8,8,9,9,11,11,12,12,13,13,14,14,15,15,16,16,17,17,18,18,19,19,21,21,22,22,23,23,24,24,25,25,26,26],"right_children":[2,4,6,8,10,-1,-1,12,14,16,-1,18,20,22,24,26,28,30,32,34,-1,36,38,40,42,44,46,-1,-1,-1,-1,-1,-1,-1,-1,-1,-1,-1,-1,-1,-1,-1,-1,-1,-1,-1,-1],"split_conditions":[2.2895327E0,1.9352564E0,2.2895327E0,1.295949E0,3.615385E0,2.3256262E-1,2.035187E-1,1.2593318E0,1.803708E0,1.0351292E0,-1.956965E-1,-7.790333E-1,7.7926517E-1,4.8245254E-1,2.5208476E-1,1.0417608E0,1.146772E0,-8.8611346E-1,5.127138E-1,1.3118165E0,3.3546665E-1,1.28318835E-2,-9.312055E-1,-4.8421657E-1,1.1881549E0,1.0733093E0,1.1212113E0,-2.1381259E-1,2.1852696E-1,-2.3501968E-1,-8.139637E-4,3.4205496E-2,7.749966E-2,-2.638789E-1,-9.444473E-2,1.5458435E-1,3.211151E-1,-2.542431E-1,1.1663405E-1,2.643755E-1,-1.0247928E-1,2.806593E-1,-2.2411925E-1,2.2402486E-1,1.8063045E-1,-2.129914E-1,2.1339764E-1],"split_indices":[0,25,2,36,25,0,0,36,36,3,0,1,1,3,3,0,3,16,15,37,0,3,15,2,14,1,0,0,0,0,0,0,0,0,0,0,0,0,0,0,0,0,0,0,0,0,0],"split_type":[0,0,0,0,0,0,0,0,0,0,0,0,0,0,0,0,0,0,0,0,0,0,0,0,0,0,0,0,0,0,0,0,0,0,0,0,0,0,0,0,0,0,0,0,0,0,0],"sum_hessian":[9.366943E4,9.325643E4,4.1299893E2,9.251265E4,7.437853E2,1.9950317E2,2.1349574E2,8.812365E4,4.3889956E3,6.951082E2,4.8677094E1,8.7700195E4,4.2345462E2,2.9041616E3,1.4848341E3,5.97039E2,9.806917E1,6.5240215E3,8.117617E4,3.7641095E2,4.7043674E1,2.1774028E3,7.267589E2,1.1686022E3,3.1623187E2,5.6721594E2,2.9823078E1,3.7558273E1,6.05109E1,1.5970052E2,6.3643213E3,7.339613E4,7.7800386E3,3.3281198E2,4.359898E1,1.8948489E3,2.825539E2,1.85995E2,5.407639E2,7.922074E1,1.0893815E3,2.9289758E2,2.33343E1,5.25188E2,4.2027935E1,6.8912477E0,2.293183E1],"tree_param":{"num_deleted":"0","num_feature":"48","num_nodes":"47","size_leaf_vector":"1"}},{"base_weights":[-1.9398844E-2,-4.2493856E-1,7.621163E-3,6.6992545E-1,-4.6311173E-1,-4.5216018E-1,2.815671E-2,-1.7844044E-1,9.579794E-1,3.306867E-2,-4.891432E-1,8.313242E-1,-4.841743E-1,5.1571116E-2,-2.336643E-1,-1.6990112E-1,1.0499882E0,-3.5225353E-1,8.638893E-1,-5.1557636E-1,-1.6549304E-1,-1.7001587E-1,1.1994503E0,8.5736525E-1,-4.937408E-1,8.101163E-3,1.8524052E-1,-2.7123252E-1,6.485949E-1,-1.395204E-1,1.089982E0,5.5424184E-1,-1.9158033E-1,2.2729078E-1,3.3678442E-1,1.2762753E0,-5.204244E-1,3.793853E-1,-3.661176E-1,-1.4421733E-1,1.3118578E0,-1.5347508E-1,1.3112457E0,-5.9816045E-1,-3.8964814E-1,-1.7578192E-2,2.4539493E-1,2.2757125E-1,-8.184347E-2,-5.58983E-1,-1.92753E-1,9.947277E-1,-1.9638763E-1,3.3470142E-1,-1.2633063E-1,-1.6994019E-1,2.806187E-1,1.7779867E-1,4.3823367E-1,1.2561297E-2,-1.596108E-1,3.5749492E-1,-1.6329184E-1,-9.615501E-2,4.061534E-1,-9.627377E-2,4.3924809E-1,-1.7286395E-1,-1.8769458E-1,7.8289814E-2,-1.4131111E-1,-1.4216935E-2,5.15976E-2,-2.3140126E-1,8.382456E-2,4.3419987E-2,1.0715258E-1,3.4410602E-1,-3.500796E-2,-1.8065579E-1,4.6604965E-2,2.1128282E-1,-7.764752E-2,3.3427268E-1,-1.8502034E-1],"categories":[],"categories_nodes":[],"categories_segments":[],"categories_sizes":[],"default_left":[0,0,0,0,0,0,0,0,0,0,0,0,0,0,0,0,0,0,0,0,0,0,0,0,0,0,0,0,0,0,0,0,0,0,0,0,0,0,0,0,0,0,0,0,0,0,0,0,0,0,0,0,0,0,0,0,0,0,0,0,0,0,0,0,0,0,0,0,0,0,0,0,0,0,0,0,0,0,0,0,0,0,0,0,0],"id":17,"left_children":[1,3,5,7,9,11,13,-1,15,17,19,21,23,25,27,-1,29,31,33,35,37,-1,39,41,43,45,47,49,51,-1,53,55,-1,-1,-1,57,59,-1,61,-1,63,-1,65,67,69,71,73,75,77,79,81,83,-1,-1,-1,-1,-1,-1,-1,-1,-1,-1,-1,-1,-1,-1,-1,-1,-1,-1,-1,-1,-1,-1,-1,-1,-1,-1,-1,-1,-1,-1,-1,-1,-1],"loss_changes":[8.3269403E2,1.9870233E2,6.727041E2,5.8981384E1,5.926996E1,1.2556586E2,4.1810736E2,0E0,1.8963898E1,7.3812614E1,3.7205566E1,3.9020813E1,3.8573303E1,3.6375912E2,1.8574185E2,0E0,8.012527E0,4.1256363E1,1.1574097E0,3.5667114E1,9.5315285E1,0E0,1.182869E1,1.3975539E1,3.1855225E1,2.8787103E2,1.7370697E2,1.21175476E2,1.039311E2,0E0,5.1662292E0,1.6916775E1,0E0,0E0,0E0,5.4211044E-1,2.6263428E1,0E0,8.133916E1,0E0,4.261215E0,0E0,4.5534744E0,5.2752686E-1,7.856079E1,2.4092137E2,1.5978299E2,1.4232233E2,9.017415E1,3.559503E1,2.5037329E2,3.560544E1,0E0,0E0,0E0,0E0,0E0,0E0,0E0,0E0,0E0,0E0,0E0,0E0,0E0,0E0,0E0,0E0,0E0,0E0,0E0,0E0,0E0,0E0,0E0,0E0,0E0,0E0,0E0,0E0,0E0,0E0,0E0,0E0,0E0],"parents":[2147483647,0,0,1,1,2,2,3,3,4,4,5,5,6,6,8,8,9,9,10,10,11,11,12,12,13,13,14,14,16,16,17,17,18,18,19,19,20,20,22,22,23,23,24,24,25,25,26,26,27,27,28,28,30,30,31,31,35,35,36,36,38,38,40,40,42,42,43,43,44,44,45,45,46,46,47,47,48,48,49,49,50,50,51,51],"right_children":[2,4,6,8,10,12,14,-1,16,18,20,22,24,26,28,-1,30,32,34,36,38,-1,40,42,44,46,48,50,52,-1,54,56,-1,-1,-1,58,60,-1,62,-1,64,-1,66,68,70,72,74,76,78,80,82,84,-1,-1,-1,-1,-1,-1,-1,-1,-1,-1,-1,-1,-1,-1,-1,-1,-1,-1,-1,-1,-1,-1,-1,-1,-1,-1,-1,-1,-1,-1,-1,-1,-1],"split_conditions":[-7.631303E-1,-9.912775E-1,-8.552043E-1,-1.2183288E0,-3.6779678E-1,-1.2575324E0,6.4654994E-1,-1.7844044E-1,-1.2046794E0,-5.806916E-1,6.4660347E-1,-3.0271664E-1,-1.2618564E0,9.9786155E-2,1.3934934E0,-1.6990112E-1,-1.3155495E0,-9.912775E-1,-9.0561324E-1,-1.034402E0,6.79559E-1,-1.7001587E-1,-1.3892221E0,-1.3892221E0,-1.2778782E0,7.021865E-1,8.9245313E-1,-2.8591532E-1,3.829594E-1,-1.395204E-1,3.8680676E-1,-1.0957407E0,-1.9158033E-1,2.2729078E-1,3.3678442E-1,-1.010238E0,-3.6779678E-1,3.793853E-1,-3.7989956E-1,-1.4421733E-1,-1.307953E0,-1.5347508E-1,-1.307953E0,-1.028338E0,-1.4820782E0,1.4738856E-1,-6.9846946E-1,4.27063E-2,-1.1663198E0,1.0466845E-1,-1.2235837E-1,6.7467666E-1,-1.9638763E-1,3.3470142E-1,-1.2633063E-1,-1.6994019E-1,2.806187E-1,1.7779867E-1,4.3823367E-1,1.2561297E-2,-1.596108E-1,3.5749492E-1,-1.6329184E-1,-9.615501E-2,4.061534E-1,-9.627377E-2,4.3924809E-1,-1.7286395E-1,-1.8769458E-1,7.8289814E-2,-1.4131111E-1,-1.4216935E-2,5.15976E-2,-2.3140126E-1,8.382456E-2,4.3419987E-2,1.0715258E-1,3.4410602E-1,-3.500796E-2,-1.8065579E-1,4.6604965E-2,2.1128282E-1,-7.764752E-2,3.3427268E-1,-1.8502034E-1],"split_indices":[3,14,25,1,13,15,16,0,2,13,36,4,12,39,4,0,3,13,4,15,36,0,16,16,25,27,1,40,40,0,25,0,0,0,0,4,12,0,37,0,28,0,28,28,37,38,37,1,15,38,40,37,0,0,0,0,0,0,0,0,0,0,0,0,0,0,0,0,0,0,0,0,0,0,0,0,0,0,0,0,0,0,0,0,0],"split_type":[0,0,0,0,0,0,0,0,0,0,0,0,0,0,0,0,0,0,0,0,0,0,0,0,0,0,0,0,0,0,0,0,0,0,0,0,0,0,0,0,0,0,0,0,0,0,0,0,0,0,0,0,0,0,0,0,0,0,0,0,0,0,0,0,0,0,0,0,0,0,0,0,0,0,0,0,0,0,0,0,0,0,0,0,0],"sum_hessian":[7.5990484E4,4.745854E3,7.1244625E4,1.5933502E2,4.586519E3,3.045106E3,6.819952E4,2.9360441E1,1.2997458E2,2.2861758E2,4.3579014E3,7.34984E1,2.9716074E3,6.2601895E4,5.597625E3,7.1052985E0,1.2286928E2,1.5657599E2,7.204159E1,4.0283083E3,3.295933E2,1.5206963E1,5.829144E1,2.0412994E1,2.9511946E3,4.7240207E4,1.53616875E4,5.369667E3,2.2795778E2,2.886692E0,1.1998259E2,3.7362217E1,1.19213776E2,5.3853405E1,1.8188185E1,1.0162058E1,4.0181462E3,3.989643E1,2.8969684E2,3.449819E0,5.4841618E1,5.051134E0,1.536186E1,1.470914E3,1.4802805E3,4.262803E4,4.6121763E3,1.3260198E4,2.10149E3,1.1493553E3,4.220312E3,1.8030566E2,4.765211E1,1.1823421E2,1.7483777E0,9.358669E0,2.8003548E1,3.0550063E0,7.1070514E0,8.124378E1,3.9369026E3,2.915235E1,2.605445E2,1.2088763E0,5.3632744E1,1.2218297E0,1.4140031E1,8.301003E2,6.4081366E2,1.643419E2,1.3159387E3,3.6835996E4,5.7920366E3,1.4862689E2,4.4635493E3,8.0909106E3,5.169287E3,5.7073215E1,2.0444167E3,1.0839546E3,6.540072E1,2.8886526E2,3.9314465E3,1.6814378E2,1.2161881E1],"tree_param":{"num_deleted":"0","num_feature":"48","num_nodes":"85","size_leaf_vector":"1"}},{"base_weights":[-1.5324208E-1,-8.8107854E-2,-4.9435055E-1,-4.838602E-2,-4.9603423E-1,-5.1107866E-1,-6.730088E-2,6.3975094E-5,-3.550091E-1,3.0383137E-1,-5.254704E-1,-2.562603E-2,-5.2593124E-1,4.0850314E-1,-3.0243474E-1,3.3476032E-2,-4.2509428E-1,2.0220701E-1,-4.1483894E-1,9.476732E-1,-1.8565047E-1,2.988592E-1,-5.2912444E-1,-1.6854489E-1,5.077452E-1,-5.319877E-1,-1.8061513E-1,9.643557E-1,-1.733455E-1,-4.817762E-1,2.8473228E-1,5.6580886E-2,-5.05672E-1,-4.4848305E-1,7.415707E-1,3.6216804E-1,-2.0307305E-1,-4.4273308E-1,1.24281E-1,1.015436E0,-1.5592624E-1,-5.343307E-1,2.0519473E-1,1.1396265E0,-1.7725325E-1,-5.4936385E-1,-4.377001E-1,4.6877527E-1,-4.0879187E-1,7.701749E-1,1.4198829E0,-5.3586996E-1,2.8621903E-1,2.4466746E-2,-1.08769156E-1,-1.56052E-1,6.921525E-1,9.50577E-2,-1.4334172E-1,2.97868E-1,-1.6601397E-1,-1.0591572E-1,1.8782377E-1,-1.3714716E-1,1.3843772E-1,-1.7548887E-1,1.5346476E-1,-9.9602364E-2,3.109548E-1,1.1024474E-2,-1.6234039E-1,-7.114164E-2,4.7396877E-1,2.3922521E-1,4.077211E-1,-1.6542798E-1,-5.600027E-2,7.701515E-2,-1.6401303E-1,4.4125977E-1,-1.6594583E-1,-1.5928763E-1,4.5974874E-1,2.7791107E-1,2.0754586E-1,2.2233798E-1,5.0958693E-1,-1.6526859E-1,3.351028E-1],"categories":[],"categories_nodes":[],"categories_segments":[],"categories_sizes":[],"default_left":[0,0,0,0,0,0,0,0,0,0,0,0,0,0,0,0,0,0,0,0,0,0,0,0,0,0,0,0,0,0,0,0,0,0,0,0,0,0,0,0,0,0,0,0,0,0,0,0,0,0,0,0,0,0,0,0,0,0,0,0,0,0,0,0,0,0,0,0,0,0,0,0,0,0,0,0,0,0,0,0,0,0,0,0,0,0,0,0,0],"id":18,"left_children":[1,3,5,7,9,11,13,15,17,19,21,23,25,27,29,31,33,35,37,39,-1,-1,41,-1,43,45,47,49,-1,51,-1,53,55,57,59,61,-1,63,65,67,-1,69,71,73,-1,75,77,79,81,83,85,87,-1,-1,-1,-1,-1,-1,-1,-1,-1,-1,-1,-1,-1,-1,-1,-1,-1,-1,-1,-1,-1,-1,-1,-1,-1,-1,-1,-1,-1,-1,-1,-1,-1,-1,-1,-1,-1],"loss_changes":[1.2389321E3,7.587115E2,6.3835938E1,6.3391943E2,9.798657E1,6.2020508E1,3.795741E1,5.2348E2,1.9419617E2,8.857264E1,2.2811768E1,7.363164E1,1.7362793E1,6.2110016E1,5.138581E1,4.256291E2,7.3597626E1,7.9730965E1,7.913068E1,9.241676E0,0E0,0E0,1.5397217E1,0E0,9.0289215E1,1.3200439E1,2.1737432E1,5.2910614E0,0E0,1.5977264E1,0E0,3.4299265E2,5.8472717E1,5.9237488E1,1.7846003E1,9.061015E1,0E0,6.541974E1,7.156488E1,2.732994E0,0E0,1.5449341E1,1.7932476E1,5.0964966E0,0E0,5.07666E0,9.714862E1,4.000782E1,2.6458828E1,5.2337646E-3,2.598297E0,5.3969917E0,0E0,0E0,0E0,0E0,0E0,0E0,0E0,0E0,0E0,0E0,0E0,0E0,0E0,0E0,0E0,0E0,0E0,0E0,0E0,0E0,0E0,0E0,0E0,0E0,0E0,0E0,0E0,0E0,0E0,0E0,0E0,0E0,0E0,0E0,0E0,0E0,0E0],"parents":[2147483647,0,0,1,1,2,2,3,3,4,4,5,5,6,6,7,7,8,8,9,9,10,10,11,11,12,12,13,13,14,14,15,15,16,16,17,17,18,18,19,19,22,22,24,24,25,25,26,26,27,27,29,29,31,31,32,32,33,33,34,34,35,35,37,37,38,38,39,39,41,41,42,42,43,43,45,45,46,46,47,47,48,48,49,49,50,50,51,51],"right_children":[2,4,6,8,10,12,14,16,18,20,22,24,26,28,30,32,34,36,38,40,-1,-1,42,-1,44,46,48,50,-1,52,-1,54,56,58,60,62,-1,64,66,68,-1,70,72,74,-1,76,78,80,82,84,86,88,-1,-1,-1,-1,-1,-1,-1,-1,-1,-1,-1,-1,-1,-1,-1,-1,-1,-1,-1,-1,-1,-1,-1,-1,-1,-1,-1,-1,-1,-1,-1,-1,-1,-1,-1,-1,-1],"split_conditions":[8.919192E-2,2.4609698E-1,1.2961451E0,4.774566E-3,-1.3063154E0,-1.2082325E0,1.5119464E0,3.829594E-1,-1.0541483E0,4.048692E-1,-7.385354E-1,-1.2385726E0,1.2984256E0,4.086679E-1,1.2056265E0,2.7610016E-1,1.9480654E0,1.0387E0,1.3989034E0,1.5646316E-2,-1.8565047E-1,2.988592E-1,2.322452E0,-1.6854489E-1,5.8469516E-1,1.2616984E0,4.086679E-1,-8.552043E-1,-1.733455E-1,1.1934208E0,2.8473228E-1,3.241094E-2,2.3251185E-1,-8.8182285E-2,7.05191E-1,2.6000458E-1,-2.0307305E-1,2.322452E0,2.0798318E-1,-1.5931504E0,-1.5592624E-1,-1.2082325E0,1.1881549E0,-1.307953E0,-1.7725325E-1,1.2961451E0,1.3097292E0,1.4073547E0,8.052781E-1,7.5387426E-2,-8.552043E-1,1.189759E0,2.8621903E-1,2.4466746E-2,-1.08769156E-1,-1.56052E-1,6.921525E-1,9.50577E-2,-1.4334172E-1,2.97868E-1,-1.6601397E-1,-1.0591572E-1,1.8782377E-1,-1.3714716E-1,1.3843772E-1,-1.7548887E-1,1.5346476E-1,-9.9602364E-2,3.109548E-1,1.1024474E-2,-1.6234039E-1,-7.114164E-2,4.7396877E-1,2.3922521E-1,4.077211E-1,-1.6542798E-1,-5.600027E-2,7.701515E-2,-1.6401303E-1,4.4125977E-1,-1.6594583E-1,-1.5928763E-1,4.5974874E-1,2.7791107E-1,2.0754586E-1,2.2233798E-1,5.0958693E-1,-1.6526859E-1,3.351028E-1],"split_indices":[4,0,15,28,38,16,15,38,0,0,1,